digraph Tree {
node [shape=box, style="filled, rounded", color="black", fontname="helvetica"] ;
edge [fontname="helvetica"] ;
0 [label=< //  &le; 0.023<br/>gini = 0.5<br/>samples = 4800<br/>value = [0.501, 0.499]<br/>class = LLM>, fillcolor="#fffefe"] ;
1 [label=< :  &le; 0.047<br/>gini = 0.411<br/>samples = 3334<br/>value = [0.201, 0.494]<br/>class = Student>, fillcolor="#8ac5f0"] ;
0 -> 1 [labeldistance=2.5, labelangle=45, headlabel="True"] ;
2 [label=<lt.app &le; 0.028<br/>gini = 0.387<br/>samples = 3192<br/>value = [0.174, 0.491]<br/>class = Student>, fillcolor="#7fc0ee"] ;
1 -> 2 ;
3 [label=<gini = 0.367<br/>samples = 3104<br/>value = [0.157, 0.49]<br/>class = Student>, fillcolor="#78bced"] ;
2 -> 3 ;
4 [label=<gini = 0.087<br/>samples = 88<br/>value = [0.017, 0.001]<br/>class = LLM>, fillcolor="#e68742"] ;
2 -> 4 ;
5 [label=< i;  &le; 0.04<br/>gini = 0.166<br/>samples = 142<br/>value = [0.027, 0.003]<br/>class = LLM>, fillcolor="#e88e4d"] ;
1 -> 5 ;
6 [label=<gini = 0.098<br/>samples = 136<br/>value = [0.027, 0.001]<br/>class = LLM>, fillcolor="#e68844"] ;
5 -> 6 ;
7 [label=<gini = 0.0<br/>samples = 6<br/>value = [0.0, 0.001]<br/>class = Student>, fillcolor="#399de5"] ;
5 -> 7 ;
8 [label=< if( &le; 0.027<br/>gini = 0.035<br/>samples = 1466<br/>value = [0.3, 0.005]<br/>class = LLM>, fillcolor="#e5833d"] ;
0 -> 8 [labeldistance=2.5, labelangle=-45, headlabel="False"] ;
9 [label=<ount  &le; 0.208<br/>gini = 0.028<br/>samples = 1461<br/>value = [0.3, 0.004]<br/>class = LLM>, fillcolor="#e5833c"] ;
8 -> 9 ;
10 [label=<gini = 0.023<br/>samples = 1457<br/>value = [0.3, 0.004]<br/>class = LLM>, fillcolor="#e5823b"] ;
9 -> 10 ;
11 [label=<gini = -0.0<br/>samples = 4<br/>value = [0.0, 0.001]<br/>class = Student>, fillcolor="#399de5"] ;
9 -> 11 ;
12 [label=<gini = -0.0<br/>samples = 5<br/>value = [0.0, 0.001]<br/>class = Student>, fillcolor="#399de5"] ;
8 -> 12 ;
}
