digraph Tree {
node [shape=box, style="filled, rounded", color="black", fontname="helvetica"] ;
edge [fontname="helvetica"] ;
0 [label=< //  &le; 0.023<br/>gini = 0.5<br/>samples = 4800<br/>value = [0.498, 0.502]<br/>class = Student>, fillcolor="#fdfeff"] ;
1 [label=< :  &le; 0.047<br/>gini = 0.41<br/>samples = 3351<br/>value = [0.201, 0.497]<br/>class = Student>, fillcolor="#89c5f0"] ;
0 -> 1 [labeldistance=2.5, labelangle=45, headlabel="True"] ;
2 [label=< if( &le; 0.008<br/>gini = 0.386<br/>samples = 3209<br/>value = [0.174, 0.494]<br/>class = Student>, fillcolor="#7fc0ee"] ;
1 -> 2 ;
3 [label=<gini = 0.426<br/>samples = 2725<br/>value = [0.174, 0.393]<br/>class = Student>, fillcolor="#91c8f1"] ;
2 -> 3 ;
4 [label=<gini = 0.0<br/>samples = 484<br/>value = [0.0, 0.101]<br/>class = Student>, fillcolor="#399de5"] ;
2 -> 4 ;
5 [label=<(int &le; 0.065<br/>gini = 0.166<br/>samples = 142<br/>value = [0.027, 0.003]<br/>class = LLM>, fillcolor="#e88e4d"] ;
1 -> 5 ;
6 [label=<gini = 0.086<br/>samples = 134<br/>value = [0.027, 0.001]<br/>class = LLM>, fillcolor="#e68742"] ;
5 -> 6 ;
7 [label=<gini = 0.219<br/>samples = 8<br/>value = [0.0, 0.001]<br/>class = Student>, fillcolor="#55abe9"] ;
5 -> 7 ;
8 [label=< if( &le; 0.027<br/>gini = 0.034<br/>samples = 1449<br/>value = [0.297, 0.005]<br/>class = LLM>, fillcolor="#e5833c"] ;
0 -> 8 [labeldistance=2.5, labelangle=-45, headlabel="False"] ;
9 [label=<(str &le; 0.106<br/>gini = 0.029<br/>samples = 1445<br/>value = [0.297, 0.004]<br/>class = LLM>, fillcolor="#e5833c"] ;
8 -> 9 ;
10 [label=<gini = 0.025<br/>samples = 1442<br/>value = [0.297, 0.004]<br/>class = LLM>, fillcolor="#e5833c"] ;
9 -> 10 ;
11 [label=<gini = -0.0<br/>samples = 3<br/>value = [0.0, 0.001]<br/>class = Student>, fillcolor="#399de5"] ;
9 -> 11 ;
12 [label=<gini = -0.0<br/>samples = 4<br/>value = [0.0, 0.001]<br/>class = Student>, fillcolor="#399de5"] ;
8 -> 12 ;
}
