digraph Tree {
node [shape=box, style="filled, rounded", color="black", fontname="helvetica"] ;
edge [fontname="helvetica"] ;
0 [label=< //  &le; 0.026<br/>gini = 0.5<br/>samples = 4800<br/>value = [0.496, 0.504]<br/>class = Student>, fillcolor="#fcfeff"] ;
1 [label=< :  &le; 0.008<br/>gini = 0.407<br/>samples = 3347<br/>value = [0.198, 0.499]<br/>class = Student>, fillcolor="#88c4ef"] ;
0 -> 1 [labeldistance=2.5, labelangle=45, headlabel="True"] ;
2 [label=<sult.a &le; 0.028<br/>gini = 0.379<br/>samples = 3199<br/>value = [0.17, 0.497]<br/>class = Student>, fillcolor="#7dbeee"] ;
1 -> 2 ;
3 [label=<gini = 0.362<br/>samples = 3120<br/>value = [0.154, 0.496]<br/>class = Student>, fillcolor="#76bbed"] ;
2 -> 3 ;
4 [label=<gini = 0.096<br/>samples = 79<br/>value = [0.016, 0.001]<br/>class = LLM>, fillcolor="#e68844"] ;
2 -> 4 ;
5 [label=<ms.l &le; 0.047<br/>gini = 0.138<br/>samples = 148<br/>value = [0.029, 0.002]<br/>class = LLM>, fillcolor="#e78b49"] ;
1 -> 5 ;
6 [label=<gini = 0.068<br/>samples = 142<br/>value = [0.029, 0.001]<br/>class = LLM>, fillcolor="#e68640"] ;
5 -> 6 ;
7 [label=<gini = 0.0<br/>samples = 6<br/>value = [0.0, 0.001]<br/>class = Student>, fillcolor="#399de5"] ;
5 -> 7 ;
8 [label=<for( &le; 0.032<br/>gini = 0.028<br/>samples = 1453<br/>value = [0.298, 0.004]<br/>class = LLM>, fillcolor="#e5833c"] ;
0 -> 8 [labeldistance=2.5, labelangle=-45, headlabel="False"] ;
9 [label=<unt  &le; 0.222<br/>gini = 0.025<br/>samples = 1450<br/>value = [0.298, 0.004]<br/>class = LLM>, fillcolor="#e5833b"] ;
8 -> 9 ;
10 [label=<gini = 0.021<br/>samples = 1447<br/>value = [0.298, 0.003]<br/>class = LLM>, fillcolor="#e5823b"] ;
9 -> 10 ;
11 [label=<gini = -0.0<br/>samples = 3<br/>value = [0.0, 0.001]<br/>class = Student>, fillcolor="#399de5"] ;
9 -> 11 ;
12 [label=<gini = -0.0<br/>samples = 3<br/>value = [0.0, 0.001]<br/>class = Student>, fillcolor="#399de5"] ;
8 -> 12 ;
}
