digraph Tree {
node [shape=box, style="filled, rounded", color="black", fontname="helvetica"] ;
edge [fontname="helvetica"] ;
0 [label=<heck &le; 0.003<br/>gini = 0.5<br/>samples = 2624<br/>value = [2116, 2084]<br/>class = LLM>, fillcolor="#fffdfc"] ;
1 [label=< void  &le; 0.005<br/>gini = 0.468<br/>samples = 2049<br/>value = [1229, 2063]<br/>class = Student>, fillcolor="#afd7f4"] ;
0 -> 1 [labeldistance=2.5, labelangle=45, headlabel="True"] ;
2 [label=< are  &le; 0.007<br/>gini = 0.453<br/>samples = 1962<br/>value = [1095, 2058]<br/>class = Student>, fillcolor="#a2d1f3"] ;
1 -> 2 ;
3 [label=<lement &le; 0.012<br/>gini = 0.442<br/>samples = 1912<br/>value = [1013, 2057]<br/>class = Student>, fillcolor="#9bcdf2"] ;
2 -> 3 ;
4 [label=< publi &le; 0.002<br/>gini = 0.432<br/>samples = 1871<br/>value = [946, 2057]<br/>class = Student>, fillcolor="#94caf1"] ;
3 -> 4 ;
5 [label=< len &le; 0.066<br/>gini = 0.127<br/>samples = 68<br/>value = [109, 8]<br/>class = LLM>, fillcolor="#e78a48"] ;
4 -> 5 ;
6 [label=<remai &le; 0.246<br/>gini = 0.085<br/>samples = 66<br/>value = [108, 5]<br/>class = LLM>, fillcolor="#e68742"] ;
5 -> 6 ;
7 [label=<olea &le; 0.087<br/>gini = 0.036<br/>samples = 63<br/>value = [108, 2]<br/>class = LLM>, fillcolor="#e5833d"] ;
6 -> 7 ;
8 [label="(...)", fillcolor="#C0C0C0"] ;
7 -> 8 ;
15 [label="(...)", fillcolor="#C0C0C0"] ;
7 -> 15 ;
16 [label=<gini = 0.0<br/>samples = 3<br/>value = [0, 3]<br/>class = Student>, fillcolor="#399de5"] ;
6 -> 16 ;
17 [label=<gini = 0.375<br/>samples = 2<br/>value = [1, 3]<br/>class = Student>, fillcolor="#7bbeee"] ;
5 -> 17 ;
18 [label=<ult.ap &le; 0.015<br/>gini = 0.412<br/>samples = 1803<br/>value = [837, 2049]<br/>class = Student>, fillcolor="#8ac5f0"] ;
4 -> 18 ;
19 [label=< to  &le; 0.008<br/>gini = 0.399<br/>samples = 1766<br/>value = [779, 2046]<br/>class = Student>, fillcolor="#84c2ef"] ;
18 -> 19 ;
20 [label=< +=  &le; 0.15<br/>gini = 0.369<br/>samples = 1682<br/>value = [656, 2037]<br/>class = Student>, fillcolor="#79bded"] ;
19 -> 20 ;
21 [label="(...)", fillcolor="#C0C0C0"] ;
20 -> 21 ;
70 [label="(...)", fillcolor="#C0C0C0"] ;
20 -> 70 ;
73 [label=<stat &le; 0.013<br/>gini = 0.127<br/>samples = 84<br/>value = [123, 9]<br/>class = LLM>, fillcolor="#e78a47"] ;
19 -> 73 ;
74 [label="(...)", fillcolor="#C0C0C0"] ;
73 -> 74 ;
81 [label="(...)", fillcolor="#C0C0C0"] ;
73 -> 81 ;
82 [label=<at(i &le; 0.016<br/>gini = 0.094<br/>samples = 37<br/>value = [58, 3]<br/>class = LLM>, fillcolor="#e68843"] ;
18 -> 82 ;
83 [label=< str. &le; 0.036<br/>gini = 0.236<br/>samples = 13<br/>value = [19, 3]<br/>class = LLM>, fillcolor="#e99558"] ;
82 -> 83 ;
84 [label="(...)", fillcolor="#C0C0C0"] ;
83 -> 84 ;
85 [label="(...)", fillcolor="#C0C0C0"] ;
83 -> 85 ;
86 [label=<gini = 0.0<br/>samples = 24<br/>value = [39, 0]<br/>class = LLM>, fillcolor="#e58139"] ;
82 -> 86 ;
87 [label=<gini = 0.0<br/>samples = 41<br/>value = [67, 0]<br/>class = LLM>, fillcolor="#e58139"] ;
3 -> 87 ;
88 [label=<thou &le; 0.038<br/>gini = 0.024<br/>samples = 50<br/>value = [82, 1]<br/>class = LLM>, fillcolor="#e5833b"] ;
2 -> 88 ;
89 [label=<gini = 0.0<br/>samples = 48<br/>value = [81, 0]<br/>class = LLM>, fillcolor="#e58139"] ;
88 -> 89 ;
90 [label=<gini = 0.5<br/>samples = 2<br/>value = [1, 1]<br/>class = LLM>, fillcolor="#ffffff"] ;
88 -> 90 ;
91 [label=<i++) &le; 0.04<br/>gini = 0.069<br/>samples = 87<br/>value = [134, 5]<br/>class = LLM>, fillcolor="#e68640"] ;
1 -> 91 ;
92 [label=<gini = 0.0<br/>samples = 82<br/>value = [134, 0]<br/>class = LLM>, fillcolor="#e58139"] ;
91 -> 92 ;
93 [label=<gini = 0.0<br/>samples = 5<br/>value = [0, 5]<br/>class = Student>, fillcolor="#399de5"] ;
91 -> 93 ;
94 [label=<hecker &le; 0.295<br/>gini = 0.045<br/>samples = 575<br/>value = [887, 21]<br/>class = LLM>, fillcolor="#e6843e"] ;
0 -> 94 [labeldistance=2.5, labelangle=-45, headlabel="False"] ;
95 [label=< //  &le; 0.006<br/>gini = 0.035<br/>samples = 573<br/>value = [887, 16]<br/>class = LLM>, fillcolor="#e5833d"] ;
94 -> 95 ;
96 [label=<gini = 0.0<br/>samples = 7<br/>value = [0, 13]<br/>class = Student>, fillcolor="#399de5"] ;
95 -> 96 ;
97 [label=< 1  &le; 0.061<br/>gini = 0.007<br/>samples = 566<br/>value = [887, 3]<br/>class = LLM>, fillcolor="#e5813a"] ;
95 -> 97 ;
98 [label=<gini = 0.0<br/>samples = 563<br/>value = [884, 0]<br/>class = LLM>, fillcolor="#e58139"] ;
97 -> 98 ;
99 [label=<gini = 0.5<br/>samples = 3<br/>value = [3, 3]<br/>class = LLM>, fillcolor="#ffffff"] ;
97 -> 99 ;
100 [label=<gini = 0.0<br/>samples = 2<br/>value = [0, 5]<br/>class = Student>, fillcolor="#399de5"] ;
94 -> 100 ;
}
