digraph Tree {
node [shape=box, style="filled, rounded", color="black", fontname="helvetica"] ;
edge [fontname="helvetica"] ;
0 [label="to <= 0.003\ngini = 0.5\nsamples = 3010\nvalue = [2379, 2421]\nclass = Student", fillcolor="#fcfdff"] ;
1 [label="heck  <= 0.003\ngini = 0.461\nsamples = 2155\nvalue = [1245, 2213]\nclass = Student", fillcolor="#a8d4f4"] ;
0 -> 1 [labeldistance=2.5, labelangle=45, headlabel="True"] ;
2 [label=" o <= 0.003\ngini = 0.419\nsamples = 1959\nvalue = [940.0, 2203.0]\nclass = Student", fillcolor="#8dc7f0"] ;
1 -> 2 ;
3 [label="t;  <= 0.034\ngini = 0.393\nsamples = 1825\nvalue = [789, 2149]\nclass = Student", fillcolor="#82c1ef"] ;
2 -> 3 ;
4 [label="urn  <= 0.014\ngini = 0.37\nsamples = 1662\nvalue = [657.0, 2021.0]\nclass = Student", fillcolor="#79bded"] ;
3 -> 4 ;
5 [label="mi <= 0.185\ngini = 0.155\nsamples = 358\nvalue = [48, 518]\nclass = Student", fillcolor="#4ba6e7"] ;
4 -> 5 ;
6 [label="lt <= 0.032\ngini = 0.119\nsamples = 347\nvalue = [35.0, 515.0]\nclass = Student", fillcolor="#46a4e7"] ;
5 -> 6 ;
7 [label="nums[i <= 0.128\ngini = 0.096\nsamples = 327\nvalue = [26, 490]\nclass = Student", fillcolor="#44a2e6"] ;
6 -> 7 ;
8 [label=" m <= 0.174\ngini = 0.073\nsamples = 316\nvalue = [19, 479]\nclass = Student", fillcolor="#41a1e6"] ;
7 -> 8 ;
9 [label="str.s <= 0.095\ngini = 0.052\nsamples = 309\nvalue = [13, 470]\nclass = Student", fillcolor="#3ea0e6"] ;
8 -> 9 ;
10 [label="inde <= 0.17\ngini = 0.037\nsamples = 302\nvalue = [9, 464]\nclass = Student", fillcolor="#3d9fe6"] ;
9 -> 10 ;
11 [label="rat(i <= 0.121\ngini = 0.025\nsamples = 298\nvalue = [6, 461]\nclass = Student", fillcolor="#3c9ee5"] ;
10 -> 11 ;
12 [label="nc <= 0.039\ngini = 0.017\nsamples = 294\nvalue = [4, 456]\nclass = Student", fillcolor="#3b9ee5"] ;
11 -> 12 ;
13 [label="bre <= 0.286\ngini = 0.004\nsamples = 286\nvalue = [1, 448]\nclass = Student", fillcolor="#399de5"] ;
12 -> 13 ;
14 [label="gini = 0.0\nsamples = 284\nvalue = [0, 447]\nclass = Student", fillcolor="#399de5"] ;
13 -> 14 ;
15 [label="gini = 0.5\nsamples = 2\nvalue = [1, 1]\nclass = LLM", fillcolor="#ffffff"] ;
13 -> 15 ;
16 [label=" false <= 0.039\ngini = 0.397\nsamples = 8\nvalue = [3, 8]\nclass = Student", fillcolor="#83c2ef"] ;
12 -> 16 ;
17 [label="gini = 0.0\nsamples = 6\nvalue = [0, 8]\nclass = Student", fillcolor="#399de5"] ;
16 -> 17 ;
18 [label="gini = 0.0\nsamples = 2\nvalue = [3, 0]\nclass = LLM", fillcolor="#e58139"] ;
16 -> 18 ;
19 [label="gini = 0.408\nsamples = 4\nvalue = [2, 5]\nclass = Student", fillcolor="#88c4ef"] ;
11 -> 19 ;
20 [label="gini = 0.5\nsamples = 4\nvalue = [3, 3]\nclass = LLM", fillcolor="#ffffff"] ;
10 -> 20 ;
21 [label=",  <= 0.034\ngini = 0.48\nsamples = 7\nvalue = [4, 6]\nclass = Student", fillcolor="#bddef6"] ;
9 -> 21 ;
22 [label="gini = 0.0\nsamples = 4\nvalue = [0, 6]\nclass = Student", fillcolor="#399de5"] ;
21 -> 22 ;
23 [label="gini = 0.0\nsamples = 3\nvalue = [4, 0]\nclass = LLM", fillcolor="#e58139"] ;
21 -> 23 ;
24 [label="th;  <= 0.025\ngini = 0.48\nsamples = 7\nvalue = [6, 9]\nclass = Student", fillcolor="#bddef6"] ;
8 -> 24 ;
25 [label="gini = 0.0\nsamples = 3\nvalue = [6, 0]\nclass = LLM", fillcolor="#e58139"] ;
24 -> 25 ;
26 [label="gini = 0.0\nsamples = 4\nvalue = [0, 9]\nclass = Student", fillcolor="#399de5"] ;
24 -> 26 ;
27 [label="ums. <= 0.051\ngini = 0.475\nsamples = 11\nvalue = [7, 11]\nclass = Student", fillcolor="#b7dbf6"] ;
7 -> 27 ;
28 [label="gini = 0.0\nsamples = 6\nvalue = [0, 11]\nclass = Student", fillcolor="#399de5"] ;
27 -> 28 ;
29 [label="gini = 0.0\nsamples = 5\nvalue = [7, 0]\nclass = LLM", fillcolor="#e58139"] ;
27 -> 29 ;
30 [label="dex <= 0.145\ngini = 0.389\nsamples = 20\nvalue = [9, 25]\nclass = Student", fillcolor="#80c0ee"] ;
6 -> 30 ;
31 [label=" cl <= 0.009\ngini = 0.074\nsamples = 18\nvalue = [1, 25]\nclass = Student", fillcolor="#41a1e6"] ;
30 -> 31 ;
32 [label="gini = 0.0\nsamples = 16\nvalue = [0, 24]\nclass = Student", fillcolor="#399de5"] ;
31 -> 32 ;
33 [label="gini = 0.5\nsamples = 2\nvalue = [1, 1]\nclass = LLM", fillcolor="#ffffff"] ;
31 -> 33 ;
34 [label="gini = 0.0\nsamples = 2\nvalue = [8, 0]\nclass = LLM", fillcolor="#e58139"] ;
30 -> 34 ;
35 [label="public <= 0.01\ngini = 0.305\nsamples = 11\nvalue = [13, 3]\nclass = LLM", fillcolor="#eb9e67"] ;
5 -> 35 ;
36 [label="gini = 0.0\nsamples = 2\nvalue = [0, 3]\nclass = Student", fillcolor="#399de5"] ;
35 -> 36 ;
37 [label="gini = 0.0\nsamples = 9\nvalue = [13, 0]\nclass = LLM", fillcolor="#e58139"] ;
35 -> 37 ;
38 [label=" else  <= 0.006\ngini = 0.41\nsamples = 1304\nvalue = [609, 1503]\nclass = Student", fillcolor="#89c5f0"] ;
4 -> 38 ;
39 [label="t[] <= 0.061\ngini = 0.484\nsamples = 690\nvalue = [465, 667]\nclass = Student", fillcolor="#c3e1f7"] ;
38 -> 39 ;
40 [label=" =  <= 0.037\ngini = 0.498\nsamples = 605\nvalue = [463, 532]\nclass = Student", fillcolor="#e5f2fc"] ;
39 -> 40 ;
41 [label=" - <= 0.021\ngini = 0.487\nsamples = 420\nvalue = [406.0, 292.0]\nclass = LLM", fillcolor="#f8dcc7"] ;
40 -> 41 ;
42 [label="lse <= 0.019\ngini = 0.499\nsamples = 260\nvalue = [212.0, 230.0]\nclass = Student", fillcolor="#f0f7fd"] ;
41 -> 42 ;
43 [label="ub <= 0.037\ngini = 0.494\nsamples = 211\nvalue = [203.0, 162.0]\nclass = LLM", fillcolor="#fae6d7"] ;
42 -> 43 ;
44 [label="etu <= 0.066\ngini = 0.462\nsamples = 182\nvalue = [202, 115]\nclass = LLM", fillcolor="#f4c9aa"] ;
43 -> 44 ;
45 [label="<  <= 0.03\ngini = 0.411\nsamples = 144\nvalue = [180, 73]\nclass = LLM", fillcolor="#f0b489"] ;
44 -> 45 ;
46 [label=" 2  <= 0.036\ngini = 0.363\nsamples = 131\nvalue = [176, 55]\nclass = LLM", fillcolor="#eda877"] ;
45 -> 46 ;
47 [label=")) <= 0.075\ngini = 0.329\nsamples = 127\nvalue = [176, 46]\nclass = LLM", fillcolor="#eca26d"] ;
46 -> 47 ;
48 [label="gini = 0.302\nsamples = 124\nvalue = [176, 40]\nclass = LLM", fillcolor="#eb9e66"] ;
47 -> 48 ;
49 [label="gini = 0.0\nsamples = 3\nvalue = [0, 6]\nclass = Student", fillcolor="#399de5"] ;
47 -> 49 ;
50 [label="gini = 0.0\nsamples = 4\nvalue = [0, 9]\nclass = Student", fillcolor="#399de5"] ;
46 -> 50 ;
51 [label="oolea <= 0.036\ngini = 0.298\nsamples = 13\nvalue = [4, 18]\nclass = Student", fillcolor="#65b3eb"] ;
45 -> 51 ;
52 [label="gini = 0.0\nsamples = 10\nvalue = [0, 18]\nclass = Student", fillcolor="#399de5"] ;
51 -> 52 ;
53 [label="gini = 0.0\nsamples = 3\nvalue = [4, 0]\nclass = LLM", fillcolor="#e58139"] ;
51 -> 53 ;
54 [label=" +  <= 0.034\ngini = 0.451\nsamples = 38\nvalue = [22, 42]\nclass = Student", fillcolor="#a1d0f3"] ;
44 -> 54 ;
55 [label="a  <= 0.135\ngini = 0.5\nsamples = 25\nvalue = [18, 17]\nclass = LLM", fillcolor="#fef8f4"] ;
54 -> 55 ;
56 [label=" 1 <= 0.068\ngini = 0.426\nsamples = 18\nvalue = [18, 8]\nclass = LLM", fillcolor="#f1b991"] ;
55 -> 56 ;
57 [label="gini = 0.255\nsamples = 14\nvalue = [17, 3]\nclass = LLM", fillcolor="#ea975c"] ;
56 -> 57 ;
58 [label="gini = 0.278\nsamples = 4\nvalue = [1, 5]\nclass = Student", fillcolor="#61b1ea"] ;
56 -> 58 ;
59 [label="gini = 0.0\nsamples = 7\nvalue = [0, 9]\nclass = Student", fillcolor="#399de5"] ;
55 -> 59 ;
60 [label=" if  <= 0.089\ngini = 0.238\nsamples = 13\nvalue = [4, 25]\nclass = Student", fillcolor="#59ade9"] ;
54 -> 60 ;
61 [label="gini = 0.0\nsamples = 9\nvalue = [0, 21]\nclass = Student", fillcolor="#399de5"] ;
60 -> 61 ;
62 [label="gini = 0.5\nsamples = 4\nvalue = [4, 4]\nclass = LLM", fillcolor="#ffffff"] ;
60 -> 62 ;
63 [label=",  <= 0.065\ngini = 0.041\nsamples = 29\nvalue = [1, 47]\nclass = Student", fillcolor="#3d9fe6"] ;
43 -> 63 ;
64 [label="gini = 0.0\nsamples = 22\nvalue = [0, 38]\nclass = Student", fillcolor="#399de5"] ;
63 -> 64 ;
65 [label=" } <= 0.046\ngini = 0.18\nsamples = 7\nvalue = [1, 9]\nclass = Student", fillcolor="#4fa8e8"] ;
63 -> 65 ;
66 [label="gini = 0.444\nsamples = 2\nvalue = [1, 2]\nclass = Student", fillcolor="#9ccef2"] ;
65 -> 66 ;
67 [label="gini = 0.0\nsamples = 5\nvalue = [0, 7]\nclass = Student", fillcolor="#399de5"] ;
65 -> 67 ;
68 [label="ool <= 0.137\ngini = 0.206\nsamples = 49\nvalue = [9, 68]\nclass = Student", fillcolor="#53aae8"] ;
42 -> 68 ;
69 [label=" -  <= 0.018\ngini = 0.131\nsamples = 45\nvalue = [5, 66]\nclass = Student", fillcolor="#48a4e7"] ;
68 -> 69 ;
70 [label="ls <= 0.09\ngini = 0.083\nsamples = 43\nvalue = [3, 66]\nclass = Student", fillcolor="#42a1e6"] ;
69 -> 70 ;
71 [label=" (i <= 0.059\ngini = 0.03\nsamples = 41\nvalue = [1, 65]\nclass = Student", fillcolor="#3c9fe5"] ;
70 -> 71 ;
72 [label="gini = 0.0\nsamples = 38\nvalue = [0, 63]\nclass = Student", fillcolor="#399de5"] ;
71 -> 72 ;
73 [label="gini = 0.444\nsamples = 3\nvalue = [1, 2]\nclass = Student", fillcolor="#9ccef2"] ;
71 -> 73 ;
74 [label="gini = 0.444\nsamples = 2\nvalue = [2, 1]\nclass = LLM", fillcolor="#f2c09c"] ;
70 -> 74 ;
75 [label="gini = 0.0\nsamples = 2\nvalue = [2, 0]\nclass = LLM", fillcolor="#e58139"] ;
69 -> 75 ;
76 [label="gini = 0.444\nsamples = 4\nvalue = [4, 2]\nclass = LLM", fillcolor="#f2c09c"] ;
68 -> 76 ;
77 [label="(a  <= 0.172\ngini = 0.367\nsamples = 160\nvalue = [194, 62]\nclass = LLM", fillcolor="#eda978"] ;
41 -> 77 ;
78 [label="eng <= 0.046\ngini = 0.326\nsamples = 155\nvalue = [194, 50]\nclass = LLM", fillcolor="#eca16c"] ;
77 -> 78 ;
79 [label="ndex <= 0.086\ngini = 0.288\nsamples = 145\nvalue = [189, 40]\nclass = LLM", fillcolor="#eb9c63"] ;
78 -> 79 ;
80 [label=" retur <= 0.023\ngini = 0.253\nsamples = 140\nvalue = [189, 33]\nclass = LLM", fillcolor="#ea975c"] ;
79 -> 80 ;
81 [label=");  <= 0.035\ngini = 0.444\nsamples = 9\nvalue = [4, 8]\nclass = Student", fillcolor="#9ccef2"] ;
80 -> 81 ;
82 [label="gini = 0.0\nsamples = 5\nvalue = [0, 6]\nclass = Student", fillcolor="#399de5"] ;
81 -> 82 ;
83 [label="gini = 0.444\nsamples = 4\nvalue = [4, 2]\nclass = LLM", fillcolor="#f2c09c"] ;
81 -> 83 ;
84 [label=" i  <= 0.099\ngini = 0.21\nsamples = 131\nvalue = [185, 25]\nclass = LLM", fillcolor="#e99254"] ;
80 -> 84 ;
85 [label="ou <= 0.099\ngini = 0.169\nsamples = 127\nvalue = [185, 19]\nclass = LLM", fillcolor="#e88e4d"] ;
84 -> 85 ;
86 [label="gini = 0.147\nsamples = 125\nvalue = [185, 16]\nclass = LLM", fillcolor="#e78c4a"] ;
85 -> 86 ;
87 [label="gini = 0.0\nsamples = 2\nvalue = [0, 3]\nclass = Student", fillcolor="#399de5"] ;
85 -> 87 ;
88 [label="gini = 0.0\nsamples = 4\nvalue = [0, 6]\nclass = Student", fillcolor="#399de5"] ;
84 -> 88 ;
89 [label="gini = 0.0\nsamples = 5\nvalue = [0, 7]\nclass = Student", fillcolor="#399de5"] ;
79 -> 89 ;
90 [label="alse; <= 0.035\ngini = 0.444\nsamples = 10\nvalue = [5, 10]\nclass = Student", fillcolor="#9ccef2"] ;
78 -> 90 ;
91 [label="gini = 0.0\nsamples = 5\nvalue = [0, 7]\nclass = Student", fillcolor="#399de5"] ;
90 -> 91 ;
92 [label=" = <= 0.043\ngini = 0.469\nsamples = 5\nvalue = [5, 3]\nclass = LLM", fillcolor="#f5cdb0"] ;
90 -> 92 ;
93 [label="gini = 0.0\nsamples = 3\nvalue = [0, 3]\nclass = Student", fillcolor="#399de5"] ;
92 -> 93 ;
94 [label="gini = 0.0\nsamples = 2\nvalue = [5, 0]\nclass = LLM", fillcolor="#e58139"] ;
92 -> 94 ;
95 [label="gini = 0.0\nsamples = 5\nvalue = [0, 12]\nclass = Student", fillcolor="#399de5"] ;
77 -> 95 ;
96 [label="ed <= 0.035\ngini = 0.31\nsamples = 185\nvalue = [57.0, 240.0]\nclass = Student", fillcolor="#68b4eb"] ;
40 -> 96 ;
97 [label=" int[] <= 0.037\ngini = 0.229\nsamples = 166\nvalue = [35, 231]\nclass = Student", fillcolor="#57ace9"] ;
96 -> 97 ;
98 [label=" t <= 0.021\ngini = 0.153\nsamples = 148\nvalue = [20, 220]\nclass = Student", fillcolor="#4ba6e7"] ;
97 -> 98 ;
99 [label="b)  <= 0.039\ngini = 0.059\nsamples = 102\nvalue = [5, 160]\nclass = Student", fillcolor="#3fa0e6"] ;
98 -> 99 ;
100 [label="h  <= 0.066\ngini = 0.026\nsamples = 93\nvalue = [2, 148]\nclass = Student", fillcolor="#3c9ee5"] ;
99 -> 100 ;
101 [label="blic <= 0.003\ngini = 0.014\nsamples = 90\nvalue = [1, 146]\nclass = Student", fillcolor="#3a9ee5"] ;
100 -> 101 ;
102 [label="r  <= 0.066\ngini = 0.219\nsamples = 6\nvalue = [1, 7]\nclass = Student", fillcolor="#55abe9"] ;
101 -> 102 ;
103 [label="gini = 0.5\nsamples = 2\nvalue = [1, 1]\nclass = LLM", fillcolor="#ffffff"] ;
102 -> 103 ;
104 [label="gini = 0.0\nsamples = 4\nvalue = [0, 6]\nclass = Student", fillcolor="#399de5"] ;
102 -> 104 ;
105 [label="gini = 0.0\nsamples = 84\nvalue = [0, 139]\nclass = Student", fillcolor="#399de5"] ;
101 -> 105 ;
106 [label="gini = 0.444\nsamples = 3\nvalue = [1, 2]\nclass = Student", fillcolor="#9ccef2"] ;
100 -> 106 ;
107 [label="return <= 0.019\ngini = 0.32\nsamples = 9\nvalue = [3, 12]\nclass = Student", fillcolor="#6ab6ec"] ;
99 -> 107 ;
108 [label="gini = 0.444\nsamples = 2\nvalue = [2, 1]\nclass = LLM", fillcolor="#f2c09c"] ;
107 -> 108 ;
109 [label=" {  <= 0.033\ngini = 0.153\nsamples = 7\nvalue = [1, 11]\nclass = Student", fillcolor="#4ba6e7"] ;
107 -> 109 ;
110 [label="gini = 0.444\nsamples = 3\nvalue = [1, 2]\nclass = Student", fillcolor="#9ccef2"] ;
109 -> 110 ;
111 [label="gini = 0.0\nsamples = 4\nvalue = [0, 9]\nclass = Student", fillcolor="#399de5"] ;
109 -> 111 ;
112 [label="th <= 0.02\ngini = 0.32\nsamples = 46\nvalue = [15, 60]\nclass = Student", fillcolor="#6ab6ec"] ;
98 -> 112 ;
113 [label="se <= 0.01\ngini = 0.454\nsamples = 16\nvalue = [15, 8]\nclass = LLM", fillcolor="#f3c4a3"] ;
112 -> 113 ;
114 [label="ms <= 0.125\ngini = 0.32\nsamples = 7\nvalue = [2, 8]\nclass = Student", fillcolor="#6ab6ec"] ;
113 -> 114 ;
115 [label="gini = 0.0\nsamples = 5\nvalue = [0, 7]\nclass = Student", fillcolor="#399de5"] ;
114 -> 115 ;
116 [label="gini = 0.444\nsamples = 2\nvalue = [2, 1]\nclass = LLM", fillcolor="#f2c09c"] ;
114 -> 116 ;
117 [label="gini = 0.0\nsamples = 9\nvalue = [13, 0]\nclass = LLM", fillcolor="#e58139"] ;
113 -> 117 ;
118 [label="gini = 0.0\nsamples = 30\nvalue = [0, 52]\nclass = Student", fillcolor="#399de5"] ;
112 -> 118 ;
119 [label=" (nu <= 0.033\ngini = 0.488\nsamples = 18\nvalue = [15.0, 11.0]\nclass = LLM", fillcolor="#f8ddca"] ;
97 -> 119 ;
120 [label="gini = 0.0\nsamples = 5\nvalue = [0, 7]\nclass = Student", fillcolor="#399de5"] ;
119 -> 120 ;
121 [label=" i++) <= 0.023\ngini = 0.332\nsamples = 13\nvalue = [15, 4]\nclass = LLM", fillcolor="#eca36e"] ;
119 -> 121 ;
122 [label="gini = 0.0\nsamples = 2\nvalue = [0, 3]\nclass = Student", fillcolor="#399de5"] ;
121 -> 122 ;
123 [label="ums <= 0.235\ngini = 0.117\nsamples = 11\nvalue = [15, 1]\nclass = LLM", fillcolor="#e78946"] ;
121 -> 123 ;
124 [label="gini = 0.0\nsamples = 8\nvalue = [11, 0]\nclass = LLM", fillcolor="#e58139"] ;
123 -> 124 ;
125 [label="gini = 0.32\nsamples = 3\nvalue = [4, 1]\nclass = LLM", fillcolor="#eca06a"] ;
123 -> 125 ;
126 [label=" publ <= 0.022\ngini = 0.412\nsamples = 19\nvalue = [22, 9]\nclass = LLM", fillcolor="#f0b58a"] ;
96 -> 126 ;
127 [label="lse;  <= 0.017\ngini = 0.302\nsamples = 17\nvalue = [22, 5]\nclass = LLM", fillcolor="#eb9e66"] ;
126 -> 127 ;
128 [label="n  <= 0.03\ngini = 0.153\nsamples = 14\nvalue = [22, 2]\nclass = LLM", fillcolor="#e78c4b"] ;
127 -> 128 ;
129 [label="gini = 0.444\nsamples = 3\nvalue = [1, 2]\nclass = Student", fillcolor="#9ccef2"] ;
128 -> 129 ;
130 [label="gini = 0.0\nsamples = 11\nvalue = [21, 0]\nclass = LLM", fillcolor="#e58139"] ;
128 -> 130 ;
131 [label="gini = 0.0\nsamples = 3\nvalue = [0, 3]\nclass = Student", fillcolor="#399de5"] ;
127 -> 131 ;
132 [label="gini = 0.0\nsamples = 2\nvalue = [0, 4]\nclass = Student", fillcolor="#399de5"] ;
126 -> 132 ;
133 [label="ms[i]  <= 0.046\ngini = 0.029\nsamples = 85\nvalue = [2, 135]\nclass = Student", fillcolor="#3c9ee5"] ;
39 -> 133 ;
134 [label="gini = 0.0\nsamples = 78\nvalue = [0, 129]\nclass = Student", fillcolor="#399de5"] ;
133 -> 134 ;
135 [label="ub <= 0.02\ngini = 0.375\nsamples = 7\nvalue = [2, 6]\nclass = Student", fillcolor="#7bbeee"] ;
133 -> 135 ;
136 [label="gini = 0.0\nsamples = 2\nvalue = [2, 0]\nclass = LLM", fillcolor="#e58139"] ;
135 -> 136 ;
137 [label="gini = 0.0\nsamples = 5\nvalue = [0, 6]\nclass = Student", fillcolor="#399de5"] ;
135 -> 137 ;
138 [label="ip <= 0.043\ngini = 0.251\nsamples = 614\nvalue = [144, 836]\nclass = Student", fillcolor="#5baee9"] ;
38 -> 138 ;
139 [label="s  <= 0.138\ngini = 0.232\nsamples = 604\nvalue = [129, 835]\nclass = Student", fillcolor="#58ace9"] ;
138 -> 139 ;
140 [label="ms) <= 0.058\ngini = 0.22\nsamples = 596\nvalue = [120, 834]\nclass = Student", fillcolor="#55abe9"] ;
139 -> 140 ;
141 [label=".o <= 0.04\ngini = 0.209\nsamples = 593\nvalue = [112, 834]\nclass = Student", fillcolor="#54aae8"] ;
140 -> 141 ;
142 [label=" 1 <= 0.022\ngini = 0.202\nsamples = 591\nvalue = [107, 834]\nclass = Student", fillcolor="#52aae8"] ;
141 -> 142 ;
143 [label=" | <= 0.086\ngini = 0.057\nsamples = 301\nvalue = [14, 459]\nclass = Student", fillcolor="#3fa0e6"] ;
142 -> 143 ;
144 [label="turn <= 0.014\ngini = 0.037\nsamples = 276\nvalue = [8, 416]\nclass = Student", fillcolor="#3d9fe6"] ;
143 -> 144 ;
145 [label="gini = 0.444\nsamples = 2\nvalue = [2, 1]\nclass = LLM", fillcolor="#f2c09c"] ;
144 -> 145 ;
146 [label=" in <= 0.08\ngini = 0.028\nsamples = 274\nvalue = [6, 415]\nclass = Student", fillcolor="#3c9ee5"] ;
144 -> 146 ;
147 [label="ur <= 0.081\ngini = 0.011\nsamples = 236\nvalue = [2, 366]\nclass = Student", fillcolor="#3a9ee5"] ;
146 -> 147 ;
148 [label="gini = 0.0\nsamples = 211\nvalue = [0, 334]\nclass = Student", fillcolor="#399de5"] ;
147 -> 148 ;
149 [label="gini = 0.111\nsamples = 25\nvalue = [2, 32]\nclass = Student", fillcolor="#45a3e7"] ;
147 -> 149 ;
150 [label="lic <= 0.012\ngini = 0.14\nsamples = 38\nvalue = [4, 49]\nclass = Student", fillcolor="#49a5e7"] ;
146 -> 150 ;
151 [label="gini = 0.0\nsamples = 2\nvalue = [2, 0]\nclass = LLM", fillcolor="#e58139"] ;
150 -> 151 ;
152 [label="gini = 0.075\nsamples = 36\nvalue = [2, 49]\nclass = Student", fillcolor="#41a1e6"] ;
150 -> 152 ;
153 [label="in <= 0.032\ngini = 0.215\nsamples = 25\nvalue = [6, 43]\nclass = Student", fillcolor="#55abe9"] ;
143 -> 153 ;
154 [label="gini = 0.0\nsamples = 2\nvalue = [6, 0]\nclass = LLM", fillcolor="#e58139"] ;
153 -> 154 ;
155 [label="gini = 0.0\nsamples = 23\nvalue = [0, 43]\nclass = Student", fillcolor="#399de5"] ;
153 -> 155 ;
156 [label=".char <= 0.093\ngini = 0.318\nsamples = 290\nvalue = [93, 375]\nclass = Student", fillcolor="#6ab5eb"] ;
142 -> 156 ;
157 [label="boole <= 0.07\ngini = 0.3\nsamples = 283\nvalue = [84, 374]\nclass = Student", fillcolor="#65b3eb"] ;
156 -> 157 ;
158 [label="mb <= 0.021\ngini = 0.286\nsamples = 278\nvalue = [78, 373]\nclass = Student", fillcolor="#62b1ea"] ;
157 -> 158 ;
159 [label="1  <= 0.077\ngini = 0.274\nsamples = 274\nvalue = [73, 372]\nclass = Student", fillcolor="#60b0ea"] ;
158 -> 159 ;
160 [label="gini = 0.253\nsamples = 269\nvalue = [65, 372]\nclass = Student", fillcolor="#5caeea"] ;
159 -> 160 ;
161 [label="gini = 0.0\nsamples = 5\nvalue = [8, 0]\nclass = LLM", fillcolor="#e58139"] ;
159 -> 161 ;
162 [label="gini = 0.278\nsamples = 4\nvalue = [5, 1]\nclass = LLM", fillcolor="#ea9a61"] ;
158 -> 162 ;
163 [label="gini = 0.245\nsamples = 5\nvalue = [6, 1]\nclass = LLM", fillcolor="#e9965a"] ;
157 -> 163 ;
164 [label=".leng <= 0.025\ngini = 0.18\nsamples = 7\nvalue = [9, 1]\nclass = LLM", fillcolor="#e88f4f"] ;
156 -> 164 ;
165 [label="gini = 0.0\nsamples = 5\nvalue = [8, 0]\nclass = LLM", fillcolor="#e58139"] ;
164 -> 165 ;
166 [label="gini = 0.5\nsamples = 2\nvalue = [1, 1]\nclass = LLM", fillcolor="#ffffff"] ;
164 -> 166 ;
167 [label="gini = 0.0\nsamples = 2\nvalue = [5, 0]\nclass = LLM", fillcolor="#e58139"] ;
141 -> 167 ;
168 [label="gini = 0.0\nsamples = 3\nvalue = [8, 0]\nclass = LLM", fillcolor="#e58139"] ;
140 -> 168 ;
169 [label=" > <= 0.105\ngini = 0.18\nsamples = 8\nvalue = [9, 1]\nclass = LLM", fillcolor="#e88f4f"] ;
139 -> 169 ;
170 [label="gini = 0.0\nsamples = 6\nvalue = [8, 0]\nclass = LLM", fillcolor="#e58139"] ;
169 -> 170 ;
171 [label="gini = 0.5\nsamples = 2\nvalue = [1, 1]\nclass = LLM", fillcolor="#ffffff"] ;
169 -> 171 ;
172 [label=" 1 <= 0.039\ngini = 0.117\nsamples = 10\nvalue = [15, 1]\nclass = LLM", fillcolor="#e78946"] ;
138 -> 172 ;
173 [label="gini = 0.0\nsamples = 8\nvalue = [14, 0]\nclass = LLM", fillcolor="#e58139"] ;
172 -> 173 ;
174 [label="gini = 0.5\nsamples = 2\nvalue = [1, 1]\nclass = LLM", fillcolor="#ffffff"] ;
172 -> 174 ;
175 [label=" a <= 0.006\ngini = 0.5\nsamples = 163\nvalue = [132, 128]\nclass = LLM", fillcolor="#fefbf9"] ;
3 -> 175 ;
176 [label="leng <= 0.024\ngini = 0.481\nsamples = 138\nvalue = [132, 89]\nclass = LLM", fillcolor="#f7d6be"] ;
175 -> 176 ;
177 [label="se  <= 0.04\ngini = 0.358\nsamples = 77\nvalue = [95, 29]\nclass = LLM", fillcolor="#eda775"] ;
176 -> 177 ;
178 [label=" <=  <= 0.081\ngini = 0.305\nsamples = 72\nvalue = [95, 22]\nclass = LLM", fillcolor="#eb9e67"] ;
177 -> 178 ;
179 [label="(nums[ <= 0.034\ngini = 0.257\nsamples = 70\nvalue = [95, 17]\nclass = LLM", fillcolor="#ea985c"] ;
178 -> 179 ;
180 [label=" i <= 0.151\ngini = 0.158\nsamples = 64\nvalue = [95, 9]\nclass = LLM", fillcolor="#e78d4c"] ;
179 -> 180 ;
181 [label="s  <= 0.02\ngini = 0.112\nsamples = 62\nvalue = [95, 6]\nclass = LLM", fillcolor="#e78946"] ;
180 -> 181 ;
182 [label="]  <= 0.027\ngini = 0.078\nsamples = 60\nvalue = [95, 4]\nclass = LLM", fillcolor="#e68641"] ;
181 -> 182 ;
183 [label="ic  <= 0.014\ngini = 0.245\nsamples = 15\nvalue = [18, 3]\nclass = LLM", fillcolor="#e9965a"] ;
182 -> 183 ;
184 [label="esul <= 0.103\ngini = 0.5\nsamples = 5\nvalue = [3, 3]\nclass = LLM", fillcolor="#ffffff"] ;
183 -> 184 ;
185 [label="gini = 0.0\nsamples = 3\nvalue = [0, 3]\nclass = Student", fillcolor="#399de5"] ;
184 -> 185 ;
186 [label="gini = 0.0\nsamples = 2\nvalue = [3, 0]\nclass = LLM", fillcolor="#e58139"] ;
184 -> 186 ;
187 [label="gini = 0.0\nsamples = 10\nvalue = [15, 0]\nclass = LLM", fillcolor="#e58139"] ;
183 -> 187 ;
188 [label="pu <= 0.02\ngini = 0.025\nsamples = 45\nvalue = [77, 1]\nclass = LLM", fillcolor="#e5833c"] ;
182 -> 188 ;
189 [label="gini = 0.0\nsamples = 42\nvalue = [72, 0]\nclass = LLM", fillcolor="#e58139"] ;
188 -> 189 ;
190 [label="gini = 0.278\nsamples = 3\nvalue = [5, 1]\nclass = LLM", fillcolor="#ea9a61"] ;
188 -> 190 ;
191 [label="gini = 0.0\nsamples = 2\nvalue = [0, 2]\nclass = Student", fillcolor="#399de5"] ;
181 -> 191 ;
192 [label="gini = 0.0\nsamples = 2\nvalue = [0, 3]\nclass = Student", fillcolor="#399de5"] ;
180 -> 192 ;
193 [label="gini = 0.0\nsamples = 6\nvalue = [0, 8]\nclass = Student", fillcolor="#399de5"] ;
179 -> 193 ;
194 [label="gini = 0.0\nsamples = 2\nvalue = [0, 5]\nclass = Student", fillcolor="#399de5"] ;
178 -> 194 ;
195 [label="gini = 0.0\nsamples = 5\nvalue = [0, 7]\nclass = Student", fillcolor="#399de5"] ;
177 -> 195 ;
196 [label="ngth  <= 0.074\ngini = 0.472\nsamples = 61\nvalue = [37, 60]\nclass = Student", fillcolor="#b3d9f5"] ;
176 -> 196 ;
197 [label="it <= 0.027\ngini = 0.414\nsamples = 54\nvalue = [24, 58]\nclass = Student", fillcolor="#8bc6f0"] ;
196 -> 197 ;
198 [label="s[i <= 0.039\ngini = 0.313\nsamples = 46\nvalue = [14, 58]\nclass = Student", fillcolor="#69b5eb"] ;
197 -> 198 ;
199 [label="pu <= 0.009\ngini = 0.089\nsamples = 26\nvalue = [2, 41]\nclass = Student", fillcolor="#43a2e6"] ;
198 -> 199 ;
200 [label="gini = 0.5\nsamples = 2\nvalue = [1, 1]\nclass = LLM", fillcolor="#ffffff"] ;
199 -> 200 ;
201 [label="de <= 0.035\ngini = 0.048\nsamples = 24\nvalue = [1, 40]\nclass = Student", fillcolor="#3e9fe6"] ;
199 -> 201 ;
202 [label="gini = 0.0\nsamples = 22\nvalue = [0, 39]\nclass = Student", fillcolor="#399de5"] ;
201 -> 202 ;
203 [label="gini = 0.5\nsamples = 2\nvalue = [1, 1]\nclass = LLM", fillcolor="#ffffff"] ;
201 -> 203 ;
204 [label=" if <= 0.019\ngini = 0.485\nsamples = 20\nvalue = [12, 17]\nclass = Student", fillcolor="#c5e2f7"] ;
198 -> 204 ;
205 [label="s. <= 0.037\ngini = 0.245\nsamples = 9\nvalue = [12, 2]\nclass = LLM", fillcolor="#e9965a"] ;
204 -> 205 ;
206 [label="gini = 0.48\nsamples = 3\nvalue = [3, 2]\nclass = LLM", fillcolor="#f6d5bd"] ;
205 -> 206 ;
207 [label="gini = 0.0\nsamples = 6\nvalue = [9, 0]\nclass = LLM", fillcolor="#e58139"] ;
205 -> 207 ;
208 [label="gini = 0.0\nsamples = 11\nvalue = [0, 15]\nclass = Student", fillcolor="#399de5"] ;
204 -> 208 ;
209 [label="gini = 0.0\nsamples = 8\nvalue = [10, 0]\nclass = LLM", fillcolor="#e58139"] ;
197 -> 209 ;
210 [label="en <= 0.053\ngini = 0.231\nsamples = 7\nvalue = [13, 2]\nclass = LLM", fillcolor="#e99457"] ;
196 -> 210 ;
211 [label="gini = 0.0\nsamples = 5\nvalue = [10, 0]\nclass = LLM", fillcolor="#e58139"] ;
210 -> 211 ;
212 [label="gini = 0.48\nsamples = 2\nvalue = [3, 2]\nclass = LLM", fillcolor="#f6d5bd"] ;
210 -> 212 ;
213 [label="gini = 0.0\nsamples = 25\nvalue = [0, 39]\nclass = Student", fillcolor="#399de5"] ;
175 -> 213 ;
214 [label="// <= 0.032\ngini = 0.388\nsamples = 134\nvalue = [151, 54]\nclass = LLM", fillcolor="#eeae80"] ;
2 -> 214 ;
215 [label="bl <= 0.022\ngini = 0.238\nsamples = 39\nvalue = [8, 50]\nclass = Student", fillcolor="#59ade9"] ;
214 -> 215 ;
216 [label=" retur <= 0.003\ngini = 0.109\nsamples = 35\nvalue = [3, 49]\nclass = Student", fillcolor="#45a3e7"] ;
215 -> 216 ;
217 [label="gini = 0.48\nsamples = 3\nvalue = [3, 2]\nclass = LLM", fillcolor="#f6d5bd"] ;
216 -> 217 ;
218 [label="gini = 0.0\nsamples = 32\nvalue = [0, 47]\nclass = Student", fillcolor="#399de5"] ;
216 -> 218 ;
219 [label="gini = 0.278\nsamples = 4\nvalue = [5, 1]\nclass = LLM", fillcolor="#ea9a61"] ;
215 -> 219 ;
220 [label="//  <= 0.027\ngini = 0.053\nsamples = 95\nvalue = [143, 4]\nclass = LLM", fillcolor="#e6853f"] ;
214 -> 220 ;
221 [label="gini = 0.0\nsamples = 3\nvalue = [0, 4]\nclass = Student", fillcolor="#399de5"] ;
220 -> 221 ;
222 [label="gini = 0.0\nsamples = 92\nvalue = [143, 0]\nclass = LLM", fillcolor="#e58139"] ;
220 -> 222 ;
223 [label=" 0 <= 0.044\ngini = 0.061\nsamples = 196\nvalue = [305, 10]\nclass = LLM", fillcolor="#e6853f"] ;
1 -> 223 ;
224 [label="harat <= 0.052\ngini = 0.026\nsamples = 192\nvalue = [304, 4]\nclass = LLM", fillcolor="#e5833c"] ;
223 -> 224 ;
225 [label="ec <= 0.121\ngini = 0.019\nsamples = 190\nvalue = [302.0, 3.0]\nclass = LLM", fillcolor="#e5823b"] ;
224 -> 225 ;
226 [label=" coun <= 0.013\ngini = 0.007\nsamples = 188\nvalue = [302, 1]\nclass = LLM", fillcolor="#e5813a"] ;
225 -> 226 ;
227 [label="gini = 0.0\nsamples = 185\nvalue = [298, 0]\nclass = LLM", fillcolor="#e58139"] ;
226 -> 227 ;
228 [label="gini = 0.32\nsamples = 3\nvalue = [4, 1]\nclass = LLM", fillcolor="#eca06a"] ;
226 -> 228 ;
229 [label="gini = 0.0\nsamples = 2\nvalue = [0, 2]\nclass = Student", fillcolor="#399de5"] ;
225 -> 229 ;
230 [label="gini = 0.444\nsamples = 2\nvalue = [2, 1]\nclass = LLM", fillcolor="#f2c09c"] ;
224 -> 230 ;
231 [label="gini = 0.245\nsamples = 4\nvalue = [1, 6]\nclass = Student", fillcolor="#5aade9"] ;
223 -> 231 ;
232 [label=" ar <= 0.002\ngini = 0.262\nsamples = 855\nvalue = [1134, 208]\nclass = LLM", fillcolor="#ea985d"] ;
0 -> 232 [labeldistance=2.5, labelangle=-45, headlabel="False"] ;
233 [label=".sub <= 0.034\ngini = 0.452\nsamples = 374\nvalue = [379.0, 199.0]\nclass = LLM", fillcolor="#f3c3a1"] ;
232 -> 233 ;
234 [label="=  <= 0.067\ngini = 0.406\nsamples = 343\nvalue = [374, 148]\nclass = LLM", fillcolor="#efb387"] ;
233 -> 234 ;
235 [label="rue;  <= 0.053\ngini = 0.255\nsamples = 233\nvalue = [295, 52]\nclass = LLM", fillcolor="#ea975c"] ;
234 -> 235 ;
236 [label=";  <= 0.093\ngini = 0.154\nsamples = 217\nvalue = [295.0, 27.0]\nclass = LLM", fillcolor="#e78d4b"] ;
235 -> 236 ;
237 [label=" }  <= 0.059\ngini = 0.119\nsamples = 210\nvalue = [295, 20]\nclass = LLM", fillcolor="#e78a46"] ;
236 -> 237 ;
238 [label="ubli <= 0.028\ngini = 0.098\nsamples = 206\nvalue = [293, 16]\nclass = LLM", fillcolor="#e68844"] ;
237 -> 238 ;
239 [label="st <= 0.209\ngini = 0.081\nsamples = 204\nvalue = [293, 13]\nclass = LLM", fillcolor="#e68742"] ;
238 -> 239 ;
240 [label="oun <= 0.152\ngini = 0.052\nsamples = 198\nvalue = [290, 8]\nclass = LLM", fillcolor="#e6843e"] ;
239 -> 240 ;
241 [label="c)  <= 0.024\ngini = 0.035\nsamples = 188\nvalue = [279, 5]\nclass = LLM", fillcolor="#e5833d"] ;
240 -> 241 ;
242 [label="(i <= 0.007\ngini = 0.028\nsamples = 186\nvalue = [277, 4]\nclass = LLM", fillcolor="#e5833c"] ;
241 -> 242 ;
243 [label="else <= 0.019\ngini = 0.101\nsamples = 37\nvalue = [53, 3]\nclass = LLM", fillcolor="#e68844"] ;
242 -> 243 ;
244 [label="to <= 0.137\ngini = 0.036\nsamples = 35\nvalue = [53, 1]\nclass = LLM", fillcolor="#e5833d"] ;
243 -> 244 ;
245 [label="gini = 0.0\nsamples = 33\nvalue = [52, 0]\nclass = LLM", fillcolor="#e58139"] ;
244 -> 245 ;
246 [label="gini = 0.5\nsamples = 2\nvalue = [1, 1]\nclass = LLM", fillcolor="#ffffff"] ;
244 -> 246 ;
247 [label="gini = 0.0\nsamples = 2\nvalue = [0, 2]\nclass = Student", fillcolor="#399de5"] ;
243 -> 247 ;
248 [label="or <= 0.071\ngini = 0.009\nsamples = 149\nvalue = [224, 1]\nclass = LLM", fillcolor="#e5823a"] ;
242 -> 248 ;
249 [label="gini = 0.0\nsamples = 141\nvalue = [210, 0]\nclass = LLM", fillcolor="#e58139"] ;
248 -> 249 ;
250 [label=" i <= 0.063\ngini = 0.124\nsamples = 8\nvalue = [14, 1]\nclass = LLM", fillcolor="#e78a47"] ;
248 -> 250 ;
251 [label="gini = 0.5\nsamples = 2\nvalue = [1, 1]\nclass = LLM", fillcolor="#ffffff"] ;
250 -> 251 ;
252 [label="gini = 0.0\nsamples = 6\nvalue = [13, 0]\nclass = LLM", fillcolor="#e58139"] ;
250 -> 252 ;
253 [label="gini = 0.444\nsamples = 2\nvalue = [2, 1]\nclass = LLM", fillcolor="#f2c09c"] ;
241 -> 253 ;
254 [label=" su <= 0.026\ngini = 0.337\nsamples = 10\nvalue = [11, 3]\nclass = LLM", fillcolor="#eca36f"] ;
240 -> 254 ;
255 [label="gini = 0.0\nsamples = 8\nvalue = [11, 0]\nclass = LLM", fillcolor="#e58139"] ;
254 -> 255 ;
256 [label="gini = 0.0\nsamples = 2\nvalue = [0, 3]\nclass = Student", fillcolor="#399de5"] ;
254 -> 256 ;
257 [label=" 0; <= 0.01\ngini = 0.469\nsamples = 6\nvalue = [3, 5]\nclass = Student", fillcolor="#b0d8f5"] ;
239 -> 257 ;
258 [label="gini = 0.0\nsamples = 2\nvalue = [3, 0]\nclass = LLM", fillcolor="#e58139"] ;
257 -> 258 ;
259 [label="gini = 0.0\nsamples = 4\nvalue = [0, 5]\nclass = Student", fillcolor="#399de5"] ;
257 -> 259 ;
260 [label="gini = 0.0\nsamples = 2\nvalue = [0, 3]\nclass = Student", fillcolor="#399de5"] ;
238 -> 260 ;
261 [label="gini = 0.444\nsamples = 4\nvalue = [2, 4]\nclass = Student", fillcolor="#9ccef2"] ;
237 -> 261 ;
262 [label="gini = 0.0\nsamples = 7\nvalue = [0, 7]\nclass = Student", fillcolor="#399de5"] ;
236 -> 262 ;
263 [label="gini = 0.0\nsamples = 16\nvalue = [0, 25]\nclass = Student", fillcolor="#399de5"] ;
235 -> 263 ;
264 [label="&& <= 0.042\ngini = 0.495\nsamples = 110\nvalue = [79, 96]\nclass = Student", fillcolor="#dceefa"] ;
234 -> 264 ;
265 [label="tru <= 0.009\ngini = 0.42\nsamples = 79\nvalue = [36, 84]\nclass = Student", fillcolor="#8ec7f0"] ;
264 -> 265 ;
266 [label=" is  <= 0.008\ngini = 0.155\nsamples = 46\nvalue = [6, 65]\nclass = Student", fillcolor="#4ba6e7"] ;
265 -> 266 ;
267 [label=" a <= 0.055\ngini = 0.058\nsamples = 44\nvalue = [2, 65]\nclass = Student", fillcolor="#3fa0e6"] ;
266 -> 267 ;
268 [label="gini = 0.0\nsamples = 42\nvalue = [0, 64]\nclass = Student", fillcolor="#399de5"] ;
267 -> 268 ;
269 [label="gini = 0.444\nsamples = 2\nvalue = [2, 1]\nclass = LLM", fillcolor="#f2c09c"] ;
267 -> 269 ;
270 [label="gini = 0.0\nsamples = 2\nvalue = [4, 0]\nclass = LLM", fillcolor="#e58139"] ;
266 -> 270 ;
271 [label="(int[ <= 0.019\ngini = 0.475\nsamples = 33\nvalue = [30, 19]\nclass = LLM", fillcolor="#f5d1b6"] ;
265 -> 271 ;
272 [label="// <= 0.025\ngini = 0.236\nsamples = 17\nvalue = [3, 19]\nclass = Student", fillcolor="#58ace9"] ;
271 -> 272 ;
273 [label="gini = 0.0\nsamples = 14\nvalue = [0, 18]\nclass = Student", fillcolor="#399de5"] ;
272 -> 273 ;
274 [label="gini = 0.375\nsamples = 3\nvalue = [3, 1]\nclass = LLM", fillcolor="#eeab7b"] ;
272 -> 274 ;
275 [label="gini = 0.0\nsamples = 16\nvalue = [27, 0]\nclass = LLM", fillcolor="#e58139"] ;
271 -> 275 ;
276 [label="else  <= 0.041\ngini = 0.341\nsamples = 31\nvalue = [43, 12]\nclass = LLM", fillcolor="#eca470"] ;
264 -> 276 ;
277 [label=";  <= 0.059\ngini = 0.085\nsamples = 28\nvalue = [43, 2]\nclass = LLM", fillcolor="#e68742"] ;
276 -> 277 ;
278 [label="gini = 0.0\nsamples = 26\nvalue = [41, 0]\nclass = LLM", fillcolor="#e58139"] ;
277 -> 278 ;
279 [label="gini = 0.5\nsamples = 2\nvalue = [2, 2]\nclass = LLM", fillcolor="#ffffff"] ;
277 -> 279 ;
280 [label="gini = 0.0\nsamples = 3\nvalue = [0, 10]\nclass = Student", fillcolor="#399de5"] ;
276 -> 280 ;
281 [label="ic  <= 0.007\ngini = 0.163\nsamples = 31\nvalue = [5, 51]\nclass = Student", fillcolor="#4ca7e8"] ;
233 -> 281 ;
282 [label="ld <= 0.021\ngini = 0.469\nsamples = 7\nvalue = [5, 3]\nclass = LLM", fillcolor="#f5cdb0"] ;
281 -> 282 ;
283 [label="gini = 0.0\nsamples = 3\nvalue = [0, 3]\nclass = Student", fillcolor="#399de5"] ;
282 -> 283 ;
284 [label="gini = 0.0\nsamples = 4\nvalue = [5, 0]\nclass = LLM", fillcolor="#e58139"] ;
282 -> 284 ;
285 [label="gini = 0.0\nsamples = 24\nvalue = [0, 48]\nclass = Student", fillcolor="#399de5"] ;
281 -> 285 ;
286 [label="(int <= 0.039\ngini = 0.023\nsamples = 481\nvalue = [755, 9]\nclass = LLM", fillcolor="#e5833b"] ;
232 -> 286 ;
287 [label="]  <= 0.119\ngini = 0.013\nsamples = 479\nvalue = [754, 5]\nclass = LLM", fillcolor="#e5823a"] ;
286 -> 287 ;
288 [label="bs <= 0.048\ngini = 0.003\nsamples = 476\nvalue = [753, 1]\nclass = LLM", fillcolor="#e58139"] ;
287 -> 288 ;
289 [label="gini = 0.0\nsamples = 474\nvalue = [752, 0]\nclass = LLM", fillcolor="#e58139"] ;
288 -> 289 ;
290 [label="gini = 0.5\nsamples = 2\nvalue = [1, 1]\nclass = LLM", fillcolor="#ffffff"] ;
288 -> 290 ;
291 [label="gini = 0.32\nsamples = 3\nvalue = [1, 4]\nclass = Student", fillcolor="#6ab6ec"] ;
287 -> 291 ;
292 [label="gini = 0.32\nsamples = 2\nvalue = [1, 4]\nclass = Student", fillcolor="#6ab6ec"] ;
286 -> 292 ;
}
