digraph Tree {
node [shape=box, style="filled, rounded", color="black", fontname="helvetica"] ;
edge [fontname="helvetica"] ;
0 [label=< //  &le; 0.027<br/>gini = 0.5<br/>samples = 4800<br/>value = [0.502, 0.497]<br/>class = LLM>, fillcolor="#fffefd"] ;
1 [label=< if( &le; 0.007<br/>gini = 0.496<br/>samples = 4338<br/>value = [0.412, 0.492]<br/>class = Student>, fillcolor="#dfeffb"] ;
0 -> 1 [labeldistance=2.5, labelangle=45, headlabel="True"] ;
2 [label=< :  &le; 0.007<br/>gini = 0.5<br/>samples = 3820<br/>value = [0.402, 0.394]<br/>class = LLM>, fillcolor="#fefcfb"] ;
1 -> 2 ;
3 [label=<gini = 0.498<br/>samples = 3553<br/>value = [0.35, 0.391]<br/>class = Student>, fillcolor="#eaf5fc"] ;
2 -> 3 ;
4 [label=<gini = 0.099<br/>samples = 267<br/>value = [0.053, 0.003]<br/>class = LLM>, fillcolor="#e68844"] ;
2 -> 4 ;
5 [label=<ms;  &le; 0.102<br/>gini = 0.162<br/>samples = 518<br/>value = [0.01, 0.098]<br/>class = Student>, fillcolor="#4ca7e8"] ;
1 -> 5 ;
6 [label=<gini = 0.144<br/>samples = 512<br/>value = [0.008, 0.098]<br/>class = Student>, fillcolor="#4aa5e7"] ;
5 -> 6 ;
7 [label=<gini = 0.0<br/>samples = 6<br/>value = [0.001, 0.0]<br/>class = LLM>, fillcolor="#e58139"] ;
5 -> 7 ;
8 [label=<r(int &le; 0.054<br/>gini = 0.11<br/>samples = 462<br/>value = [0.091, 0.006]<br/>class = LLM>, fillcolor="#e78945"] ;
0 -> 8 [labeldistance=2.5, labelangle=-45, headlabel="False"] ;
9 [label=<ount  &le; 0.214<br/>gini = 0.095<br/>samples = 458<br/>value = [0.091, 0.005]<br/>class = LLM>, fillcolor="#e68843"] ;
8 -> 9 ;
10 [label=<gini = 0.08<br/>samples = 454<br/>value = [0.091, 0.004]<br/>class = LLM>, fillcolor="#e68742"] ;
9 -> 10 ;
11 [label=<gini = 0.0<br/>samples = 4<br/>value = [0.0, 0.001]<br/>class = Student>, fillcolor="#399de5"] ;
9 -> 11 ;
12 [label=< if(n &le; 0.032<br/>gini = 0.0<br/>samples = 4<br/>value = [0.0, 0.001]<br/>class = Student>, fillcolor="#399de5"] ;
8 -> 12 ;
13 [label=<gini = 0.0<br/>samples = 1<br/>value = [0.0, 0.0]<br/>class = Student>, fillcolor="#399de5"] ;
12 -> 13 ;
14 [label=<gini = 0.0<br/>samples = 3<br/>value = [0.0, 0.001]<br/>class = Student>, fillcolor="#399de5"] ;
12 -> 14 ;
}
