digraph Tree {
node [shape=box, style="filled, rounded", color="black", fontname="helvetica"] ;
edge [fontname="helvetica"] ;
0 [label=<//  &le; 0.021<br/>gini = 0.5<br/>samples = 4800<br/>value = [0.502, 0.498]<br/>class = LLM>, fillcolor="#fffefd"] ;
1 [label=<if( &le; 0.007<br/>gini = 0.496<br/>samples = 4340<br/>value = [0.411, 0.493]<br/>class = Student>, fillcolor="#deeffb"] ;
0 -> 1 [labeldistance=2.5, labelangle=45, headlabel="True"] ;
2 [label=< =  &le; 0.057<br/>gini = 0.5<br/>samples = 3810<br/>value = [0.401, 0.392]<br/>class = LLM>, fillcolor="#fefcfb"] ;
1 -> 2 ;
3 [label=<gini = 0.487<br/>samples = 2736<br/>value = [0.332, 0.238]<br/>class = LLM>, fillcolor="#f8dcc7"] ;
2 -> 3 ;
4 [label=<gini = 0.429<br/>samples = 1074<br/>value = [0.07, 0.154]<br/>class = Student>, fillcolor="#92c9f1"] ;
2 -> 4 ;
5 [label=<rs  &le; 0.134<br/>gini = 0.159<br/>samples = 530<br/>value = [0.01, 0.101]<br/>class = Student>, fillcolor="#4ca6e7"] ;
1 -> 5 ;
6 [label=<gini = 0.135<br/>samples = 522<br/>value = [0.008, 0.101]<br/>class = Student>, fillcolor="#49a5e7"] ;
5 -> 6 ;
7 [label=<gini = 0.0<br/>samples = 8<br/>value = [0.002, 0.0]<br/>class = LLM>, fillcolor="#e58139"] ;
5 -> 7 ;
8 [label=<// &le; 0.183<br/>gini = 0.087<br/>samples = 460<br/>value = [0.091, 0.004]<br/>class = LLM>, fillcolor="#e68742"] ;
0 -> 8 [labeldistance=2.5, labelangle=-45, headlabel="False"] ;
9 [label=< arr &le; 0.169<br/>gini = 0.072<br/>samples = 456<br/>value = [0.091, 0.004]<br/>class = LLM>, fillcolor="#e68641"] ;
8 -> 9 ;
10 [label=<gini = 0.06<br/>samples = 453<br/>value = [0.091, 0.003]<br/>class = LLM>, fillcolor="#e6853f"] ;
9 -> 10 ;
11 [label=<gini = 0.0<br/>samples = 3<br/>value = [0.0, 0.001]<br/>class = Student>, fillcolor="#399de5"] ;
9 -> 11 ;
12 [label=<ou &le; 0.028<br/>gini = 0.0<br/>samples = 4<br/>value = [0.0, 0.001]<br/>class = Student>, fillcolor="#399de5"] ;
8 -> 12 ;
13 [label=<gini = 0.0<br/>samples = 3<br/>value = [0.0, 0.001]<br/>class = Student>, fillcolor="#399de5"] ;
12 -> 13 ;
14 [label=<gini = 0.0<br/>samples = 1<br/>value = [0.0, 0.0]<br/>class = Student>, fillcolor="#399de5"] ;
12 -> 14 ;
}
