digraph Tree {
node [shape=box, style="filled, rounded", color="black", fontname="helvetica"] ;
edge [fontname="helvetica"] ;
0 [label=< //  &le; 0.028<br/>gini = 0.5<br/>samples = 4800<br/>value = [0.504, 0.496]<br/>class = LLM>, fillcolor="#fffdfc"] ;
1 [label=< if( &le; 0.008<br/>gini = 0.496<br/>samples = 4340<br/>value = [0.414, 0.49]<br/>class = Student>, fillcolor="#e0f0fb"] ;
0 -> 1 [labeldistance=2.5, labelangle=45, headlabel="True"] ;
2 [label=< :  &le; 0.007<br/>gini = 0.5<br/>samples = 3828<br/>value = [0.405, 0.393]<br/>class = LLM>, fillcolor="#fefbf9"] ;
1 -> 2 ;
3 [label=<gini = 0.499<br/>samples = 3558<br/>value = [0.351, 0.39]<br/>class = Student>, fillcolor="#ebf5fc"] ;
2 -> 3 ;
4 [label=<gini = 0.078<br/>samples = 270<br/>value = [0.054, 0.002]<br/>class = LLM>, fillcolor="#e68641"] ;
2 -> 4 ;
5 [label=<ars  &le; 0.153<br/>gini = 0.157<br/>samples = 512<br/>value = [0.009, 0.098]<br/>class = Student>, fillcolor="#4ca6e7"] ;
1 -> 5 ;
6 [label=<gini = 0.13<br/>samples = 502<br/>value = [0.007, 0.097]<br/>class = Student>, fillcolor="#48a4e7"] ;
5 -> 6 ;
7 [label=<gini = 0.18<br/>samples = 10<br/>value = [0.002, 0.0]<br/>class = LLM>, fillcolor="#e88f4f"] ;
5 -> 7 ;
8 [label=<unt  &le; 0.214<br/>gini = 0.107<br/>samples = 460<br/>value = [0.09, 0.005]<br/>class = LLM>, fillcolor="#e78945"] ;
0 -> 8 [labeldistance=2.5, labelangle=-45, headlabel="False"] ;
9 [label=<al)  &le; 0.177<br/>gini = 0.092<br/>samples = 456<br/>value = [0.09, 0.005]<br/>class = LLM>, fillcolor="#e68743"] ;
8 -> 9 ;
10 [label=<gini = 0.08<br/>samples = 453<br/>value = [0.09, 0.004]<br/>class = LLM>, fillcolor="#e68742"] ;
9 -> 10 ;
11 [label=<gini = 0.0<br/>samples = 3<br/>value = [0.0, 0.001]<br/>class = Student>, fillcolor="#399de5"] ;
9 -> 11 ;
12 [label=<ublic &le; 0.008<br/>gini = 0.0<br/>samples = 4<br/>value = [0.0, 0.001]<br/>class = Student>, fillcolor="#399de5"] ;
8 -> 12 ;
13 [label=<gini = 0.0<br/>samples = 1<br/>value = [0.0, 0.0]<br/>class = Student>, fillcolor="#399de5"] ;
12 -> 13 ;
14 [label=<gini = 0.0<br/>samples = 3<br/>value = [0.0, 0.001]<br/>class = Student>, fillcolor="#399de5"] ;
12 -> 14 ;
}
