digraph Tree {
node [shape=box, style="filled, rounded", color="black", fontname="helvetica"] ;
edge [fontname="helvetica"] ;
0 [label=<for(i &le; 0.006<br/>gini = 0.499<br/>samples = 2695<br/>value = [1996, 2204]<br/>class = Student>, fillcolor="#ecf6fd"] ;
1 [label=<true &le; 0.066<br/>gini = 0.5<br/>samples = 2529<br/>value = [1990.0, 1954.0]<br/>class = LLM>, fillcolor="#fffdfb"] ;
0 -> 1 [labeldistance=2.5, labelangle=45, headlabel="True"] ;
2 [label=< res &le; 0.041<br/>gini = 0.498<br/>samples = 2264<br/>value = [1885, 1637]<br/>class = LLM>, fillcolor="#fceee5"] ;
1 -> 2 ;
3 [label=<tring &le; 0.055<br/>gini = 0.5<br/>samples = 2020<br/>value = [1575.0, 1571.0]<br/>class = LLM>, fillcolor="#fffffe"] ;
2 -> 3 ;
4 [label=< a  &le; 0.177<br/>gini = 0.495<br/>samples = 1667<br/>value = [1427, 1167]<br/>class = LLM>, fillcolor="#fae8db"] ;
3 -> 4 ;
5 [label=< ==  &le; 0.224<br/>gini = 0.492<br/>samples = 1624<br/>value = [1423, 1109]<br/>class = LLM>, fillcolor="#f9e3d3"] ;
4 -> 5 ;
6 [label=< ret &le; 0.006<br/>gini = 0.497<br/>samples = 1504<br/>value = [1266.0, 1085.0]<br/>class = LLM>, fillcolor="#fbede3"] ;
5 -> 6 ;
7 [label=<gini = 0.0<br/>samples = 39<br/>value = [0, 52]<br/>class = Student>, fillcolor="#399de5"] ;
6 -> 7 ;
8 [label=<nt[n &le; 0.042<br/>gini = 0.495<br/>samples = 1465<br/>value = [1266, 1033]<br/>class = LLM>, fillcolor="#fae8db"] ;
6 -> 8 ;
9 [label="(...)", fillcolor="#C0C0C0"] ;
8 -> 9 ;
58 [label="(...)", fillcolor="#C0C0C0"] ;
8 -> 58 ;
69 [label=< fal &le; 0.02<br/>gini = 0.23<br/>samples = 120<br/>value = [157, 24]<br/>class = LLM>, fillcolor="#e99457"] ;
5 -> 69 ;
70 [label=< b  &le; 0.149<br/>gini = 0.216<br/>samples = 118<br/>value = [157, 22]<br/>class = LLM>, fillcolor="#e99355"] ;
69 -> 70 ;
71 [label="(...)", fillcolor="#C0C0C0"] ;
70 -> 71 ;
72 [label="(...)", fillcolor="#C0C0C0"] ;
70 -> 72 ;
89 [label=<gini = 0.0<br/>samples = 2<br/>value = [0, 2]<br/>class = Student>, fillcolor="#399de5"] ;
69 -> 89 ;
90 [label=< 1;  &le; 0.085<br/>gini = 0.121<br/>samples = 43<br/>value = [4, 58]<br/>class = Student>, fillcolor="#47a4e7"] ;
4 -> 90 ;
91 [label=< 0;  &le; 0.034<br/>gini = 0.064<br/>samples = 41<br/>value = [2, 58]<br/>class = Student>, fillcolor="#40a0e6"] ;
90 -> 91 ;
92 [label=< bool &le; 0.016<br/>gini = 0.128<br/>samples = 20<br/>value = [2, 27]<br/>class = Student>, fillcolor="#48a4e7"] ;
91 -> 92 ;
93 [label="(...)", fillcolor="#C0C0C0"] ;
92 -> 93 ;
98 [label="(...)", fillcolor="#C0C0C0"] ;
92 -> 98 ;
99 [label=<gini = 0.0<br/>samples = 21<br/>value = [0, 31]<br/>class = Student>, fillcolor="#399de5"] ;
91 -> 99 ;
100 [label=<gini = 0.0<br/>samples = 2<br/>value = [2, 0]<br/>class = LLM>, fillcolor="#e58139"] ;
90 -> 100 ;
101 [label=<th()  &le; 0.074<br/>gini = 0.392<br/>samples = 353<br/>value = [148, 404]<br/>class = Student>, fillcolor="#82c1ef"] ;
3 -> 101 ;
102 [label=<werc &le; 0.1<br/>gini = 0.299<br/>samples = 268<br/>value = [76, 339]<br/>class = Student>, fillcolor="#65b3eb"] ;
101 -> 102 ;
103 [label=< =  &le; 0.051<br/>gini = 0.181<br/>samples = 236<br/>value = [36, 321]<br/>class = Student>, fillcolor="#4fa8e8"] ;
102 -> 103 ;
104 [label=<ng(i &le; 0.066<br/>gini = 0.321<br/>samples = 111<br/>value = [33, 131]<br/>class = Student>, fillcolor="#6bb6ec"] ;
103 -> 104 ;
105 [label="(...)", fillcolor="#C0C0C0"] ;
104 -> 105 ;
122 [label="(...)", fillcolor="#C0C0C0"] ;
104 -> 122 ;
131 [label=<tost &le; 0.042<br/>gini = 0.031<br/>samples = 125<br/>value = [3, 190]<br/>class = Student>, fillcolor="#3c9fe5"] ;
103 -> 131 ;
132 [label="(...)", fillcolor="#C0C0C0"] ;
131 -> 132 ;
133 [label="(...)", fillcolor="#C0C0C0"] ;
131 -> 133 ;
136 [label=< true &le; 0.029<br/>gini = 0.428<br/>samples = 32<br/>value = [40, 18]<br/>class = LLM>, fillcolor="#f1ba92"] ;
102 -> 136 ;
137 [label=< temp &le; 0.092<br/>gini = 0.21<br/>samples = 24<br/>value = [37, 5]<br/>class = LLM>, fillcolor="#e99254"] ;
136 -> 137 ;
138 [label="(...)", fillcolor="#C0C0C0"] ;
137 -> 138 ;
143 [label="(...)", fillcolor="#C0C0C0"] ;
137 -> 143 ;
144 [label=<lean &le; 0.025<br/>gini = 0.305<br/>samples = 8<br/>value = [3, 13]<br/>class = Student>, fillcolor="#67b4eb"] ;
136 -> 144 ;
145 [label="(...)", fillcolor="#C0C0C0"] ;
144 -> 145 ;
146 [label="(...)", fillcolor="#C0C0C0"] ;
144 -> 146 ;
147 [label=<leng &le; 0.075<br/>gini = 0.499<br/>samples = 85<br/>value = [72, 65]<br/>class = LLM>, fillcolor="#fcf3ec"] ;
101 -> 147 ;
148 [label=<(strin &le; 0.055<br/>gini = 0.437<br/>samples = 62<br/>value = [65, 31]<br/>class = LLM>, fillcolor="#f1bd97"] ;
147 -> 148 ;
149 [label=<eturn &le; 0.029<br/>gini = 0.332<br/>samples = 54<br/>value = [64, 17]<br/>class = LLM>, fillcolor="#eca26e"] ;
148 -> 149 ;
150 [label="(...)", fillcolor="#C0C0C0"] ;
149 -> 150 ;
151 [label="(...)", fillcolor="#C0C0C0"] ;
149 -> 151 ;
160 [label=<r.leng &le; 0.08<br/>gini = 0.124<br/>samples = 8<br/>value = [1, 14]<br/>class = Student>, fillcolor="#47a4e7"] ;
148 -> 160 ;
161 [label="(...)", fillcolor="#C0C0C0"] ;
160 -> 161 ;
162 [label="(...)", fillcolor="#C0C0C0"] ;
160 -> 162 ;
163 [label=<ngth( &le; 0.125<br/>gini = 0.283<br/>samples = 23<br/>value = [7.0, 34.0]<br/>class = Student>, fillcolor="#62b1ea"] ;
147 -> 163 ;
164 [label=<ngth &le; 0.081<br/>gini = 0.444<br/>samples = 11<br/>value = [7, 14]<br/>class = Student>, fillcolor="#9ccef2"] ;
163 -> 164 ;
165 [label="(...)", fillcolor="#C0C0C0"] ;
164 -> 165 ;
168 [label="(...)", fillcolor="#C0C0C0"] ;
164 -> 168 ;
169 [label=<gini = 0.0<br/>samples = 12<br/>value = [0, 20]<br/>class = Student>, fillcolor="#399de5"] ;
163 -> 169 ;
170 [label=< b,  &le; 0.026<br/>gini = 0.289<br/>samples = 244<br/>value = [310, 66]<br/>class = LLM>, fillcolor="#eb9c63"] ;
2 -> 170 ;
171 [label=< {  &le; 0.067<br/>gini = 0.25<br/>samples = 237<br/>value = [309.0, 53.0]<br/>class = LLM>, fillcolor="#e9975b"] ;
170 -> 171 ;
172 [label=<.subst &le; 0.044<br/>gini = 0.18<br/>samples = 223<br/>value = [306, 34]<br/>class = LLM>, fillcolor="#e88f4f"] ;
171 -> 172 ;
173 [label=<bool &le; 0.028<br/>gini = 0.135<br/>samples = 215<br/>value = [305, 24]<br/>class = LLM>, fillcolor="#e78b49"] ;
172 -> 173 ;
174 [label=<z\";  &le; 0.14<br/>gini = 0.095<br/>samples = 209<br/>value = [305, 16]<br/>class = LLM>, fillcolor="#e68843"] ;
173 -> 174 ;
175 [label="(...)", fillcolor="#C0C0C0"] ;
174 -> 175 ;
194 [label="(...)", fillcolor="#C0C0C0"] ;
174 -> 194 ;
195 [label=<gini = 0.0<br/>samples = 6<br/>value = [0, 8]<br/>class = Student>, fillcolor="#399de5"] ;
173 -> 195 ;
196 [label=< =  &le; 0.078<br/>gini = 0.165<br/>samples = 8<br/>value = [1, 10]<br/>class = Student>, fillcolor="#4da7e8"] ;
172 -> 196 ;
197 [label=<gini = 0.0<br/>samples = 6<br/>value = [0, 9]<br/>class = Student>, fillcolor="#399de5"] ;
196 -> 197 ;
198 [label=<gini = 0.5<br/>samples = 2<br/>value = [1, 1]<br/>class = LLM>, fillcolor="#ffffff"] ;
196 -> 198 ;
199 [label=<nt[] &le; 0.107<br/>gini = 0.236<br/>samples = 14<br/>value = [3, 19]<br/>class = Student>, fillcolor="#58ace9"] ;
171 -> 199 ;
200 [label=<gini = 0.0<br/>samples = 11<br/>value = [0, 19]<br/>class = Student>, fillcolor="#399de5"] ;
199 -> 200 ;
201 [label=<gini = 0.0<br/>samples = 3<br/>value = [3, 0]<br/>class = LLM>, fillcolor="#e58139"] ;
199 -> 201 ;
202 [label=< }  &le; 0.051<br/>gini = 0.133<br/>samples = 7<br/>value = [1, 13]<br/>class = Student>, fillcolor="#48a5e7"] ;
170 -> 202 ;
203 [label=<gini = 0.278<br/>samples = 3<br/>value = [1, 5]<br/>class = Student>, fillcolor="#61b1ea"] ;
202 -> 203 ;
204 [label=<gini = 0.0<br/>samples = 4<br/>value = [0, 8]<br/>class = Student>, fillcolor="#399de5"] ;
202 -> 204 ;
205 [label=<(nums[ &le; 0.01<br/>gini = 0.374<br/>samples = 265<br/>value = [105, 317]<br/>class = Student>, fillcolor="#7bbdee"] ;
1 -> 205 ;
206 [label=<here &le; 0.057<br/>gini = 0.166<br/>samples = 172<br/>value = [25.0, 249.0]<br/>class = Student>, fillcolor="#4da7e8"] ;
205 -> 206 ;
207 [label=<syste &le; 0.018<br/>gini = 0.098<br/>samples = 158<br/>value = [13, 238]<br/>class = Student>, fillcolor="#44a2e6"] ;
206 -> 207 ;
208 [label=< a  &le; 0.096<br/>gini = 0.07<br/>samples = 155<br/>value = [9, 238]<br/>class = Student>, fillcolor="#40a1e6"] ;
207 -> 208 ;
209 [label=<str.c &le; 0.06<br/>gini = 0.027<br/>samples = 142<br/>value = [3, 220]<br/>class = Student>, fillcolor="#3c9ee5"] ;
208 -> 209 ;
210 [label=<gini = 0.0<br/>samples = 129<br/>value = [0, 200]<br/>class = Student>, fillcolor="#399de5"] ;
209 -> 210 ;
211 [label=<olean &le; 0.084<br/>gini = 0.227<br/>samples = 13<br/>value = [3, 20]<br/>class = Student>, fillcolor="#57ace9"] ;
209 -> 211 ;
212 [label="(...)", fillcolor="#C0C0C0"] ;
211 -> 212 ;
213 [label="(...)", fillcolor="#C0C0C0"] ;
211 -> 213 ;
214 [label=< int  &le; 0.029<br/>gini = 0.375<br/>samples = 13<br/>value = [6, 18]<br/>class = Student>, fillcolor="#7bbeee"] ;
208 -> 214 ;
215 [label=<gini = 0.0<br/>samples = 2<br/>value = [5, 0]<br/>class = LLM>, fillcolor="#e58139"] ;
214 -> 215 ;
216 [label=< true; &le; 0.089<br/>gini = 0.1<br/>samples = 11<br/>value = [1, 18]<br/>class = Student>, fillcolor="#44a2e6"] ;
214 -> 216 ;
217 [label="(...)", fillcolor="#C0C0C0"] ;
216 -> 217 ;
218 [label="(...)", fillcolor="#C0C0C0"] ;
216 -> 218 ;
219 [label=<gini = 0.0<br/>samples = 3<br/>value = [4, 0]<br/>class = LLM>, fillcolor="#e58139"] ;
207 -> 219 ;
220 [label=<ubli &le; 0.02<br/>gini = 0.499<br/>samples = 14<br/>value = [12, 11]<br/>class = LLM>, fillcolor="#fdf5ef"] ;
206 -> 220 ;
221 [label=<gini = 0.0<br/>samples = 7<br/>value = [11, 0]<br/>class = LLM>, fillcolor="#e58139"] ;
220 -> 221 ;
222 [label=<(stri &le; 0.083<br/>gini = 0.153<br/>samples = 7<br/>value = [1, 11]<br/>class = Student>, fillcolor="#4ba6e7"] ;
220 -> 222 ;
223 [label=<gini = 0.0<br/>samples = 5<br/>value = [0, 8]<br/>class = Student>, fillcolor="#399de5"] ;
222 -> 223 ;
224 [label=<gini = 0.375<br/>samples = 2<br/>value = [1, 3]<br/>class = Student>, fillcolor="#7bbeee"] ;
222 -> 224 ;
225 [label=<nt[] &le; 0.034<br/>gini = 0.497<br/>samples = 93<br/>value = [80, 68]<br/>class = LLM>, fillcolor="#fbece1"] ;
205 -> 225 ;
226 [label=<int[] &le; 0.03<br/>gini = 0.147<br/>samples = 16<br/>value = [2, 23]<br/>class = Student>, fillcolor="#4aa6e7"] ;
225 -> 226 ;
227 [label=<gini = 0.0<br/>samples = 10<br/>value = [0, 19]<br/>class = Student>, fillcolor="#399de5"] ;
226 -> 227 ;
228 [label=<lse; &le; 0.039<br/>gini = 0.444<br/>samples = 6<br/>value = [2, 4]<br/>class = Student>, fillcolor="#9ccef2"] ;
226 -> 228 ;
229 [label=<gini = 0.444<br/>samples = 3<br/>value = [2, 1]<br/>class = LLM>, fillcolor="#f2c09c"] ;
228 -> 229 ;
230 [label=<gini = 0.0<br/>samples = 3<br/>value = [0, 3]<br/>class = Student>, fillcolor="#399de5"] ;
228 -> 230 ;
231 [label=<else  &le; 0.034<br/>gini = 0.464<br/>samples = 77<br/>value = [78, 45]<br/>class = LLM>, fillcolor="#f4caab"] ;
225 -> 231 ;
232 [label=<nt[] &le; 0.058<br/>gini = 0.37<br/>samples = 65<br/>value = [77, 25]<br/>class = LLM>, fillcolor="#edaa79"] ;
231 -> 232 ;
233 [label=<ums.le &le; 0.111<br/>gini = 0.216<br/>samples = 51<br/>value = [71, 10]<br/>class = LLM>, fillcolor="#e99355"] ;
232 -> 233 ;
234 [label=<int[] &le; 0.036<br/>gini = 0.163<br/>samples = 49<br/>value = [71, 7]<br/>class = LLM>, fillcolor="#e88d4d"] ;
233 -> 234 ;
235 [label="(...)", fillcolor="#C0C0C0"] ;
234 -> 235 ;
236 [label="(...)", fillcolor="#C0C0C0"] ;
234 -> 236 ;
243 [label=<gini = 0.0<br/>samples = 2<br/>value = [0, 3]<br/>class = Student>, fillcolor="#399de5"] ;
233 -> 243 ;
244 [label=<boolea &le; 0.064<br/>gini = 0.408<br/>samples = 14<br/>value = [6, 15]<br/>class = Student>, fillcolor="#88c4ef"] ;
232 -> 244 ;
245 [label=< publ &le; 0.032<br/>gini = 0.49<br/>samples = 9<br/>value = [6, 8]<br/>class = Student>, fillcolor="#cee6f8"] ;
244 -> 245 ;
246 [label="(...)", fillcolor="#C0C0C0"] ;
245 -> 246 ;
249 [label="(...)", fillcolor="#C0C0C0"] ;
245 -> 249 ;
250 [label=<gini = 0.0<br/>samples = 5<br/>value = [0, 7]<br/>class = Student>, fillcolor="#399de5"] ;
244 -> 250 ;
251 [label=<ength; &le; 0.056<br/>gini = 0.091<br/>samples = 12<br/>value = [1, 20]<br/>class = Student>, fillcolor="#43a2e6"] ;
231 -> 251 ;
252 [label=<gini = 0.0<br/>samples = 8<br/>value = [0, 14]<br/>class = Student>, fillcolor="#399de5"] ;
251 -> 252 ;
253 [label=<gini = 0.245<br/>samples = 4<br/>value = [1, 6]<br/>class = Student>, fillcolor="#5aade9"] ;
251 -> 253 ;
254 [label=<ums; &le; 0.105<br/>gini = 0.046<br/>samples = 166<br/>value = [6, 250]<br/>class = Student>, fillcolor="#3e9fe6"] ;
0 -> 254 [labeldistance=2.5, labelangle=-45, headlabel="False"] ;
255 [label=<tr.le &le; 0.077<br/>gini = 0.016<br/>samples = 163<br/>value = [2, 250]<br/>class = Student>, fillcolor="#3b9ee5"] ;
254 -> 255 ;
256 [label=< last &le; 0.054<br/>gini = 0.008<br/>samples = 158<br/>value = [1, 242]<br/>class = Student>, fillcolor="#3a9de5"] ;
255 -> 256 ;
257 [label=<gini = 0.0<br/>samples = 156<br/>value = [0, 241]<br/>class = Student>, fillcolor="#399de5"] ;
256 -> 257 ;
258 [label=<gini = 0.5<br/>samples = 2<br/>value = [1, 1]<br/>class = LLM>, fillcolor="#ffffff"] ;
256 -> 258 ;
259 [label=<th()  &le; 0.014<br/>gini = 0.198<br/>samples = 5<br/>value = [1, 8]<br/>class = Student>, fillcolor="#52a9e8"] ;
255 -> 259 ;
260 [label=<gini = 0.0<br/>samples = 3<br/>value = [0, 7]<br/>class = Student>, fillcolor="#399de5"] ;
259 -> 260 ;
261 [label=<gini = 0.5<br/>samples = 2<br/>value = [1, 1]<br/>class = LLM>, fillcolor="#ffffff"] ;
259 -> 261 ;
262 [label=<gini = 0.0<br/>samples = 3<br/>value = [4, 0]<br/>class = LLM>, fillcolor="#e58139"] ;
254 -> 262 ;
}
