digraph Tree {
node [shape=box, style="filled, rounded", color="black", fontname="helvetica"] ;
edge [fontname="helvetica"] ;
0 [label=<else &le; 0.051<br/>gini = 0.115<br/>samples = 22046<br/>value = [2135, 32743]<br/>class = Student>, fillcolor="#46a3e7"] ;
1 [label=<void &le; 0.03<br/>gini = 0.137<br/>samples = 12586<br/>value = [1473, 18471]<br/>class = Student>, fillcolor="#49a5e7"] ;
0 -> 1 [labeldistance=2.5, labelangle=45, headlabel="True"] ;
2 [label=<fixteen &le; 0.811<br/>gini = 0.133<br/>samples = 12545<br/>value = [1422, 18452]<br/>class = Student>, fillcolor="#48a5e7"] ;
1 -> 2 ;
3 [label=<characters &le; 0.129<br/>gini = 0.13<br/>samples = 12476<br/>value = [1378.0, 18383.0]<br/>class = Student>, fillcolor="#48a4e7"] ;
2 -> 3 ;
4 [label=<or &le; 0.079<br/>gini = 0.128<br/>samples = 12459<br/>value = [1351, 18383]<br/>class = Student>, fillcolor="#48a4e7"] ;
3 -> 4 ;
5 [label=<case &le; 0.062<br/>gini = 0.124<br/>samples = 12422<br/>value = [1304.0, 18367.0]<br/>class = Student>, fillcolor="#47a4e7"] ;
4 -> 5 ;
6 [label=<values &le; 0.047<br/>gini = 0.122<br/>samples = 12409<br/>value = [1284, 18362]<br/>class = Student>, fillcolor="#47a4e7"] ;
5 -> 6 ;
7 [label=<maxlength &le; 0.485<br/>gini = 0.12<br/>samples = 12394<br/>value = [1259, 18361]<br/>class = Student>, fillcolor="#47a4e7"] ;
6 -> 7 ;
8 [label=<is &le; 0.036<br/>gini = 0.118<br/>samples = 12379<br/>value = [1231, 18361]<br/>class = Student>, fillcolor="#46a4e7"] ;
7 -> 8 ;
9 [label=<lastindexy &le; 0.301<br/>gini = 0.114<br/>samples = 12279<br/>value = [1185, 18252]<br/>class = Student>, fillcolor="#46a3e7"] ;
8 -> 9 ;
10 [label=<weight &le; 0.085<br/>gini = 0.113<br/>samples = 12269<br/>value = [1173, 18252]<br/>class = Student>, fillcolor="#46a3e7"] ;
9 -> 10 ;
11 [label=<squirrelplay &le; 0.209<br/>gini = 0.113<br/>samples = 12263<br/>value = [1165, 18252]<br/>class = Student>, fillcolor="#46a3e7"] ;
10 -> 11 ;
12 [label=<lastnchars &le; 0.227<br/>gini = 0.111<br/>samples = 12240<br/>value = [1144, 18230]<br/>class = Student>, fillcolor="#45a3e7"] ;
11 -> 12 ;
13 [label=<copyofrange &le; 0.523<br/>gini = 0.11<br/>samples = 12233<br/>value = [1132, 18230]<br/>class = Student>, fillcolor="#45a3e7"] ;
12 -> 13 ;
14 [label=<findmaxodd &le; 0.114<br/>gini = 0.109<br/>samples = 12228<br/>value = [1122, 18227]<br/>class = Student>, fillcolor="#45a3e7"] ;
13 -> 14 ;
15 [label=<gini = 0.107<br/>samples = 12201<br/>value = [1091, 18216]<br/>class = Student>, fillcolor="#45a3e7"] ;
14 -> 15 ;
16 [label=<gini = 0.387<br/>samples = 27<br/>value = [31, 11]<br/>class = LLM>, fillcolor="#eeae7f"] ;
14 -> 16 ;
17 [label=<length &le; 0.106<br/>gini = 0.355<br/>samples = 5<br/>value = [10, 3]<br/>class = LLM>, fillcolor="#eda774"] ;
13 -> 17 ;
18 [label=<gini = 0.0<br/>samples = 2<br/>value = [5, 0]<br/>class = LLM>, fillcolor="#e58139"] ;
17 -> 18 ;
19 [label=<gini = 0.469<br/>samples = 3<br/>value = [5, 3]<br/>class = LLM>, fillcolor="#f5cdb0"] ;
17 -> 19 ;
20 [label=<gini = 0.0<br/>samples = 7<br/>value = [12, 0]<br/>class = LLM>, fillcolor="#e58139"] ;
12 -> 20 ;
21 [label=<squirrelplay &le; 0.213<br/>gini = 0.5<br/>samples = 23<br/>value = [21, 22]<br/>class = Student>, fillcolor="#f6fbfe"] ;
11 -> 21 ;
22 [label=<gini = 0.0<br/>samples = 12<br/>value = [21, 0]<br/>class = LLM>, fillcolor="#e58139"] ;
21 -> 22 ;
23 [label=<gini = 0.0<br/>samples = 11<br/>value = [0, 22]<br/>class = Student>, fillcolor="#399de5"] ;
21 -> 23 ;
24 [label=<gini = 0.0<br/>samples = 6<br/>value = [8, 0]<br/>class = LLM>, fillcolor="#e58139"] ;
10 -> 24 ;
25 [label=<gini = 0.0<br/>samples = 10<br/>value = [12, 0]<br/>class = LLM>, fillcolor="#e58139"] ;
9 -> 25 ;
26 [label=<amount &le; 0.215<br/>gini = 0.417<br/>samples = 100<br/>value = [46, 109]<br/>class = Student>, fillcolor="#8dc6f0"] ;
8 -> 26 ;
27 [label=<the &le; 0.234<br/>gini = 0.433<br/>samples = 95<br/>value = [46, 99]<br/>class = Student>, fillcolor="#95cbf1"] ;
26 -> 27 ;
28 [label=<leftb &le; 0.217<br/>gini = 0.28<br/>samples = 64<br/>value = [16, 79]<br/>class = Student>, fillcolor="#61b1ea"] ;
27 -> 28 ;
29 [label=<all &le; 0.047<br/>gini = 0.303<br/>samples = 58<br/>value = [16, 70]<br/>class = Student>, fillcolor="#66b3eb"] ;
28 -> 29 ;
30 [label=<next &le; 0.222<br/>gini = 0.235<br/>samples = 54<br/>value = [11, 70]<br/>class = Student>, fillcolor="#58ace9"] ;
29 -> 30 ;
31 [label=<ychar &le; 0.373<br/>gini = 0.165<br/>samples = 51<br/>value = [7, 70]<br/>class = Student>, fillcolor="#4da7e8"] ;
30 -> 31 ;
32 [label=<gini = 0.18<br/>samples = 48<br/>value = [7, 63]<br/>class = Student>, fillcolor="#4fa8e8"] ;
31 -> 32 ;
33 [label=<gini = 0.0<br/>samples = 3<br/>value = [0, 7]<br/>class = Student>, fillcolor="#399de5"] ;
31 -> 33 ;
34 [label=<gini = 0.0<br/>samples = 3<br/>value = [4, 0]<br/>class = LLM>, fillcolor="#e58139"] ;
30 -> 34 ;
35 [label=<gini = 0.0<br/>samples = 4<br/>value = [5, 0]<br/>class = LLM>, fillcolor="#e58139"] ;
29 -> 35 ;
36 [label=<gini = 0.0<br/>samples = 6<br/>value = [0, 9]<br/>class = Student>, fillcolor="#399de5"] ;
28 -> 36 ;
37 [label=<ones &le; 0.05<br/>gini = 0.48<br/>samples = 31<br/>value = [30, 20]<br/>class = LLM>, fillcolor="#f6d5bd"] ;
27 -> 37 ;
38 [label=<part &le; 0.046<br/>gini = 0.393<br/>samples = 26<br/>value = [30, 11]<br/>class = LLM>, fillcolor="#efaf82"] ;
37 -> 38 ;
39 [label=<gini = 0.355<br/>samples = 24<br/>value = [30, 9]<br/>class = LLM>, fillcolor="#eda774"] ;
38 -> 39 ;
40 [label=<gini = 0.0<br/>samples = 2<br/>value = [0, 2]<br/>class = Student>, fillcolor="#399de5"] ;
38 -> 40 ;
41 [label=<gini = 0.0<br/>samples = 5<br/>value = [0, 9]<br/>class = Student>, fillcolor="#399de5"] ;
37 -> 41 ;
42 [label=<gini = 0.0<br/>samples = 5<br/>value = [0, 10]<br/>class = Student>, fillcolor="#399de5"] ;
26 -> 42 ;
43 [label=<gini = 0.0<br/>samples = 15<br/>value = [28, 0]<br/>class = LLM>, fillcolor="#e58139"] ;
7 -> 43 ;
44 [label=<gini = 0.074<br/>samples = 15<br/>value = [25, 1]<br/>class = LLM>, fillcolor="#e68641"] ;
6 -> 44 ;
45 [label=<gini = 0.32<br/>samples = 13<br/>value = [20, 5]<br/>class = LLM>, fillcolor="#eca06a"] ;
5 -> 45 ;
46 [label=<and &le; 0.058<br/>gini = 0.379<br/>samples = 37<br/>value = [47, 16]<br/>class = LLM>, fillcolor="#eeac7c"] ;
4 -> 46 ;
47 [label=<nums &le; 0.066<br/>gini = 0.208<br/>samples = 27<br/>value = [45, 6]<br/>class = LLM>, fillcolor="#e89253"] ;
46 -> 47 ;
48 [label=<return &le; 0.047<br/>gini = 0.444<br/>samples = 11<br/>value = [12, 6]<br/>class = LLM>, fillcolor="#f2c09c"] ;
47 -> 48 ;
49 [label=<gini = 0.0<br/>samples = 4<br/>value = [9, 0]<br/>class = LLM>, fillcolor="#e58139"] ;
48 -> 49 ;
50 [label=<substring &le; 0.067<br/>gini = 0.444<br/>samples = 7<br/>value = [3, 6]<br/>class = Student>, fillcolor="#9ccef2"] ;
48 -> 50 ;
51 [label=<gini = 0.375<br/>samples = 4<br/>value = [3, 1]<br/>class = LLM>, fillcolor="#eeab7b"] ;
50 -> 51 ;
52 [label=<gini = 0.0<br/>samples = 3<br/>value = [0, 5]<br/>class = Student>, fillcolor="#399de5"] ;
50 -> 52 ;
53 [label=<gini = 0.0<br/>samples = 16<br/>value = [33, 0]<br/>class = LLM>, fillcolor="#e58139"] ;
47 -> 53 ;
54 [label=<boolean &le; 0.04<br/>gini = 0.278<br/>samples = 10<br/>value = [2, 10]<br/>class = Student>, fillcolor="#61b1ea"] ;
46 -> 54 ;
55 [label=<gini = 0.48<br/>samples = 4<br/>value = [2, 3]<br/>class = Student>, fillcolor="#bddef6"] ;
54 -> 55 ;
56 [label=<gini = 0.0<br/>samples = 6<br/>value = [0, 7]<br/>class = Student>, fillcolor="#399de5"] ;
54 -> 56 ;
57 [label=<gini = 0.0<br/>samples = 17<br/>value = [27, 0]<br/>class = LLM>, fillcolor="#e58139"] ;
3 -> 57 ;
58 [label=<public &le; 0.08<br/>gini = 0.476<br/>samples = 69<br/>value = [44, 69]<br/>class = Student>, fillcolor="#b7dbf6"] ;
2 -> 58 ;
59 [label=<gini = 0.045<br/>samples = 22<br/>value = [42, 1]<br/>class = LLM>, fillcolor="#e6843e"] ;
58 -> 59 ;
60 [label=<fixteen &le; 0.836<br/>gini = 0.056<br/>samples = 47<br/>value = [2, 68]<br/>class = Student>, fillcolor="#3fa0e6"] ;
58 -> 60 ;
61 [label=<gini = 0.0<br/>samples = 12<br/>value = [0, 18]<br/>class = Student>, fillcolor="#399de5"] ;
60 -> 61 ;
62 [label=<return &le; 0.106<br/>gini = 0.074<br/>samples = 35<br/>value = [2, 50]<br/>class = Student>, fillcolor="#41a1e6"] ;
60 -> 62 ;
63 [label=<gini = 0.0<br/>samples = 7<br/>value = [0, 8]<br/>class = Student>, fillcolor="#399de5"] ;
62 -> 63 ;
64 [label=<gini = 0.087<br/>samples = 28<br/>value = [2, 42]<br/>class = Student>, fillcolor="#42a2e6"] ;
62 -> 64 ;
65 [label=<array &le; 0.092<br/>gini = 0.396<br/>samples = 41<br/>value = [51, 19]<br/>class = LLM>, fillcolor="#efb083"] ;
1 -> 65 ;
66 [label=<xy &le; 0.042<br/>gini = 0.163<br/>samples = 33<br/>value = [51, 5]<br/>class = LLM>, fillcolor="#e88d4c"] ;
65 -> 66 ;
67 [label=<result &le; 0.126<br/>gini = 0.187<br/>samples = 27<br/>value = [43, 5]<br/>class = LLM>, fillcolor="#e89050"] ;
66 -> 67 ;
68 [label=<abc &le; 0.037<br/>gini = 0.214<br/>samples = 24<br/>value = [36, 5]<br/>class = LLM>, fillcolor="#e99254"] ;
67 -> 68 ;
69 [label=<string &le; 0.229<br/>gini = 0.251<br/>samples = 20<br/>value = [29, 5]<br/>class = LLM>, fillcolor="#e9975b"] ;
68 -> 69 ;
70 [label=<gini = 0.0<br/>samples = 17<br/>value = [29, 0]<br/>class = LLM>, fillcolor="#e58139"] ;
69 -> 70 ;
71 [label=<gini = 0.0<br/>samples = 3<br/>value = [0, 5]<br/>class = Student>, fillcolor="#399de5"] ;
69 -> 71 ;
72 [label=<gini = 0.0<br/>samples = 4<br/>value = [7, 0]<br/>class = LLM>, fillcolor="#e58139"] ;
68 -> 72 ;
73 [label=<gini = 0.0<br/>samples = 3<br/>value = [7, 0]<br/>class = LLM>, fillcolor="#e58139"] ;
67 -> 73 ;
74 [label=<gini = 0.0<br/>samples = 6<br/>value = [8, 0]<br/>class = LLM>, fillcolor="#e58139"] ;
66 -> 74 ;
75 [label=<gini = 0.0<br/>samples = 8<br/>value = [0, 14]<br/>class = Student>, fillcolor="#399de5"] ;
65 -> 75 ;
76 [label=<on &le; 0.084<br/>gini = 0.085<br/>samples = 9460<br/>value = [662, 14272]<br/>class = Student>, fillcolor="#42a2e6"] ;
0 -> 76 [labeldistance=2.5, labelangle=-45, headlabel="False"] ;
77 [label=<yes &le; 0.06<br/>gini = 0.084<br/>samples = 9456<br/>value = [657, 14270]<br/>class = Student>, fillcolor="#42a2e6"] ;
76 -> 77 ;
78 [label=<frontpiece &le; 0.35<br/>gini = 0.082<br/>samples = 9425<br/>value = [635, 14245]<br/>class = Student>, fillcolor="#42a1e6"] ;
77 -> 78 ;
79 [label=<lowerlimit &le; 0.291<br/>gini = 0.078<br/>samples = 9386<br/>value = [600, 14205]<br/>class = Student>, fillcolor="#41a1e6"] ;
78 -> 79 ;
80 [label=<class &le; 0.043<br/>gini = 0.077<br/>samples = 9382<br/>value = [593, 14205]<br/>class = Student>, fillcolor="#41a1e6"] ;
79 -> 80 ;
81 [label=<temp &le; 0.8<br/>gini = 0.075<br/>samples = 9372<br/>value = [578, 14204]<br/>class = Student>, fillcolor="#41a1e6"] ;
80 -> 81 ;
82 [label=<isasleep &le; 0.479<br/>gini = 0.073<br/>samples = 9349<br/>value = [559, 14187]<br/>class = Student>, fillcolor="#41a1e6"] ;
81 -> 82 ;
83 [label=<skip &le; 0.15<br/>gini = 0.071<br/>samples = 9264<br/>value = [541, 14067]<br/>class = Student>, fillcolor="#41a1e6"] ;
82 -> 83 ;
84 [label=<81 &le; 0.028<br/>gini = 0.07<br/>samples = 9258<br/>value = [531, 14067]<br/>class = Student>, fillcolor="#40a1e6"] ;
83 -> 84 ;
85 [label=<same &le; 0.056<br/>gini = 0.072<br/>samples = 8974<br/>value = [531, 13613]<br/>class = Student>, fillcolor="#41a1e6"] ;
84 -> 85 ;
86 [label=<cigars &le; 0.775<br/>gini = 0.071<br/>samples = 8969<br/>value = [522, 13612]<br/>class = Student>, fillcolor="#41a1e6"] ;
85 -> 86 ;
87 [label=<the &le; 0.404<br/>gini = 0.066<br/>samples = 8921<br/>value = [481, 13584]<br/>class = Student>, fillcolor="#40a0e6"] ;
86 -> 87 ;
88 [label=<next &le; 0.123<br/>gini = 0.065<br/>samples = 8916<br/>value = [474, 13584]<br/>class = Student>, fillcolor="#40a0e6"] ;
87 -> 88 ;
89 [label=<of &le; 0.329<br/>gini = 0.065<br/>samples = 8910<br/>value = [469.0, 13579.0]<br/>class = Student>, fillcolor="#40a0e6"] ;
88 -> 89 ;
90 [label=<gini = 0.064<br/>samples = 8908<br/>value = [466.0, 13578.0]<br/>class = Student>, fillcolor="#40a0e6"] ;
89 -> 90 ;
91 [label=<gini = 0.375<br/>samples = 2<br/>value = [3, 1]<br/>class = LLM>, fillcolor="#eeab7b"] ;
89 -> 91 ;
92 [label=<twotwo &le; 0.065<br/>gini = 0.5<br/>samples = 6<br/>value = [5, 5]<br/>class = LLM>, fillcolor="#ffffff"] ;
88 -> 92 ;
93 [label=<gini = 0.0<br/>samples = 3<br/>value = [0, 5]<br/>class = Student>, fillcolor="#399de5"] ;
92 -> 93 ;
94 [label=<gini = 0.0<br/>samples = 3<br/>value = [5, 0]<br/>class = LLM>, fillcolor="#e58139"] ;
92 -> 94 ;
95 [label=<gini = 0.0<br/>samples = 5<br/>value = [7, 0]<br/>class = LLM>, fillcolor="#e58139"] ;
87 -> 95 ;
96 [label=<gini = 0.482<br/>samples = 48<br/>value = [41, 28]<br/>class = LLM>, fillcolor="#f7d7c0"] ;
86 -> 96 ;
97 [label=<else &le; 0.078<br/>gini = 0.18<br/>samples = 5<br/>value = [9, 1]<br/>class = LLM>, fillcolor="#e88f4f"] ;
85 -> 97 ;
98 [label=<gini = 0.444<br/>samples = 2<br/>value = [2, 1]<br/>class = LLM>, fillcolor="#f2c09c"] ;
97 -> 98 ;
99 [label=<gini = 0.0<br/>samples = 3<br/>value = [7, 0]<br/>class = LLM>, fillcolor="#e58139"] ;
97 -> 99 ;
100 [label=<gini = 0.0<br/>samples = 284<br/>value = [0, 454]<br/>class = Student>, fillcolor="#399de5"] ;
84 -> 100 ;
101 [label=<gini = 0.0<br/>samples = 6<br/>value = [10, 0]<br/>class = LLM>, fillcolor="#e58139"] ;
83 -> 101 ;
102 [label=<ismom &le; 0.487<br/>gini = 0.227<br/>samples = 85<br/>value = [18, 120]<br/>class = Student>, fillcolor="#57ace9"] ;
82 -> 102 ;
103 [label=<boolean &le; 0.369<br/>gini = 0.134<br/>samples = 56<br/>value = [7.0, 90.0]<br/>class = Student>, fillcolor="#48a5e7"] ;
102 -> 103 ;
104 [label=<answercell &le; 0.226<br/>gini = 0.245<br/>samples = 31<br/>value = [7, 42]<br/>class = Student>, fillcolor="#5aade9"] ;
103 -> 104 ;
105 [label=<gini = 0.0<br/>samples = 23<br/>value = [0, 37]<br/>class = Student>, fillcolor="#399de5"] ;
104 -> 105 ;
106 [label=<gini = 0.486<br/>samples = 8<br/>value = [7, 5]<br/>class = LLM>, fillcolor="#f8dbc6"] ;
104 -> 106 ;
107 [label=<gini = 0.0<br/>samples = 25<br/>value = [0, 48]<br/>class = Student>, fillcolor="#399de5"] ;
103 -> 107 ;
108 [label=<ismom &le; 0.491<br/>gini = 0.393<br/>samples = 29<br/>value = [11, 30]<br/>class = Student>, fillcolor="#82c1ef"] ;
102 -> 108 ;
109 [label=<gini = 0.26<br/>samples = 10<br/>value = [11, 2]<br/>class = LLM>, fillcolor="#ea985d"] ;
108 -> 109 ;
110 [label=<gini = 0.0<br/>samples = 19<br/>value = [0, 28]<br/>class = Student>, fillcolor="#399de5"] ;
108 -> 110 ;
111 [label=<fizz &le; 0.063<br/>gini = 0.498<br/>samples = 23<br/>value = [19, 17]<br/>class = LLM>, fillcolor="#fcf2ea"] ;
81 -> 111 ;
112 [label=<return &le; 0.09<br/>gini = 0.436<br/>samples = 18<br/>value = [19, 9]<br/>class = LLM>, fillcolor="#f1bd97"] ;
111 -> 112 ;
113 [label=<gini = 0.33<br/>samples = 16<br/>value = [19, 5]<br/>class = LLM>, fillcolor="#eca26d"] ;
112 -> 113 ;
114 [label=<gini = 0.0<br/>samples = 2<br/>value = [0, 4]<br/>class = Student>, fillcolor="#399de5"] ;
112 -> 114 ;
115 [label=<gini = 0.0<br/>samples = 5<br/>value = [0, 8]<br/>class = Student>, fillcolor="#399de5"] ;
111 -> 115 ;
116 [label=<out &le; 0.132<br/>gini = 0.117<br/>samples = 10<br/>value = [15, 1]<br/>class = LLM>, fillcolor="#e78946"] ;
80 -> 116 ;
117 [label=<gini = 0.444<br/>samples = 2<br/>value = [2, 1]<br/>class = LLM>, fillcolor="#f2c09c"] ;
116 -> 117 ;
118 [label=<gini = 0.0<br/>samples = 8<br/>value = [13, 0]<br/>class = LLM>, fillcolor="#e58139"] ;
116 -> 118 ;
119 [label=<gini = 0.0<br/>samples = 4<br/>value = [7, 0]<br/>class = LLM>, fillcolor="#e58139"] ;
79 -> 119 ;
120 [label=<new &le; 0.223<br/>gini = 0.498<br/>samples = 39<br/>value = [35, 40]<br/>class = Student>, fillcolor="#e6f3fc"] ;
78 -> 120 ;
121 [label=<gini = 0.0<br/>samples = 16<br/>value = [0, 28]<br/>class = Student>, fillcolor="#399de5"] ;
120 -> 121 ;
122 [label=<else &le; 0.121<br/>gini = 0.38<br/>samples = 23<br/>value = [35.0, 12.0]<br/>class = LLM>, fillcolor="#eeac7d"] ;
120 -> 122 ;
123 [label=<gini = 0.278<br/>samples = 20<br/>value = [35, 7]<br/>class = LLM>, fillcolor="#ea9a61"] ;
122 -> 123 ;
124 [label=<gini = 0.0<br/>samples = 3<br/>value = [0, 5]<br/>class = Student>, fillcolor="#399de5"] ;
122 -> 124 ;
125 [label=<int &le; 0.056<br/>gini = 0.498<br/>samples = 31<br/>value = [22, 25]<br/>class = Student>, fillcolor="#e7f3fc"] ;
77 -> 125 ;
126 [label=<gini = 0.0<br/>samples = 11<br/>value = [0, 15]<br/>class = Student>, fillcolor="#399de5"] ;
125 -> 126 ;
127 [label=<boolean &le; 0.042<br/>gini = 0.43<br/>samples = 20<br/>value = [22, 10]<br/>class = LLM>, fillcolor="#f1ba93"] ;
125 -> 127 ;
128 [label=<is &le; 0.05<br/>gini = 0.366<br/>samples = 18<br/>value = [22, 7]<br/>class = LLM>, fillcolor="#eda978"] ;
127 -> 128 ;
129 [label=<if &le; 0.073<br/>gini = 0.444<br/>samples = 14<br/>value = [14, 7]<br/>class = LLM>, fillcolor="#f2c09c"] ;
128 -> 129 ;
130 [label=<gini = 0.0<br/>samples = 2<br/>value = [0, 4]<br/>class = Student>, fillcolor="#399de5"] ;
129 -> 130 ;
131 [label=<chance &le; 0.147<br/>gini = 0.291<br/>samples = 12<br/>value = [14, 3]<br/>class = LLM>, fillcolor="#eb9c63"] ;
129 -> 131 ;
132 [label=<gini = 0.355<br/>samples = 10<br/>value = [10, 3]<br/>class = LLM>, fillcolor="#eda774"] ;
131 -> 132 ;
133 [label=<gini = 0.0<br/>samples = 2<br/>value = [4, 0]<br/>class = LLM>, fillcolor="#e58139"] ;
131 -> 133 ;
134 [label=<gini = 0.0<br/>samples = 4<br/>value = [8, 0]<br/>class = LLM>, fillcolor="#e58139"] ;
128 -> 134 ;
135 [label=<gini = 0.0<br/>samples = 2<br/>value = [0, 3]<br/>class = Student>, fillcolor="#399de5"] ;
127 -> 135 ;
136 [label=<gini = 0.408<br/>samples = 4<br/>value = [5, 2]<br/>class = LLM>, fillcolor="#efb388"] ;
76 -> 136 ;
}
