digraph Tree {
node [shape=box, style="filled, rounded", color="black", fontname="helvetica"] ;
edge [fontname="helvetica"] ;
0 [label=<esult &le; 0.053<br/>gini = 0.5<br/>samples = 2652<br/>value = [2085, 2115]<br/>class = Student>, fillcolor="#fcfeff"] ;
1 [label=<turn &le; 0.021<br/>gini = 0.497<br/>samples = 2428<br/>value = [1783, 2058]<br/>class = Student>, fillcolor="#e5f2fc"] ;
0 -> 1 [labeldistance=2.5, labelangle=45, headlabel="True"] ;
2 [label=<ystem &le; 0.016<br/>gini = 0.437<br/>samples = 673<br/>value = [332, 697]<br/>class = Student>, fillcolor="#97ccf1"] ;
1 -> 2 ;
3 [label=<ength &le; 0.026<br/>gini = 0.398<br/>samples = 631<br/>value = [261, 690]<br/>class = Student>, fillcolor="#84c2ef"] ;
2 -> 3 ;
4 [label=< publ &le; 0.021<br/>gini = 0.478<br/>samples = 235<br/>value = [141, 215]<br/>class = Student>, fillcolor="#bbddf6"] ;
3 -> 4 ;
5 [label=< stri &le; 0.064<br/>gini = 0.493<br/>samples = 211<br/>value = [141, 178]<br/>class = Student>, fillcolor="#d6ebfa"] ;
4 -> 5 ;
6 [label=<ring  &le; 0.032<br/>gini = 0.497<br/>samples = 170<br/>value = [136, 116]<br/>class = LLM>, fillcolor="#fbece2"] ;
5 -> 6 ;
7 [label=< the  &le; 0.067<br/>gini = 0.497<br/>samples = 134<br/>value = [91.0, 106.0]<br/>class = Student>, fillcolor="#e3f1fb"] ;
6 -> 7 ;
8 [label="(...)", fillcolor="#C0C0C0"] ;
7 -> 8 ;
39 [label="(...)", fillcolor="#C0C0C0"] ;
7 -> 39 ;
40 [label=< else  &le; 0.051<br/>gini = 0.298<br/>samples = 36<br/>value = [45, 10]<br/>class = LLM>, fillcolor="#eb9d65"] ;
6 -> 40 ;
41 [label="(...)", fillcolor="#C0C0C0"] ;
40 -> 41 ;
54 [label="(...)", fillcolor="#C0C0C0"] ;
40 -> 54 ;
55 [label=<int  &le; 0.014<br/>gini = 0.138<br/>samples = 41<br/>value = [5, 62]<br/>class = Student>, fillcolor="#49a5e7"] ;
5 -> 55 ;
56 [label=<leng &le; 0.017<br/>gini = 0.494<br/>samples = 5<br/>value = [5, 4]<br/>class = LLM>, fillcolor="#fae6d7"] ;
55 -> 56 ;
57 [label="(...)", fillcolor="#C0C0C0"] ;
56 -> 57 ;
58 [label="(...)", fillcolor="#C0C0C0"] ;
56 -> 58 ;
59 [label=<gini = 0.0<br/>samples = 36<br/>value = [0, 58]<br/>class = Student>, fillcolor="#399de5"] ;
55 -> 59 ;
60 [label=<gini = 0.0<br/>samples = 24<br/>value = [0, 37]<br/>class = Student>, fillcolor="#399de5"] ;
4 -> 60 ;
61 [label=<ums[j] &le; 0.073<br/>gini = 0.322<br/>samples = 396<br/>value = [120.0, 475.0]<br/>class = Student>, fillcolor="#6bb6ec"] ;
3 -> 61 ;
62 [label=<ppen &le; 0.139<br/>gini = 0.277<br/>samples = 351<br/>value = [87, 436]<br/>class = Student>, fillcolor="#61b1ea"] ;
61 -> 62 ;
63 [label=<s(int &le; 0.016<br/>gini = 0.26<br/>samples = 346<br/>value = [79, 436]<br/>class = Student>, fillcolor="#5dafea"] ;
62 -> 63 ;
64 [label=<array  &le; 0.114<br/>gini = 0.19<br/>samples = 308<br/>value = [49, 411]<br/>class = Student>, fillcolor="#51a9e8"] ;
63 -> 64 ;
65 [label="(...)", fillcolor="#C0C0C0"] ;
64 -> 65 ;
92 [label="(...)", fillcolor="#C0C0C0"] ;
64 -> 92 ;
93 [label=< =  &le; 0.055<br/>gini = 0.496<br/>samples = 38<br/>value = [30.0, 25.0]<br/>class = LLM>, fillcolor="#fbeade"] ;
63 -> 93 ;
94 [label="(...)", fillcolor="#C0C0C0"] ;
93 -> 94 ;
99 [label="(...)", fillcolor="#C0C0C0"] ;
93 -> 99 ;
106 [label=<gini = 0.0<br/>samples = 5<br/>value = [8, 0]<br/>class = LLM>, fillcolor="#e58139"] ;
62 -> 106 ;
107 [label=<nums; &le; 0.044<br/>gini = 0.497<br/>samples = 45<br/>value = [33, 39]<br/>class = Student>, fillcolor="#e1f0fb"] ;
61 -> 107 ;
108 [label=<gini = 0.0<br/>samples = 12<br/>value = [0, 21]<br/>class = Student>, fillcolor="#399de5"] ;
107 -> 108 ;
109 [label=<int[] &le; 0.072<br/>gini = 0.457<br/>samples = 33<br/>value = [33, 18]<br/>class = LLM>, fillcolor="#f3c6a5"] ;
107 -> 109 ;
110 [label=< if(n &le; 0.024<br/>gini = 0.397<br/>samples = 28<br/>value = [32, 12]<br/>class = LLM>, fillcolor="#efb083"] ;
109 -> 110 ;
111 [label="(...)", fillcolor="#C0C0C0"] ;
110 -> 111 ;
122 [label="(...)", fillcolor="#C0C0C0"] ;
110 -> 122 ;
123 [label=<ngth;  &le; 0.05<br/>gini = 0.245<br/>samples = 5<br/>value = [1, 6]<br/>class = Student>, fillcolor="#5aade9"] ;
109 -> 123 ;
124 [label="(...)", fillcolor="#C0C0C0"] ;
123 -> 124 ;
125 [label="(...)", fillcolor="#C0C0C0"] ;
123 -> 125 ;
126 [label=< <  &le; 0.036<br/>gini = 0.163<br/>samples = 42<br/>value = [71, 7]<br/>class = LLM>, fillcolor="#e88d4d"] ;
2 -> 126 ;
127 [label=<m.out &le; 0.127<br/>gini = 0.053<br/>samples = 40<br/>value = [71, 2]<br/>class = LLM>, fillcolor="#e6853f"] ;
126 -> 127 ;
128 [label=<gini = 0.0<br/>samples = 38<br/>value = [70, 0]<br/>class = LLM>, fillcolor="#e58139"] ;
127 -> 128 ;
129 [label=<gini = 0.444<br/>samples = 2<br/>value = [1, 2]<br/>class = Student>, fillcolor="#9ccef2"] ;
127 -> 129 ;
130 [label=<gini = 0.0<br/>samples = 2<br/>value = [0, 5]<br/>class = Student>, fillcolor="#399de5"] ;
126 -> 130 ;
131 [label=<publ &le; 0.044<br/>gini = 0.499<br/>samples = 1755<br/>value = [1451.0, 1361.0]<br/>class = LLM>, fillcolor="#fdf7f3"] ;
1 -> 131 ;
132 [label=<nums)  &le; 0.083<br/>gini = 0.498<br/>samples = 1698<br/>value = [1446, 1275]<br/>class = LLM>, fillcolor="#fcf0e8"] ;
131 -> 132 ;
133 [label=< true &le; 0.066<br/>gini = 0.5<br/>samples = 1601<br/>value = [1295, 1263]<br/>class = LLM>, fillcolor="#fefcfa"] ;
132 -> 133 ;
134 [label=< 0;  &le; 0.05<br/>gini = 0.497<br/>samples = 1383<br/>value = [1187, 1016]<br/>class = LLM>, fillcolor="#fbede2"] ;
133 -> 134 ;
135 [label=< ret &le; 0.03<br/>gini = 0.484<br/>samples = 1178<br/>value = [1111, 771]<br/>class = LLM>, fillcolor="#f7d8c2"] ;
134 -> 135 ;
136 [label=<tem.ou &le; 0.027<br/>gini = 0.492<br/>samples = 233<br/>value = [164, 210]<br/>class = Student>, fillcolor="#d4eaf9"] ;
135 -> 136 ;
137 [label="(...)", fillcolor="#C0C0C0"] ;
136 -> 137 ;
174 [label="(...)", fillcolor="#C0C0C0"] ;
136 -> 174 ;
175 [label=<gth(); &le; 0.014<br/>gini = 0.467<br/>samples = 945<br/>value = [947, 561]<br/>class = LLM>, fillcolor="#f4ccae"] ;
135 -> 175 ;
176 [label="(...)", fillcolor="#C0C0C0"] ;
175 -> 176 ;
257 [label="(...)", fillcolor="#C0C0C0"] ;
175 -> 257 ;
268 [label=<int  &le; 0.04<br/>gini = 0.361<br/>samples = 205<br/>value = [76, 245]<br/>class = Student>, fillcolor="#76bbed"] ;
134 -> 268 ;
269 [label=<turn  &le; 0.034<br/>gini = 0.117<br/>samples = 9<br/>value = [15, 1]<br/>class = LLM>, fillcolor="#e78946"] ;
268 -> 269 ;
270 [label="(...)", fillcolor="#C0C0C0"] ;
269 -> 270 ;
271 [label="(...)", fillcolor="#C0C0C0"] ;
269 -> 271 ;
272 [label=<alse &le; 0.101<br/>gini = 0.32<br/>samples = 196<br/>value = [61, 244]<br/>class = Student>, fillcolor="#6ab6ec"] ;
268 -> 272 ;
273 [label="(...)", fillcolor="#C0C0C0"] ;
272 -> 273 ;
316 [label="(...)", fillcolor="#C0C0C0"] ;
272 -> 316 ;
319 [label=< i++) &le; 0.009<br/>gini = 0.423<br/>samples = 218<br/>value = [108, 247]<br/>class = Student>, fillcolor="#90c8f0"] ;
133 -> 319 ;
320 [label=<ath.ab &le; 0.017<br/>gini = 0.253<br/>samples = 138<br/>value = [34, 195]<br/>class = Student>, fillcolor="#5caeea"] ;
319 -> 320 ;
321 [label=<arat(i &le; 0.037<br/>gini = 0.112<br/>samples = 100<br/>value = [10, 158]<br/>class = Student>, fillcolor="#46a3e7"] ;
320 -> 321 ;
322 [label="(...)", fillcolor="#C0C0C0"] ;
321 -> 322 ;
333 [label="(...)", fillcolor="#C0C0C0"] ;
321 -> 333 ;
336 [label=<math &le; 0.118<br/>gini = 0.477<br/>samples = 38<br/>value = [24, 37]<br/>class = Student>, fillcolor="#b9ddf6"] ;
320 -> 336 ;
337 [label="(...)", fillcolor="#C0C0C0"] ;
336 -> 337 ;
344 [label="(...)", fillcolor="#C0C0C0"] ;
336 -> 344 ;
345 [label=<ums[i  &le; 0.056<br/>gini = 0.485<br/>samples = 80<br/>value = [74, 52]<br/>class = LLM>, fillcolor="#f7dac4"] ;
319 -> 345 ;
346 [label=<eturn  &le; 0.065<br/>gini = 0.496<br/>samples = 52<br/>value = [36, 43]<br/>class = Student>, fillcolor="#dfeffb"] ;
345 -> 346 ;
347 [label="(...)", fillcolor="#C0C0C0"] ;
346 -> 347 ;
358 [label="(...)", fillcolor="#C0C0C0"] ;
346 -> 358 ;
365 [label=<ms[i] &le; 0.101<br/>gini = 0.31<br/>samples = 28<br/>value = [38, 9]<br/>class = LLM>, fillcolor="#eb9f68"] ;
345 -> 365 ;
366 [label="(...)", fillcolor="#C0C0C0"] ;
365 -> 366 ;
373 [label="(...)", fillcolor="#C0C0C0"] ;
365 -> 373 ;
374 [label=<leng &le; 0.068<br/>gini = 0.136<br/>samples = 97<br/>value = [151, 12]<br/>class = LLM>, fillcolor="#e78b49"] ;
132 -> 374 ;
375 [label=<ums[ &le; 0.283<br/>gini = 0.106<br/>samples = 95<br/>value = [151, 9]<br/>class = LLM>, fillcolor="#e78945"] ;
374 -> 375 ;
376 [label=<num;  &le; 0.04<br/>gini = 0.058<br/>samples = 76<br/>value = [131, 4]<br/>class = LLM>, fillcolor="#e6853f"] ;
375 -> 376 ;
377 [label=< (in &le; 0.053<br/>gini = 0.162<br/>samples = 23<br/>value = [41, 4]<br/>class = LLM>, fillcolor="#e88d4c"] ;
376 -> 377 ;
378 [label="(...)", fillcolor="#C0C0C0"] ;
377 -> 378 ;
383 [label="(...)", fillcolor="#C0C0C0"] ;
377 -> 383 ;
384 [label=<gini = 0.0<br/>samples = 53<br/>value = [90, 0]<br/>class = LLM>, fillcolor="#e58139"] ;
376 -> 384 ;
385 [label=<gini = 0.32<br/>samples = 19<br/>value = [20, 5]<br/>class = LLM>, fillcolor="#eca06a"] ;
375 -> 385 ;
386 [label=<gini = 0.0<br/>samples = 2<br/>value = [0, 3]<br/>class = Student>, fillcolor="#399de5"] ;
374 -> 386 ;
387 [label=<e(str &le; 0.184<br/>gini = 0.104<br/>samples = 57<br/>value = [5, 86]<br/>class = Student>, fillcolor="#45a3e7"] ;
131 -> 387 ;
388 [label=<publ &le; 0.055<br/>gini = 0.023<br/>samples = 54<br/>value = [1, 86]<br/>class = Student>, fillcolor="#3b9ee5"] ;
387 -> 388 ;
389 [label=< str) &le; 0.146<br/>gini = 0.048<br/>samples = 29<br/>value = [1, 40]<br/>class = Student>, fillcolor="#3e9fe6"] ;
388 -> 389 ;
390 [label=<gini = 0.0<br/>samples = 27<br/>value = [0, 39]<br/>class = Student>, fillcolor="#399de5"] ;
389 -> 390 ;
391 [label=<gini = 0.5<br/>samples = 2<br/>value = [1, 1]<br/>class = LLM>, fillcolor="#ffffff"] ;
389 -> 391 ;
392 [label=<gini = 0.0<br/>samples = 25<br/>value = [0, 46]<br/>class = Student>, fillcolor="#399de5"] ;
388 -> 392 ;
393 [label=<gini = 0.0<br/>samples = 3<br/>value = [4, 0]<br/>class = LLM>, fillcolor="#e58139"] ;
387 -> 393 ;
394 [label=<sult; &le; 0.036<br/>gini = 0.267<br/>samples = 224<br/>value = [302.0, 57.0]<br/>class = LLM>, fillcolor="#ea995e"] ;
0 -> 394 [labeldistance=2.5, labelangle=-45, headlabel="False"] ;
395 [label=<quals &le; 0.036<br/>gini = 0.087<br/>samples = 106<br/>value = [168, 8]<br/>class = LLM>, fillcolor="#e68742"] ;
394 -> 395 ;
396 [label=<int  &le; 0.069<br/>gini = 0.045<br/>samples = 103<br/>value = [168, 4]<br/>class = LLM>, fillcolor="#e6843e"] ;
395 -> 396 ;
397 [label=<ue;  &le; 0.025<br/>gini = 0.023<br/>samples = 101<br/>value = [168, 2]<br/>class = LLM>, fillcolor="#e5823b"] ;
396 -> 397 ;
398 [label=<gini = 0.0<br/>samples = 99<br/>value = [167, 0]<br/>class = LLM>, fillcolor="#e58139"] ;
397 -> 398 ;
399 [label=<gini = 0.444<br/>samples = 2<br/>value = [1, 2]<br/>class = Student>, fillcolor="#9ccef2"] ;
397 -> 399 ;
400 [label=<gini = 0.0<br/>samples = 2<br/>value = [0, 2]<br/>class = Student>, fillcolor="#399de5"] ;
396 -> 400 ;
401 [label=<gini = 0.0<br/>samples = 3<br/>value = [0, 4]<br/>class = Student>, fillcolor="#399de5"] ;
395 -> 401 ;
402 [label=<false &le; 0.012<br/>gini = 0.392<br/>samples = 118<br/>value = [134.0, 49.0]<br/>class = LLM>, fillcolor="#efaf81"] ;
394 -> 402 ;
403 [label=<icket( &le; 0.027<br/>gini = 0.339<br/>samples = 109<br/>value = [134, 37]<br/>class = LLM>, fillcolor="#eca470"] ;
402 -> 403 ;
404 [label=< 1)  &le; 0.079<br/>gini = 0.299<br/>samples = 106<br/>value = [134, 30]<br/>class = LLM>, fillcolor="#eb9d65"] ;
403 -> 404 ;
405 [label=<r.subs &le; 0.072<br/>gini = 0.272<br/>samples = 102<br/>value = [134, 26]<br/>class = LLM>, fillcolor="#ea995f"] ;
404 -> 405 ;
406 [label=< +  &le; 0.057<br/>gini = 0.242<br/>samples = 100<br/>value = [134, 22]<br/>class = LLM>, fillcolor="#e9965a"] ;
405 -> 406 ;
407 [label=<public &le; 0.021<br/>gini = 0.191<br/>samples = 96<br/>value = [134, 16]<br/>class = LLM>, fillcolor="#e89051"] ;
406 -> 407 ;
408 [label="(...)", fillcolor="#C0C0C0"] ;
407 -> 408 ;
419 [label="(...)", fillcolor="#C0C0C0"] ;
407 -> 419 ;
426 [label=<gini = 0.0<br/>samples = 4<br/>value = [0, 6]<br/>class = Student>, fillcolor="#399de5"] ;
406 -> 426 ;
427 [label=<gini = 0.0<br/>samples = 2<br/>value = [0, 4]<br/>class = Student>, fillcolor="#399de5"] ;
405 -> 427 ;
428 [label=<gini = 0.0<br/>samples = 4<br/>value = [0, 4]<br/>class = Student>, fillcolor="#399de5"] ;
404 -> 428 ;
429 [label=<gini = 0.0<br/>samples = 3<br/>value = [0, 7]<br/>class = Student>, fillcolor="#399de5"] ;
403 -> 429 ;
430 [label=<gini = 0.0<br/>samples = 9<br/>value = [0, 12]<br/>class = Student>, fillcolor="#399de5"] ;
402 -> 430 ;
}
