digraph Tree {
node [shape=box, style="filled, rounded", color="black", fontname="helvetica"] ;
edge [fontname="helvetica"] ;
0 [label="gth;  <= 0.022\ngini = 0.5\nsamples = 2677\nvalue = [2107, 2093]\nclass = LLM", fillcolor="#fffefe"] ;
1 [label="ul <= 0.005\ngini = 0.498\nsamples = 2272\nvalue = [1887, 1670]\nclass = LLM", fillcolor="#fcf1e8"] ;
0 -> 1 [labeldistance=2.5, labelangle=45, headlabel="True"] ;
2 [label="m  <= 0.089\ngini = 0.499\nsamples = 1992\nvalue = [1491.0, 1603.0]\nclass = Student", fillcolor="#f1f8fd"] ;
1 -> 2 ;
3 [label=" retu <= 0.014\ngini = 0.494\nsamples = 1770\nvalue = [1222, 1511]\nclass = Student", fillcolor="#d9ecfa"] ;
2 -> 3 ;
4 [label="bstr <= 0.027\ngini = 0.377\nsamples = 353\nvalue = [135, 401]\nclass = Student", fillcolor="#7cbeee"] ;
3 -> 4 ;
5 [label=" ma <= 0.005\ngini = 0.422\nsamples = 272\nvalue = [127.0, 292.0]\nclass = Student", fillcolor="#8fc8f0"] ;
4 -> 5 ;
6 [label="we <= 0.013\ngini = 0.376\nsamples = 240\nvalue = [94, 281]\nclass = Student", fillcolor="#7bbeee"] ;
5 -> 6 ;
7 [label="tr.le <= 0.019\ngini = 0.343\nsamples = 220\nvalue = [76, 270]\nclass = Student", fillcolor="#71b9ec"] ;
6 -> 7 ;
8 [label=",  <= 0.058\ngini = 0.281\nsamples = 170\nvalue = [45, 221]\nclass = Student", fillcolor="#61b1ea"] ;
7 -> 8 ;
9 [label="(); <= 0.064\ngini = 0.257\nsamples = 166\nvalue = [39, 219]\nclass = Student", fillcolor="#5caeea"] ;
8 -> 9 ;
10 [label=" i++ <= 0.037\ngini = 0.238\nsamples = 164\nvalue = [35, 219]\nclass = Student", fillcolor="#59ade9"] ;
9 -> 10 ;
11 [label="ent <= 0.069\ngini = 0.198\nsamples = 157\nvalue = [27, 216]\nclass = Student", fillcolor="#52a9e8"] ;
10 -> 11 ;
12 [label=" da <= 0.105\ngini = 0.162\nsamples = 153\nvalue = [21, 216]\nclass = Student", fillcolor="#4ca7e8"] ;
11 -> 12 ;
13 [label="hi <= 0.054\ngini = 0.133\nsamples = 145\nvalue = [16, 208]\nclass = Student", fillcolor="#48a5e7"] ;
12 -> 13 ;
14 [label="0  <= 0.1\ngini = 0.074\nsamples = 135\nvalue = [8, 200]\nclass = Student", fillcolor="#41a1e6"] ;
13 -> 14 ;
15 [label="gini = 0.048\nsamples = 132\nvalue = [5, 199]\nclass = Student", fillcolor="#3e9fe6"] ;
14 -> 15 ;
16 [label="gini = 0.375\nsamples = 3\nvalue = [3, 1]\nclass = LLM", fillcolor="#eeab7b"] ;
14 -> 16 ;
17 [label="1] <= 0.043\ngini = 0.5\nsamples = 10\nvalue = [8, 8]\nclass = LLM", fillcolor="#ffffff"] ;
13 -> 17 ;
18 [label="gini = 0.0\nsamples = 2\nvalue = [5, 0]\nclass = LLM", fillcolor="#e58139"] ;
17 -> 18 ;
19 [label="gini = 0.397\nsamples = 8\nvalue = [3, 8]\nclass = Student", fillcolor="#83c2ef"] ;
17 -> 19 ;
20 [label="ing  <= 0.046\ngini = 0.473\nsamples = 8\nvalue = [5, 8]\nclass = Student", fillcolor="#b5daf5"] ;
12 -> 20 ;
21 [label="gini = 0.0\nsamples = 5\nvalue = [0, 8]\nclass = Student", fillcolor="#399de5"] ;
20 -> 21 ;
22 [label="gini = 0.0\nsamples = 3\nvalue = [5, 0]\nclass = LLM", fillcolor="#e58139"] ;
20 -> 22 ;
23 [label="gini = 0.0\nsamples = 4\nvalue = [6, 0]\nclass = LLM", fillcolor="#e58139"] ;
11 -> 23 ;
24 [label="s)  <= 0.026\ngini = 0.397\nsamples = 7\nvalue = [8, 3]\nclass = LLM", fillcolor="#efb083"] ;
10 -> 24 ;
25 [label="gini = 0.0\nsamples = 5\nvalue = [8, 0]\nclass = LLM", fillcolor="#e58139"] ;
24 -> 25 ;
26 [label="gini = 0.0\nsamples = 2\nvalue = [0, 3]\nclass = Student", fillcolor="#399de5"] ;
24 -> 26 ;
27 [label="gini = 0.0\nsamples = 2\nvalue = [4, 0]\nclass = LLM", fillcolor="#e58139"] ;
9 -> 27 ;
28 [label="gini = 0.375\nsamples = 4\nvalue = [6, 2]\nclass = LLM", fillcolor="#eeab7b"] ;
8 -> 28 ;
29 [label="tri <= 0.024\ngini = 0.475\nsamples = 50\nvalue = [31, 49]\nclass = Student", fillcolor="#b6dbf5"] ;
7 -> 29 ;
30 [label=" / <= 0.009\ngini = 0.285\nsamples = 19\nvalue = [24, 5]\nclass = LLM", fillcolor="#ea9b62"] ;
29 -> 30 ;
31 [label="gini = 0.0\nsamples = 16\nvalue = [22, 0]\nclass = LLM", fillcolor="#e58139"] ;
30 -> 31 ;
32 [label="gini = 0.408\nsamples = 3\nvalue = [2, 5]\nclass = Student", fillcolor="#88c4ef"] ;
30 -> 32 ;
33 [label=" retur <= 0.007\ngini = 0.237\nsamples = 31\nvalue = [7.0, 44.0]\nclass = Student", fillcolor="#58ade9"] ;
29 -> 33 ;
34 [label="gini = 0.278\nsamples = 4\nvalue = [5, 1]\nclass = LLM", fillcolor="#ea9a61"] ;
33 -> 34 ;
35 [label="gth( <= 0.059\ngini = 0.085\nsamples = 27\nvalue = [2, 43]\nclass = Student", fillcolor="#42a2e6"] ;
33 -> 35 ;
36 [label="gini = 0.0\nsamples = 24\nvalue = [0, 41]\nclass = Student", fillcolor="#399de5"] ;
35 -> 36 ;
37 [label="gini = 0.5\nsamples = 3\nvalue = [2, 2]\nclass = LLM", fillcolor="#ffffff"] ;
35 -> 37 ;
38 [label="nt <= 0.009\ngini = 0.471\nsamples = 20\nvalue = [18, 11]\nclass = LLM", fillcolor="#f5ceb2"] ;
6 -> 38 ;
39 [label="gini = 0.0\nsamples = 6\nvalue = [0, 9]\nclass = Student", fillcolor="#399de5"] ;
38 -> 39 ;
40 [label="an <= 0.068\ngini = 0.18\nsamples = 14\nvalue = [18, 2]\nclass = LLM", fillcolor="#e88f4f"] ;
38 -> 40 ;
41 [label="gini = 0.0\nsamples = 12\nvalue = [18, 0]\nclass = LLM", fillcolor="#e58139"] ;
40 -> 41 ;
42 [label="gini = 0.0\nsamples = 2\nvalue = [0, 2]\nclass = Student", fillcolor="#399de5"] ;
40 -> 42 ;
43 [label="go <= 0.055\ngini = 0.375\nsamples = 32\nvalue = [33, 11]\nclass = LLM", fillcolor="#eeab7b"] ;
5 -> 43 ;
44 [label="oolean <= 0.029\ngini = 0.239\nsamples = 26\nvalue = [31, 5]\nclass = LLM", fillcolor="#e99559"] ;
43 -> 44 ;
45 [label="== <= 0.02\ngini = 0.114\nsamples = 24\nvalue = [31, 2]\nclass = LLM", fillcolor="#e78946"] ;
44 -> 45 ;
46 [label="gini = 0.0\nsamples = 20\nvalue = [29, 0]\nclass = LLM", fillcolor="#e58139"] ;
45 -> 46 ;
47 [label="gini = 0.5\nsamples = 4\nvalue = [2, 2]\nclass = LLM", fillcolor="#ffffff"] ;
45 -> 47 ;
48 [label="gini = 0.0\nsamples = 2\nvalue = [0, 3]\nclass = Student", fillcolor="#399de5"] ;
44 -> 48 ;
49 [label=" + <= 0.008\ngini = 0.375\nsamples = 6\nvalue = [2, 6]\nclass = Student", fillcolor="#7bbeee"] ;
43 -> 49 ;
50 [label="gini = 0.0\nsamples = 2\nvalue = [2, 0]\nclass = LLM", fillcolor="#e58139"] ;
49 -> 50 ;
51 [label="gini = 0.0\nsamples = 4\nvalue = [0, 6]\nclass = Student", fillcolor="#399de5"] ;
49 -> 51 ;
52 [label="appen <= 0.089\ngini = 0.127\nsamples = 81\nvalue = [8, 109]\nclass = Student", fillcolor="#48a4e7"] ;
4 -> 52 ;
53 [label="wer <= 0.11\ngini = 0.099\nsamples = 79\nvalue = [6, 109]\nclass = Student", fillcolor="#44a2e6"] ;
52 -> 53 ;
54 [label="ac <= 0.047\ngini = 0.07\nsamples = 76\nvalue = [4, 106]\nclass = Student", fillcolor="#40a1e6"] ;
53 -> 54 ;
55 [label="h()  <= 0.065\ngini = 0.054\nsamples = 74\nvalue = [3, 105]\nclass = Student", fillcolor="#3fa0e6"] ;
54 -> 55 ;
56 [label="t;  <= 0.033\ngini = 0.019\nsamples = 70\nvalue = [1, 101]\nclass = Student", fillcolor="#3b9ee5"] ;
55 -> 56 ;
57 [label="gini = 0.0\nsamples = 65\nvalue = [0, 95]\nclass = Student", fillcolor="#399de5"] ;
56 -> 57 ;
58 [label="arat( <= 0.022\ngini = 0.245\nsamples = 5\nvalue = [1, 6]\nclass = Student", fillcolor="#5aade9"] ;
56 -> 58 ;
59 [label="gini = 0.5\nsamples = 2\nvalue = [1, 1]\nclass = LLM", fillcolor="#ffffff"] ;
58 -> 59 ;
60 [label="gini = 0.0\nsamples = 3\nvalue = [0, 5]\nclass = Student", fillcolor="#399de5"] ;
58 -> 60 ;
61 [label="gini = 0.444\nsamples = 4\nvalue = [2, 4]\nclass = Student", fillcolor="#9ccef2"] ;
55 -> 61 ;
62 [label="gini = 0.5\nsamples = 2\nvalue = [1, 1]\nclass = LLM", fillcolor="#ffffff"] ;
54 -> 62 ;
63 [label="gini = 0.48\nsamples = 3\nvalue = [2, 3]\nclass = Student", fillcolor="#bddef6"] ;
53 -> 63 ;
64 [label="gini = 0.0\nsamples = 2\nvalue = [2, 0]\nclass = LLM", fillcolor="#e58139"] ;
52 -> 64 ;
65 [label=" true; <= 0.043\ngini = 0.5\nsamples = 1417\nvalue = [1087, 1110]\nclass = Student", fillcolor="#fbfdfe"] ;
3 -> 65 ;
66 [label="boo <= 0.032\ngini = 0.497\nsamples = 1199\nvalue = [1005, 854]\nclass = LLM", fillcolor="#fbece1"] ;
65 -> 66 ;
67 [label=" //  <= 0.043\ngini = 0.499\nsamples = 939\nvalue = [693, 751]\nclass = Student", fillcolor="#f0f7fd"] ;
66 -> 67 ;
68 [label=" == <= 0.125\ngini = 0.496\nsamples = 891\nvalue = [621.0, 751.0]\nclass = Student", fillcolor="#ddeefa"] ;
67 -> 68 ;
69 [label="-  <= 0.017\ngini = 0.487\nsamples = 799\nvalue = [505, 700]\nclass = Student", fillcolor="#c8e4f8"] ;
68 -> 69 ;
70 [label="c)  <= 0.064\ngini = 0.464\nsamples = 588\nvalue = [323, 559]\nclass = Student", fillcolor="#abd6f4"] ;
69 -> 70 ;
71 [label="first <= 0.074\ngini = 0.477\nsamples = 542\nvalue = [319, 492]\nclass = Student", fillcolor="#b9ddf6"] ;
70 -> 71 ;
72 [label=" b,  <= 0.062\ngini = 0.46\nsamples = 497\nvalue = [269.0, 482.0]\nclass = Student", fillcolor="#a8d4f4"] ;
71 -> 72 ;
73 [label=" | <= 0.02\ngini = 0.452\nsamples = 485\nvalue = [252.0, 478.0]\nclass = Student", fillcolor="#a1d1f3"] ;
72 -> 73 ;
74 [label="int[ <= 0.054\ngini = 0.416\nsamples = 369\nvalue = [163, 389]\nclass = Student", fillcolor="#8cc6f0"] ;
73 -> 74 ;
75 [label="ublic  <= 0.002\ngini = 0.373\nsamples = 271\nvalue = [101, 307]\nclass = Student", fillcolor="#7abdee"] ;
74 -> 75 ;
76 [label="gini = 0.0\nsamples = 5\nvalue = [7, 0]\nclass = LLM", fillcolor="#e58139"] ;
75 -> 76 ;
77 [label="gini = 0.359\nsamples = 266\nvalue = [94, 307]\nclass = Student", fillcolor="#76bbed"] ;
75 -> 77 ;
78 [label=" re <= 0.023\ngini = 0.49\nsamples = 98\nvalue = [62, 82]\nclass = Student", fillcolor="#cfe7f9"] ;
74 -> 78 ;
79 [label="gini = 0.334\nsamples = 37\nvalue = [11, 41]\nclass = Student", fillcolor="#6eb7ec"] ;
78 -> 79 ;
80 [label="gini = 0.494\nsamples = 61\nvalue = [51, 41]\nclass = LLM", fillcolor="#fae6d8"] ;
78 -> 80 ;
81 [label=" 0;  <= 0.03\ngini = 0.5\nsamples = 116\nvalue = [89, 89]\nclass = LLM", fillcolor="#ffffff"] ;
73 -> 81 ;
82 [label=" n) <= 0.043\ngini = 0.483\nsamples = 101\nvalue = [89, 61]\nclass = LLM", fillcolor="#f7d7c1"] ;
81 -> 82 ;
83 [label="gini = 0.468\nsamples = 96\nvalue = [89.0, 53.0]\nclass = LLM", fillcolor="#f4ccaf"] ;
82 -> 83 ;
84 [label="gini = 0.0\nsamples = 5\nvalue = [0, 8]\nclass = Student", fillcolor="#399de5"] ;
82 -> 84 ;
85 [label="gini = 0.0\nsamples = 15\nvalue = [0, 28]\nclass = Student", fillcolor="#399de5"] ;
81 -> 85 ;
86 [label=" ==  <= 0.105\ngini = 0.308\nsamples = 12\nvalue = [17, 4]\nclass = LLM", fillcolor="#eb9f68"] ;
72 -> 86 ;
87 [label="gini = 0.32\nsamples = 3\nvalue = [1, 4]\nclass = Student", fillcolor="#6ab6ec"] ;
86 -> 87 ;
88 [label="gini = 0.0\nsamples = 9\nvalue = [16, 0]\nclass = LLM", fillcolor="#e58139"] ;
86 -> 88 ;
89 [label="fi <= 0.127\ngini = 0.278\nsamples = 45\nvalue = [50, 10]\nclass = LLM", fillcolor="#ea9a61"] ;
71 -> 89 ;
90 [label="at <= 0.043\ngini = 0.165\nsamples = 42\nvalue = [50, 5]\nclass = LLM", fillcolor="#e88e4d"] ;
89 -> 90 ;
91 [label=");  <= 0.063\ngini = 0.038\nsamples = 38\nvalue = [50, 1]\nclass = LLM", fillcolor="#e6843d"] ;
90 -> 91 ;
92 [label="gini = 0.0\nsamples = 34\nvalue = [45, 0]\nclass = LLM", fillcolor="#e58139"] ;
91 -> 92 ;
93 [label="gini = 0.278\nsamples = 4\nvalue = [5, 1]\nclass = LLM", fillcolor="#ea9a61"] ;
91 -> 93 ;
94 [label="gini = 0.0\nsamples = 4\nvalue = [0, 4]\nclass = Student", fillcolor="#399de5"] ;
90 -> 94 ;
95 [label="gini = 0.0\nsamples = 3\nvalue = [0, 5]\nclass = Student", fillcolor="#399de5"] ;
89 -> 95 ;
96 [label="|| <= 0.046\ngini = 0.106\nsamples = 46\nvalue = [4, 67]\nclass = Student", fillcolor="#45a3e7"] ;
70 -> 96 ;
97 [label="== <= 0.168\ngini = 0.062\nsamples = 39\nvalue = [2, 60]\nclass = Student", fillcolor="#40a0e6"] ;
96 -> 97 ;
98 [label="nt <= 0.071\ngini = 0.033\nsamples = 37\nvalue = [1, 59]\nclass = Student", fillcolor="#3c9fe5"] ;
97 -> 98 ;
99 [label=" publi <= 0.015\ngini = 0.133\nsamples = 8\nvalue = [1, 13]\nclass = Student", fillcolor="#48a5e7"] ;
98 -> 99 ;
100 [label="gini = 0.0\nsamples = 6\nvalue = [0, 12]\nclass = Student", fillcolor="#399de5"] ;
99 -> 100 ;
101 [label="gini = 0.5\nsamples = 2\nvalue = [1, 1]\nclass = LLM", fillcolor="#ffffff"] ;
99 -> 101 ;
102 [label="gini = 0.0\nsamples = 29\nvalue = [0, 46]\nclass = Student", fillcolor="#399de5"] ;
98 -> 102 ;
103 [label="gini = 0.5\nsamples = 2\nvalue = [1, 1]\nclass = LLM", fillcolor="#ffffff"] ;
97 -> 103 ;
104 [label="0; <= 0.083\ngini = 0.346\nsamples = 7\nvalue = [2, 7]\nclass = Student", fillcolor="#72b9ec"] ;
96 -> 104 ;
105 [label="gini = 0.444\nsamples = 2\nvalue = [2, 1]\nclass = LLM", fillcolor="#f2c09c"] ;
104 -> 105 ;
106 [label="gini = 0.0\nsamples = 5\nvalue = [0, 6]\nclass = Student", fillcolor="#399de5"] ;
104 -> 106 ;
107 [label=" =  <= 0.049\ngini = 0.492\nsamples = 211\nvalue = [182.0, 141.0]\nclass = LLM", fillcolor="#f9e3d2"] ;
69 -> 107 ;
108 [label="e  <= 0.017\ngini = 0.445\nsamples = 165\nvalue = [169, 85]\nclass = LLM", fillcolor="#f2c09d"] ;
107 -> 108 ;
109 [label="ength( <= 0.087\ngini = 0.273\nsamples = 104\nvalue = [128, 25]\nclass = LLM", fillcolor="#ea9a60"] ;
108 -> 109 ;
110 [label="ke <= 0.04\ngini = 0.209\nsamples = 98\nvalue = [126, 17]\nclass = LLM", fillcolor="#e99254"] ;
109 -> 110 ;
111 [label="cha <= 0.124\ngini = 0.19\nsamples = 96\nvalue = [126, 15]\nclass = LLM", fillcolor="#e89051"] ;
110 -> 111 ;
112 [label=" %  <= 0.01\ngini = 0.17\nsamples = 94\nvalue = [126, 13]\nclass = LLM", fillcolor="#e88e4d"] ;
111 -> 112 ;
113 [label="gini = 0.127\nsamples = 87\nvalue = [123, 9]\nclass = LLM", fillcolor="#e78a47"] ;
112 -> 113 ;
114 [label="gini = 0.49\nsamples = 7\nvalue = [3, 4]\nclass = Student", fillcolor="#cee6f8"] ;
112 -> 114 ;
115 [label="gini = 0.0\nsamples = 2\nvalue = [0, 2]\nclass = Student", fillcolor="#399de5"] ;
111 -> 115 ;
116 [label="gini = 0.0\nsamples = 2\nvalue = [0, 2]\nclass = Student", fillcolor="#399de5"] ;
110 -> 116 ;
117 [label=" ret <= 0.022\ngini = 0.32\nsamples = 6\nvalue = [2, 8]\nclass = Student", fillcolor="#6ab6ec"] ;
109 -> 117 ;
118 [label="gini = 0.0\nsamples = 3\nvalue = [0, 7]\nclass = Student", fillcolor="#399de5"] ;
117 -> 118 ;
119 [label="gini = 0.444\nsamples = 3\nvalue = [2, 1]\nclass = LLM", fillcolor="#f2c09c"] ;
117 -> 119 ;
120 [label="d  <= 0.074\ngini = 0.482\nsamples = 61\nvalue = [41, 60]\nclass = Student", fillcolor="#c0e0f7"] ;
108 -> 120 ;
121 [label="r.le <= 0.083\ngini = 0.387\nsamples = 49\nvalue = [21, 59]\nclass = Student", fillcolor="#7fc0ee"] ;
120 -> 121 ;
122 [label="rat(i <= 0.026\ngini = 0.296\nsamples = 46\nvalue = [13, 59]\nclass = Student", fillcolor="#65b3eb"] ;
121 -> 122 ;
123 [label="c  <= 0.006\ngini = 0.23\nsamples = 44\nvalue = [9, 59]\nclass = Student", fillcolor="#57ace9"] ;
122 -> 123 ;
124 [label="gini = 0.5\nsamples = 2\nvalue = [2, 2]\nclass = LLM", fillcolor="#ffffff"] ;
123 -> 124 ;
125 [label="gini = 0.195\nsamples = 42\nvalue = [7, 57]\nclass = Student", fillcolor="#51a9e8"] ;
123 -> 125 ;
126 [label="gini = 0.0\nsamples = 2\nvalue = [4, 0]\nclass = LLM", fillcolor="#e58139"] ;
122 -> 126 ;
127 [label="gini = 0.0\nsamples = 3\nvalue = [8, 0]\nclass = LLM", fillcolor="#e58139"] ;
121 -> 127 ;
128 [label="0)  <= 0.035\ngini = 0.091\nsamples = 12\nvalue = [20, 1]\nclass = LLM", fillcolor="#e68743"] ;
120 -> 128 ;
129 [label="gini = 0.444\nsamples = 2\nvalue = [2, 1]\nclass = LLM", fillcolor="#f2c09c"] ;
128 -> 129 ;
130 [label="gini = 0.0\nsamples = 10\nvalue = [18, 0]\nclass = LLM", fillcolor="#e58139"] ;
128 -> 130 ;
131 [label="int[] <= 0.021\ngini = 0.306\nsamples = 46\nvalue = [13, 56]\nclass = Student", fillcolor="#67b4eb"] ;
107 -> 131 ;
132 [label="gini = 0.0\nsamples = 25\nvalue = [0, 41]\nclass = Student", fillcolor="#399de5"] ;
131 -> 132 ;
133 [label="(int  <= 0.022\ngini = 0.497\nsamples = 21\nvalue = [13, 15]\nclass = Student", fillcolor="#e5f2fc"] ;
131 -> 133 ;
134 [label="urn  <= 0.015\ngini = 0.432\nsamples = 13\nvalue = [13, 6]\nclass = LLM", fillcolor="#f1bb94"] ;
133 -> 134 ;
135 [label="gini = 0.0\nsamples = 3\nvalue = [0, 4]\nclass = Student", fillcolor="#399de5"] ;
134 -> 135 ;
136 [label="nums.l <= 0.096\ngini = 0.231\nsamples = 10\nvalue = [13, 2]\nclass = LLM", fillcolor="#e99457"] ;
134 -> 136 ;
137 [label="gini = 0.0\nsamples = 8\nvalue = [13, 0]\nclass = LLM", fillcolor="#e58139"] ;
136 -> 137 ;
138 [label="gini = 0.0\nsamples = 2\nvalue = [0, 2]\nclass = Student", fillcolor="#399de5"] ;
136 -> 138 ;
139 [label="gini = 0.0\nsamples = 8\nvalue = [0, 9]\nclass = Student", fillcolor="#399de5"] ;
133 -> 139 ;
140 [label="t(i <= 0.059\ngini = 0.424\nsamples = 92\nvalue = [116, 51]\nclass = LLM", fillcolor="#f0b890"] ;
68 -> 140 ;
141 [label="ls <= 0.058\ngini = 0.372\nsamples = 84\nvalue = [116, 38]\nclass = LLM", fillcolor="#eeaa7a"] ;
140 -> 141 ;
142 [label="tur <= 0.065\ngini = 0.452\nsamples = 19\nvalue = [10, 19]\nclass = Student", fillcolor="#a1d1f3"] ;
141 -> 142 ;
143 [label="gini = 0.0\nsamples = 6\nvalue = [0, 10]\nclass = Student", fillcolor="#399de5"] ;
142 -> 143 ;
144 [label="2) <= 0.047\ngini = 0.499\nsamples = 13\nvalue = [10, 9]\nclass = LLM", fillcolor="#fcf2eb"] ;
142 -> 144 ;
145 [label="ubli <= 0.016\ngini = 0.408\nsamples = 10\nvalue = [10, 4]\nclass = LLM", fillcolor="#efb388"] ;
144 -> 145 ;
146 [label="gini = 0.0\nsamples = 2\nvalue = [0, 3]\nclass = Student", fillcolor="#399de5"] ;
145 -> 146 ;
147 [label=" i <= 0.123\ngini = 0.165\nsamples = 8\nvalue = [10, 1]\nclass = LLM", fillcolor="#e88e4d"] ;
145 -> 147 ;
148 [label="gini = 0.0\nsamples = 4\nvalue = [6, 0]\nclass = LLM", fillcolor="#e58139"] ;
147 -> 148 ;
149 [label="gini = 0.32\nsamples = 4\nvalue = [4, 1]\nclass = LLM", fillcolor="#eca06a"] ;
147 -> 149 ;
150 [label="gini = 0.0\nsamples = 3\nvalue = [0, 5]\nclass = Student", fillcolor="#399de5"] ;
144 -> 150 ;
151 [label=" retu <= 0.08\ngini = 0.258\nsamples = 65\nvalue = [106, 19]\nclass = LLM", fillcolor="#ea985c"] ;
141 -> 151 ;
152 [label=" c)  <= 0.103\ngini = 0.199\nsamples = 61\nvalue = [103, 13]\nclass = LLM", fillcolor="#e89152"] ;
151 -> 152 ;
153 [label=" == <= 0.143\ngini = 0.498\nsamples = 7\nvalue = [8, 7]\nclass = LLM", fillcolor="#fcefe6"] ;
152 -> 153 ;
154 [label="gini = 0.0\nsamples = 4\nvalue = [7, 0]\nclass = LLM", fillcolor="#e58139"] ;
153 -> 154 ;
155 [label="gini = 0.219\nsamples = 3\nvalue = [1, 7]\nclass = Student", fillcolor="#55abe9"] ;
153 -> 155 ;
156 [label="a  <= 0.138\ngini = 0.112\nsamples = 54\nvalue = [95, 6]\nclass = LLM", fillcolor="#e78946"] ;
152 -> 156 ;
157 [label=" ret <= 0.071\ngini = 0.36\nsamples = 6\nvalue = [13, 4]\nclass = LLM", fillcolor="#eda876"] ;
156 -> 157 ;
158 [label="gini = 0.0\nsamples = 4\nvalue = [8, 0]\nclass = LLM", fillcolor="#e58139"] ;
157 -> 158 ;
159 [label="gini = 0.494\nsamples = 2\nvalue = [5, 4]\nclass = LLM", fillcolor="#fae6d7"] ;
157 -> 159 ;
160 [label="pub <= 0.016\ngini = 0.046\nsamples = 48\nvalue = [82, 2]\nclass = LLM", fillcolor="#e6843e"] ;
156 -> 160 ;
161 [label="gini = 0.444\nsamples = 2\nvalue = [2, 1]\nclass = LLM", fillcolor="#f2c09c"] ;
160 -> 161 ;
162 [label=" (a <= 0.147\ngini = 0.024\nsamples = 46\nvalue = [80, 1]\nclass = LLM", fillcolor="#e5833b"] ;
160 -> 162 ;
163 [label="gini = 0.0\nsamples = 38\nvalue = [65, 0]\nclass = LLM", fillcolor="#e58139"] ;
162 -> 163 ;
164 [label="gini = 0.117\nsamples = 8\nvalue = [15, 1]\nclass = LLM", fillcolor="#e78946"] ;
162 -> 164 ;
165 [label="gini = 0.444\nsamples = 4\nvalue = [3, 6]\nclass = Student", fillcolor="#9ccef2"] ;
151 -> 165 ;
166 [label="gini = 0.0\nsamples = 8\nvalue = [0, 13]\nclass = Student", fillcolor="#399de5"] ;
140 -> 166 ;
167 [label="gini = 0.0\nsamples = 48\nvalue = [72, 0]\nclass = LLM", fillcolor="#e58139"] ;
67 -> 167 ;
168 [label="public <= 0.012\ngini = 0.373\nsamples = 260\nvalue = [312, 103]\nclass = LLM", fillcolor="#eeab7a"] ;
66 -> 168 ;
169 [label="t  <= 0.026\ngini = 0.287\nsamples = 15\nvalue = [4, 19]\nclass = Student", fillcolor="#63b2ea"] ;
168 -> 169 ;
170 [label="gini = 0.0\nsamples = 12\nvalue = [0, 19]\nclass = Student", fillcolor="#399de5"] ;
169 -> 170 ;
171 [label="gini = 0.0\nsamples = 3\nvalue = [4, 0]\nclass = LLM", fillcolor="#e58139"] ;
169 -> 171 ;
172 [label=" e <= 0.05\ngini = 0.337\nsamples = 245\nvalue = [308, 84]\nclass = LLM", fillcolor="#eca36f"] ;
168 -> 172 ;
173 [label="te <= 0.172\ngini = 0.309\nsamples = 235\nvalue = [305, 72]\nclass = LLM", fillcolor="#eb9f68"] ;
172 -> 173 ;
174 [label="ub <= 0.026\ngini = 0.287\nsamples = 231\nvalue = [305, 64]\nclass = LLM", fillcolor="#ea9b63"] ;
173 -> 174 ;
175 [label=" {  <= 0.016\ngini = 0.244\nsamples = 218\nvalue = [301, 50]\nclass = LLM", fillcolor="#e9965a"] ;
174 -> 175 ;
176 [label="ay <= 0.021\ngini = 0.397\nsamples = 14\nvalue = [6, 16]\nclass = Student", fillcolor="#83c2ef"] ;
175 -> 176 ;
177 [label="blic  <= 0.016\ngini = 0.111\nsamples = 11\nvalue = [1, 16]\nclass = Student", fillcolor="#45a3e7"] ;
176 -> 177 ;
178 [label="gini = 0.0\nsamples = 9\nvalue = [0, 15]\nclass = Student", fillcolor="#399de5"] ;
177 -> 178 ;
179 [label="gini = 0.5\nsamples = 2\nvalue = [1, 1]\nclass = LLM", fillcolor="#ffffff"] ;
177 -> 179 ;
180 [label="gini = 0.0\nsamples = 3\nvalue = [5, 0]\nclass = LLM", fillcolor="#e58139"] ;
176 -> 180 ;
181 [label="for( <= 0.057\ngini = 0.185\nsamples = 204\nvalue = [295, 34]\nclass = LLM", fillcolor="#e89050"] ;
175 -> 181 ;
182 [label=" =  <= 0.059\ngini = 0.145\nsamples = 199\nvalue = [292, 25]\nclass = LLM", fillcolor="#e78c4a"] ;
181 -> 182 ;
183 [label="publ <= 0.018\ngini = 0.104\nsamples = 193\nvalue = [292, 17]\nclass = LLM", fillcolor="#e78845"] ;
182 -> 183 ;
184 [label="gini = 0.0\nsamples = 100\nvalue = [158, 0]\nclass = LLM", fillcolor="#e58139"] ;
183 -> 184 ;
185 [label="lean  <= 0.087\ngini = 0.2\nsamples = 93\nvalue = [134, 17]\nclass = LLM", fillcolor="#e89152"] ;
183 -> 185 ;
186 [label="gini = 0.154\nsamples = 88\nvalue = [131, 12]\nclass = LLM", fillcolor="#e78d4b"] ;
185 -> 186 ;
187 [label="gini = 0.469\nsamples = 5\nvalue = [3, 5]\nclass = Student", fillcolor="#b0d8f5"] ;
185 -> 187 ;
188 [label="gini = 0.0\nsamples = 6\nvalue = [0, 8]\nclass = Student", fillcolor="#399de5"] ;
182 -> 188 ;
189 [label="ub <= 0.018\ngini = 0.375\nsamples = 5\nvalue = [3, 9]\nclass = Student", fillcolor="#7bbeee"] ;
181 -> 189 ;
190 [label="gini = 0.0\nsamples = 2\nvalue = [0, 6]\nclass = Student", fillcolor="#399de5"] ;
189 -> 190 ;
191 [label="gini = 0.5\nsamples = 3\nvalue = [3, 3]\nclass = LLM", fillcolor="#ffffff"] ;
189 -> 191 ;
192 [label="(str <= 0.083\ngini = 0.346\nsamples = 13\nvalue = [4, 14]\nclass = Student", fillcolor="#72b9ec"] ;
174 -> 192 ;
193 [label="gini = 0.0\nsamples = 10\nvalue = [0, 14]\nclass = Student", fillcolor="#399de5"] ;
192 -> 193 ;
194 [label="gini = 0.0\nsamples = 3\nvalue = [4, 0]\nclass = LLM", fillcolor="#e58139"] ;
192 -> 194 ;
195 [label="gini = 0.0\nsamples = 4\nvalue = [0, 8]\nclass = Student", fillcolor="#399de5"] ;
173 -> 195 ;
196 [label=" <  <= 0.015\ngini = 0.32\nsamples = 10\nvalue = [3, 12]\nclass = Student", fillcolor="#6ab6ec"] ;
172 -> 196 ;
197 [label="gini = 0.0\nsamples = 8\nvalue = [0, 12]\nclass = Student", fillcolor="#399de5"] ;
196 -> 197 ;
198 [label="gini = 0.0\nsamples = 2\nvalue = [3, 0]\nclass = LLM", fillcolor="#e58139"] ;
196 -> 198 ;
199 [label="i  <= 0.034\ngini = 0.367\nsamples = 218\nvalue = [82, 256]\nclass = Student", fillcolor="#78bced"] ;
65 -> 199 ;
200 [label="lean  <= 0.041\ngini = 0.206\nsamples = 148\nvalue = [27, 205]\nclass = Student", fillcolor="#53aae8"] ;
199 -> 200 ;
201 [label="turn  <= 0.059\ngini = 0.414\nsamples = 56\nvalue = [24, 58]\nclass = Student", fillcolor="#8bc6f0"] ;
200 -> 201 ;
202 [label="oole <= 0.041\ngini = 0.225\nsamples = 40\nvalue = [8, 54]\nclass = Student", fillcolor="#56ace9"] ;
201 -> 202 ;
203 [label=" ==  <= 0.147\ngini = 0.133\nsamples = 36\nvalue = [4, 52]\nclass = Student", fillcolor="#48a5e7"] ;
202 -> 203 ;
204 [label="bo <= 0.043\ngini = 0.071\nsamples = 34\nvalue = [2, 52]\nclass = Student", fillcolor="#41a1e6"] ;
203 -> 204 ;
205 [label="gini = 0.0\nsamples = 32\nvalue = [0, 51]\nclass = Student", fillcolor="#399de5"] ;
204 -> 205 ;
206 [label="gini = 0.444\nsamples = 2\nvalue = [2, 1]\nclass = LLM", fillcolor="#f2c09c"] ;
204 -> 206 ;
207 [label="gini = 0.0\nsamples = 2\nvalue = [2, 0]\nclass = LLM", fillcolor="#e58139"] ;
203 -> 207 ;
208 [label="gini = 0.444\nsamples = 4\nvalue = [4, 2]\nclass = LLM", fillcolor="#f2c09c"] ;
202 -> 208 ;
209 [label="d( <= 0.011\ngini = 0.32\nsamples = 16\nvalue = [16, 4]\nclass = LLM", fillcolor="#eca06a"] ;
201 -> 209 ;
210 [label="lean <= 0.034\ngini = 0.111\nsamples = 13\nvalue = [16, 1]\nclass = LLM", fillcolor="#e78945"] ;
209 -> 210 ;
211 [label="gini = 0.444\nsamples = 2\nvalue = [2, 1]\nclass = LLM", fillcolor="#f2c09c"] ;
210 -> 211 ;
212 [label="gini = 0.0\nsamples = 11\nvalue = [14, 0]\nclass = LLM", fillcolor="#e58139"] ;
210 -> 212 ;
213 [label="gini = 0.0\nsamples = 3\nvalue = [0, 3]\nclass = Student", fillcolor="#399de5"] ;
209 -> 213 ;
214 [label="se;  <= 0.091\ngini = 0.039\nsamples = 92\nvalue = [3, 147]\nclass = Student", fillcolor="#3d9fe6"] ;
200 -> 214 ;
215 [label=" }  <= 0.11\ngini = 0.014\nsamples = 90\nvalue = [1, 145]\nclass = Student", fillcolor="#3a9ee5"] ;
214 -> 215 ;
216 [label="gini = 0.0\nsamples = 87\nvalue = [0, 141]\nclass = Student", fillcolor="#399de5"] ;
215 -> 216 ;
217 [label="gini = 0.32\nsamples = 3\nvalue = [1, 4]\nclass = Student", fillcolor="#6ab6ec"] ;
215 -> 217 ;
218 [label="gini = 0.5\nsamples = 2\nvalue = [2, 2]\nclass = LLM", fillcolor="#ffffff"] ;
214 -> 218 ;
219 [label="et <= 0.026\ngini = 0.499\nsamples = 70\nvalue = [55, 51]\nclass = LLM", fillcolor="#fdf6f1"] ;
199 -> 219 ;
220 [label="gini = 0.0\nsamples = 8\nvalue = [0, 15]\nclass = Student", fillcolor="#399de5"] ;
219 -> 220 ;
221 [label="ing <= 0.028\ngini = 0.478\nsamples = 62\nvalue = [55, 36]\nclass = LLM", fillcolor="#f6d3bb"] ;
219 -> 221 ;
222 [label="(i <= 0.046\ngini = 0.429\nsamples = 51\nvalue = [53, 24]\nclass = LLM", fillcolor="#f1ba93"] ;
221 -> 222 ;
223 [label="==  <= 0.009\ngini = 0.311\nsamples = 38\nvalue = [46, 11]\nclass = LLM", fillcolor="#eb9f68"] ;
222 -> 223 ;
224 [label="gini = 0.375\nsamples = 3\nvalue = [1, 3]\nclass = Student", fillcolor="#7bbeee"] ;
223 -> 224 ;
225 [label="(int  <= 0.011\ngini = 0.256\nsamples = 35\nvalue = [45, 8]\nclass = LLM", fillcolor="#ea975c"] ;
223 -> 225 ;
226 [label="gini = 0.0\nsamples = 2\nvalue = [0, 4]\nclass = Student", fillcolor="#399de5"] ;
225 -> 226 ;
227 [label=" 0; <= 0.018\ngini = 0.15\nsamples = 33\nvalue = [45.0, 4.0]\nclass = LLM", fillcolor="#e78c4b"] ;
225 -> 227 ;
228 [label="boole <= 0.023\ngini = 0.469\nsamples = 5\nvalue = [5, 3]\nclass = LLM", fillcolor="#f5cdb0"] ;
227 -> 228 ;
229 [label="gini = 0.0\nsamples = 3\nvalue = [5, 0]\nclass = LLM", fillcolor="#e58139"] ;
228 -> 229 ;
230 [label="gini = 0.0\nsamples = 2\nvalue = [0, 3]\nclass = Student", fillcolor="#399de5"] ;
228 -> 230 ;
231 [label="-  <= 0.013\ngini = 0.048\nsamples = 28\nvalue = [40, 1]\nclass = LLM", fillcolor="#e6843e"] ;
227 -> 231 ;
232 [label="gini = 0.444\nsamples = 2\nvalue = [2, 1]\nclass = LLM", fillcolor="#f2c09c"] ;
231 -> 232 ;
233 [label="gini = 0.0\nsamples = 26\nvalue = [38, 0]\nclass = LLM", fillcolor="#e58139"] ;
231 -> 233 ;
234 [label="ms <= 0.184\ngini = 0.455\nsamples = 13\nvalue = [7, 13]\nclass = Student", fillcolor="#a4d2f3"] ;
222 -> 234 ;
235 [label=".lengt <= 0.036\ngini = 0.245\nsamples = 9\nvalue = [2, 12]\nclass = Student", fillcolor="#5aade9"] ;
234 -> 235 ;
236 [label="gini = 0.5\nsamples = 2\nvalue = [2, 2]\nclass = LLM", fillcolor="#ffffff"] ;
235 -> 236 ;
237 [label="gini = 0.0\nsamples = 7\nvalue = [0, 10]\nclass = Student", fillcolor="#399de5"] ;
235 -> 237 ;
238 [label="gini = 0.278\nsamples = 4\nvalue = [5, 1]\nclass = LLM", fillcolor="#ea9a61"] ;
234 -> 238 ;
239 [label="bli <= 0.019\ngini = 0.245\nsamples = 11\nvalue = [2, 12]\nclass = Student", fillcolor="#5aade9"] ;
221 -> 239 ;
240 [label="ret <= 0.038\ngini = 0.153\nsamples = 9\nvalue = [1, 11]\nclass = Student", fillcolor="#4ba6e7"] ;
239 -> 240 ;
241 [label="gini = 0.5\nsamples = 2\nvalue = [1, 1]\nclass = LLM", fillcolor="#ffffff"] ;
240 -> 241 ;
242 [label="gini = 0.0\nsamples = 7\nvalue = [0, 10]\nclass = Student", fillcolor="#399de5"] ;
240 -> 242 ;
243 [label="gini = 0.5\nsamples = 2\nvalue = [1, 1]\nclass = LLM", fillcolor="#ffffff"] ;
239 -> 243 ;
244 [label="e; <= 0.05\ngini = 0.38\nsamples = 222\nvalue = [269, 92]\nclass = LLM", fillcolor="#eeac7d"] ;
2 -> 244 ;
245 [label="ro <= 0.2\ngini = 0.45\nsamples = 162\nvalue = [171, 89]\nclass = LLM", fillcolor="#f3c3a0"] ;
244 -> 245 ;
246 [label=" nums. <= 0.038\ngini = 0.426\nsamples = 154\nvalue = [171, 76]\nclass = LLM", fillcolor="#f1b991"] ;
245 -> 246 ;
247 [label="ub <= 0.025\ngini = 0.388\nsamples = 146\nvalue = [171, 61]\nclass = LLM", fillcolor="#eeae80"] ;
246 -> 247 ;
248 [label="b  <= 0.05\ngini = 0.355\nsamples = 139\nvalue = [170, 51]\nclass = LLM", fillcolor="#eda774"] ;
247 -> 248 ;
249 [label=" =  <= 0.042\ngini = 0.266\nsamples = 123\nvalue = [165, 31]\nclass = LLM", fillcolor="#ea995e"] ;
248 -> 249 ;
250 [label="ms[i]; <= 0.018\ngini = 0.084\nsamples = 89\nvalue = [130, 6]\nclass = LLM", fillcolor="#e68742"] ;
249 -> 250 ;
251 [label="nu <= 0.188\ngini = 0.072\nsamples = 87\nvalue = [129, 5]\nclass = LLM", fillcolor="#e68641"] ;
250 -> 251 ;
252 [label="va <= 0.035\ngini = 0.059\nsamples = 85\nvalue = [128, 4]\nclass = LLM", fillcolor="#e6853f"] ;
251 -> 252 ;
253 [label="c  <= 0.024\ngini = 0.031\nsamples = 82\nvalue = [126, 2]\nclass = LLM", fillcolor="#e5833c"] ;
252 -> 253 ;
254 [label="urn  <= 0.043\ngini = 0.061\nsamples = 39\nvalue = [62, 2]\nclass = LLM", fillcolor="#e6853f"] ;
253 -> 254 ;
255 [label="turn <= 0.017\ngini = 0.032\nsamples = 37\nvalue = [61, 1]\nclass = LLM", fillcolor="#e5833c"] ;
254 -> 255 ;
256 [label="gini = 0.219\nsamples = 4\nvalue = [7, 1]\nclass = LLM", fillcolor="#e99355"] ;
255 -> 256 ;
257 [label="gini = 0.0\nsamples = 33\nvalue = [54, 0]\nclass = LLM", fillcolor="#e58139"] ;
255 -> 257 ;
258 [label="gini = 0.5\nsamples = 2\nvalue = [1, 1]\nclass = LLM", fillcolor="#ffffff"] ;
254 -> 258 ;
259 [label="gini = 0.0\nsamples = 43\nvalue = [64, 0]\nclass = LLM", fillcolor="#e58139"] ;
253 -> 259 ;
260 [label="gini = 0.5\nsamples = 3\nvalue = [2, 2]\nclass = LLM", fillcolor="#ffffff"] ;
252 -> 260 ;
261 [label="gini = 0.5\nsamples = 2\nvalue = [1, 1]\nclass = LLM", fillcolor="#ffffff"] ;
251 -> 261 ;
262 [label="gini = 0.5\nsamples = 2\nvalue = [1, 1]\nclass = LLM", fillcolor="#ffffff"] ;
250 -> 262 ;
263 [label=" +=  <= 0.012\ngini = 0.486\nsamples = 34\nvalue = [35, 25]\nclass = LLM", fillcolor="#f8dbc6"] ;
249 -> 263 ;
264 [label=" {  <= 0.074\ngini = 0.191\nsamples = 14\nvalue = [3, 25]\nclass = Student", fillcolor="#51a9e8"] ;
263 -> 264 ;
265 [label="gini = 0.0\nsamples = 12\nvalue = [0, 24]\nclass = Student", fillcolor="#399de5"] ;
264 -> 265 ;
266 [label="gini = 0.375\nsamples = 2\nvalue = [3, 1]\nclass = LLM", fillcolor="#eeab7b"] ;
264 -> 266 ;
267 [label="gini = 0.0\nsamples = 20\nvalue = [32, 0]\nclass = LLM", fillcolor="#e58139"] ;
263 -> 267 ;
268 [label=" = <= 0.057\ngini = 0.32\nsamples = 16\nvalue = [5, 20]\nclass = Student", fillcolor="#6ab6ec"] ;
248 -> 268 ;
269 [label="gini = 0.0\nsamples = 4\nvalue = [5, 0]\nclass = LLM", fillcolor="#e58139"] ;
268 -> 269 ;
270 [label="gini = 0.0\nsamples = 12\nvalue = [0, 20]\nclass = Student", fillcolor="#399de5"] ;
268 -> 270 ;
271 [label="0;  <= 0.006\ngini = 0.165\nsamples = 7\nvalue = [1, 10]\nclass = Student", fillcolor="#4da7e8"] ;
247 -> 271 ;
272 [label="gini = 0.5\nsamples = 2\nvalue = [1, 1]\nclass = LLM", fillcolor="#ffffff"] ;
271 -> 272 ;
273 [label="gini = 0.0\nsamples = 5\nvalue = [0, 9]\nclass = Student", fillcolor="#399de5"] ;
271 -> 273 ;
274 [label="gini = 0.0\nsamples = 8\nvalue = [0, 15]\nclass = Student", fillcolor="#399de5"] ;
246 -> 274 ;
275 [label="gini = 0.0\nsamples = 8\nvalue = [0, 13]\nclass = Student", fillcolor="#399de5"] ;
245 -> 275 ;
276 [label="um  <= 0.135\ngini = 0.058\nsamples = 60\nvalue = [98, 3]\nclass = LLM", fillcolor="#e6853f"] ;
244 -> 276 ;
277 [label="gini = 0.5\nsamples = 4\nvalue = [2, 2]\nclass = LLM", fillcolor="#ffffff"] ;
276 -> 277 ;
278 [label="+=  <= 0.082\ngini = 0.02\nsamples = 56\nvalue = [96, 1]\nclass = LLM", fillcolor="#e5823b"] ;
276 -> 278 ;
279 [label="gini = 0.0\nsamples = 54\nvalue = [95, 0]\nclass = LLM", fillcolor="#e58139"] ;
278 -> 279 ;
280 [label="gini = 0.5\nsamples = 2\nvalue = [1, 1]\nclass = LLM", fillcolor="#ffffff"] ;
278 -> 280 ;
281 [label="lt  <= 0.116\ngini = 0.248\nsamples = 280\nvalue = [396, 67]\nclass = LLM", fillcolor="#e9965a"] ;
1 -> 281 ;
282 [label="substr <= 0.047\ngini = 0.22\nsamples = 273\nvalue = [396, 57]\nclass = LLM", fillcolor="#e99356"] ;
281 -> 282 ;
283 [label="or  <= 0.058\ngini = 0.194\nsamples = 266\nvalue = [393, 48]\nclass = LLM", fillcolor="#e89051"] ;
282 -> 283 ;
284 [label=" e <= 0.061\ngini = 0.175\nsamples = 263\nvalue = [391, 42]\nclass = LLM", fillcolor="#e88f4e"] ;
283 -> 284 ;
285 [label="boolea <= 0.041\ngini = 0.155\nsamples = 259\nvalue = [390, 36]\nclass = LLM", fillcolor="#e78d4b"] ;
284 -> 285 ;
286 [label="ic  <= 0.022\ngini = 0.121\nsamples = 253\nvalue = [389.0, 27.0]\nclass = LLM", fillcolor="#e78a47"] ;
285 -> 286 ;
287 [label="su <= 0.107\ngini = 0.09\nsamples = 235\nvalue = [363, 18]\nclass = LLM", fillcolor="#e68743"] ;
286 -> 287 ;
288 [label="]; <= 0.072\ngini = 0.057\nsamples = 229\nvalue = [361, 11]\nclass = LLM", fillcolor="#e6853f"] ;
287 -> 288 ;
289 [label="s[ <= 0.094\ngini = 0.043\nsamples = 227\nvalue = [360, 8]\nclass = LLM", fillcolor="#e6843d"] ;
288 -> 289 ;
290 [label="spe <= 0.108\ngini = 0.038\nsamples = 225\nvalue = [359, 7]\nclass = LLM", fillcolor="#e6833d"] ;
289 -> 290 ;
291 [label="b,  <= 0.019\ngini = 0.027\nsamples = 223\nvalue = [359, 5]\nclass = LLM", fillcolor="#e5833c"] ;
290 -> 291 ;
292 [label="gth() <= 0.089\ngini = 0.022\nsamples = 220\nvalue = [357, 4]\nclass = LLM", fillcolor="#e5823b"] ;
291 -> 292 ;
293 [label="tr.su <= 0.041\ngini = 0.017\nsamples = 218\nvalue = [356, 3]\nclass = LLM", fillcolor="#e5823b"] ;
292 -> 293 ;
294 [label="gini = 0.011\nsamples = 213\nvalue = [347, 2]\nclass = LLM", fillcolor="#e5823a"] ;
293 -> 294 ;
295 [label="gini = 0.18\nsamples = 5\nvalue = [9, 1]\nclass = LLM", fillcolor="#e88f4f"] ;
293 -> 295 ;
296 [label="gini = 0.5\nsamples = 2\nvalue = [1, 1]\nclass = LLM", fillcolor="#ffffff"] ;
292 -> 296 ;
297 [label="gini = 0.444\nsamples = 3\nvalue = [2, 1]\nclass = LLM", fillcolor="#f2c09c"] ;
291 -> 297 ;
298 [label="gini = 0.0\nsamples = 2\nvalue = [0, 2]\nclass = Student", fillcolor="#399de5"] ;
290 -> 298 ;
299 [label="gini = 0.5\nsamples = 2\nvalue = [1, 1]\nclass = LLM", fillcolor="#ffffff"] ;
289 -> 299 ;
300 [label="gini = 0.375\nsamples = 2\nvalue = [1, 3]\nclass = Student", fillcolor="#7bbeee"] ;
288 -> 300 ;
301 [label="c  <= 0.015\ngini = 0.346\nsamples = 6\nvalue = [2, 7]\nclass = Student", fillcolor="#72b9ec"] ;
287 -> 301 ;
302 [label="gini = 0.0\nsamples = 4\nvalue = [0, 7]\nclass = Student", fillcolor="#399de5"] ;
301 -> 302 ;
303 [label="gini = 0.0\nsamples = 2\nvalue = [2, 0]\nclass = LLM", fillcolor="#e58139"] ;
301 -> 303 ;
304 [label="];  <= 0.016\ngini = 0.382\nsamples = 18\nvalue = [26, 9]\nclass = LLM", fillcolor="#eead7e"] ;
286 -> 304 ;
305 [label="tring <= 0.013\ngini = 0.133\nsamples = 14\nvalue = [26, 2]\nclass = LLM", fillcolor="#e78b48"] ;
304 -> 305 ;
306 [label="gini = 0.5\nsamples = 2\nvalue = [2, 2]\nclass = LLM", fillcolor="#ffffff"] ;
305 -> 306 ;
307 [label="gini = 0.0\nsamples = 12\nvalue = [24, 0]\nclass = LLM", fillcolor="#e58139"] ;
305 -> 307 ;
308 [label="gini = 0.0\nsamples = 4\nvalue = [0, 7]\nclass = Student", fillcolor="#399de5"] ;
304 -> 308 ;
309 [label="&& <= 0.019\ngini = 0.18\nsamples = 6\nvalue = [1, 9]\nclass = Student", fillcolor="#4fa8e8"] ;
285 -> 309 ;
310 [label="gini = 0.444\nsamples = 2\nvalue = [1, 2]\nclass = Student", fillcolor="#9ccef2"] ;
309 -> 310 ;
311 [label="gini = 0.0\nsamples = 4\nvalue = [0, 7]\nclass = Student", fillcolor="#399de5"] ;
309 -> 311 ;
312 [label="gini = 0.245\nsamples = 4\nvalue = [1, 6]\nclass = Student", fillcolor="#5aade9"] ;
284 -> 312 ;
313 [label="gini = 0.375\nsamples = 3\nvalue = [2, 6]\nclass = Student", fillcolor="#7bbeee"] ;
283 -> 313 ;
314 [label=" st <= 0.092\ngini = 0.375\nsamples = 7\nvalue = [3, 9]\nclass = Student", fillcolor="#7bbeee"] ;
282 -> 314 ;
315 [label="gini = 0.0\nsamples = 3\nvalue = [0, 8]\nclass = Student", fillcolor="#399de5"] ;
314 -> 315 ;
316 [label="gini = 0.375\nsamples = 4\nvalue = [3, 1]\nclass = LLM", fillcolor="#eeab7b"] ;
314 -> 316 ;
317 [label="gini = 0.0\nsamples = 7\nvalue = [0, 10]\nclass = Student", fillcolor="#399de5"] ;
281 -> 317 ;
318 [label="ult  <= 0.005\ngini = 0.45\nsamples = 405\nvalue = [220.0, 423.0]\nclass = Student", fillcolor="#a0d0f3"] ;
0 -> 318 [labeldistance=2.5, labelangle=-45, headlabel="False"] ;
319 [label="eng <= 0.028\ngini = 0.421\nsamples = 369\nvalue = [179, 415]\nclass = Student", fillcolor="#8ec7f0"] ;
318 -> 319 ;
320 [label="rue <= 0.051\ngini = 0.495\nsamples = 98\nvalue = [90, 73]\nclass = LLM", fillcolor="#fae7da"] ;
319 -> 320 ;
321 [label="[i] <= 0.096\ngini = 0.482\nsamples = 92\nvalue = [90, 61]\nclass = LLM", fillcolor="#f7d6bf"] ;
320 -> 321 ;
322 [label="tur <= 0.009\ngini = 0.459\nsamples = 83\nvalue = [90, 50]\nclass = LLM", fillcolor="#f3c7a7"] ;
321 -> 322 ;
323 [label="gini = 0.0\nsamples = 4\nvalue = [0, 7]\nclass = Student", fillcolor="#399de5"] ;
322 -> 323 ;
324 [label=" } <= 0.047\ngini = 0.438\nsamples = 79\nvalue = [90, 43]\nclass = LLM", fillcolor="#f1bd98"] ;
322 -> 324 ;
325 [label="[i];  <= 0.043\ngini = 0.424\nsamples = 26\nvalue = [11, 25]\nclass = Student", fillcolor="#90c8f0"] ;
324 -> 325 ;
326 [label="mp  <= 0.022\ngini = 0.238\nsamples = 21\nvalue = [4, 25]\nclass = Student", fillcolor="#59ade9"] ;
325 -> 326 ;
327 [label="gini = 0.0\nsamples = 17\nvalue = [0, 23]\nclass = Student", fillcolor="#399de5"] ;
326 -> 327 ;
328 [label="gini = 0.444\nsamples = 4\nvalue = [4, 2]\nclass = LLM", fillcolor="#f2c09c"] ;
326 -> 328 ;
329 [label="gini = 0.0\nsamples = 5\nvalue = [7, 0]\nclass = LLM", fillcolor="#e58139"] ;
325 -> 329 ;
330 [label=" == <= 0.047\ngini = 0.302\nsamples = 53\nvalue = [79, 18]\nclass = LLM", fillcolor="#eb9e66"] ;
324 -> 330 ;
331 [label="t[] <= 0.063\ngini = 0.215\nsamples = 49\nvalue = [79, 11]\nclass = LLM", fillcolor="#e99355"] ;
330 -> 331 ;
332 [label="sum <= 0.17\ngini = 0.158\nsamples = 45\nvalue = [74, 7]\nclass = LLM", fillcolor="#e78d4c"] ;
331 -> 332 ;
333 [label="ums)  <= 0.009\ngini = 0.098\nsamples = 43\nvalue = [73, 4]\nclass = LLM", fillcolor="#e68844"] ;
332 -> 333 ;
334 [label="gini = 0.444\nsamples = 3\nvalue = [2, 1]\nclass = LLM", fillcolor="#f2c09c"] ;
333 -> 334 ;
335 [label="r(in <= 0.054\ngini = 0.078\nsamples = 40\nvalue = [71, 3]\nclass = LLM", fillcolor="#e68641"] ;
333 -> 335 ;
336 [label="ubli <= 0.016\ngini = 0.054\nsamples = 38\nvalue = [70, 2]\nclass = LLM", fillcolor="#e6853f"] ;
335 -> 336 ;
337 [label="gini = 0.0\nsamples = 29\nvalue = [53, 0]\nclass = LLM", fillcolor="#e58139"] ;
336 -> 337 ;
338 [label="gini = 0.188\nsamples = 9\nvalue = [17, 2]\nclass = LLM", fillcolor="#e89050"] ;
336 -> 338 ;
339 [label="gini = 0.5\nsamples = 2\nvalue = [1, 1]\nclass = LLM", fillcolor="#ffffff"] ;
335 -> 339 ;
340 [label="gini = 0.375\nsamples = 2\nvalue = [1, 3]\nclass = Student", fillcolor="#7bbeee"] ;
332 -> 340 ;
341 [label="gini = 0.494\nsamples = 4\nvalue = [5, 4]\nclass = LLM", fillcolor="#fae6d7"] ;
331 -> 341 ;
342 [label="gini = 0.0\nsamples = 4\nvalue = [0, 7]\nclass = Student", fillcolor="#399de5"] ;
330 -> 342 ;
343 [label="gini = 0.0\nsamples = 9\nvalue = [0, 11]\nclass = Student", fillcolor="#399de5"] ;
321 -> 343 ;
344 [label="gini = 0.0\nsamples = 6\nvalue = [0, 12]\nclass = Student", fillcolor="#399de5"] ;
320 -> 344 ;
345 [label="[i];  <= 0.009\ngini = 0.328\nsamples = 271\nvalue = [89, 342]\nclass = Student", fillcolor="#6db7ec"] ;
319 -> 345 ;
346 [label="++ <= 0.015\ngini = 0.153\nsamples = 132\nvalue = [17, 187]\nclass = Student", fillcolor="#4ba6e7"] ;
345 -> 346 ;
347 [label=" new  <= 0.006\ngini = 0.469\nsamples = 9\nvalue = [6, 10]\nclass = Student", fillcolor="#b0d8f5"] ;
346 -> 347 ;
348 [label="gini = 0.0\nsamples = 5\nvalue = [0, 9]\nclass = Student", fillcolor="#399de5"] ;
347 -> 348 ;
349 [label="gini = 0.245\nsamples = 4\nvalue = [6, 1]\nclass = LLM", fillcolor="#e9965a"] ;
347 -> 349 ;
350 [label=" && <= 0.033\ngini = 0.11\nsamples = 123\nvalue = [11, 177]\nclass = Student", fillcolor="#45a3e7"] ;
346 -> 350 ;
351 [label="ix <= 0.037\ngini = 0.06\nsamples = 106\nvalue = [5, 157]\nclass = Student", fillcolor="#3fa0e6"] ;
350 -> 351 ;
352 [label="lic  <= 0.003\ngini = 0.049\nsamples = 104\nvalue = [4, 156]\nclass = Student", fillcolor="#3ea0e6"] ;
351 -> 352 ;
353 [label="gini = 0.5\nsamples = 2\nvalue = [1, 1]\nclass = LLM", fillcolor="#ffffff"] ;
352 -> 353 ;
354 [label="star <= 0.094\ngini = 0.037\nsamples = 102\nvalue = [3, 155]\nclass = Student", fillcolor="#3d9fe6"] ;
352 -> 354 ;
355 [label="nums[i <= 0.082\ngini = 0.025\nsamples = 100\nvalue = [2, 154]\nclass = Student", fillcolor="#3c9ee5"] ;
354 -> 355 ;
356 [label="gini = 0.0\nsamples = 85\nvalue = [0, 136]\nclass = Student", fillcolor="#399de5"] ;
355 -> 356 ;
357 [label=" } <= 0.052\ngini = 0.18\nsamples = 15\nvalue = [2, 18]\nclass = Student", fillcolor="#4fa8e8"] ;
355 -> 357 ;
358 [label="gini = 0.0\nsamples = 2\nvalue = [2, 0]\nclass = LLM", fillcolor="#e58139"] ;
357 -> 358 ;
359 [label="gini = 0.0\nsamples = 13\nvalue = [0, 18]\nclass = Student", fillcolor="#399de5"] ;
357 -> 359 ;
360 [label="gini = 0.5\nsamples = 2\nvalue = [1, 1]\nclass = LLM", fillcolor="#ffffff"] ;
354 -> 360 ;
361 [label="gini = 0.5\nsamples = 2\nvalue = [1, 1]\nclass = LLM", fillcolor="#ffffff"] ;
351 -> 361 ;
362 [label="um <= 0.124\ngini = 0.355\nsamples = 17\nvalue = [6, 20]\nclass = Student", fillcolor="#74baed"] ;
350 -> 362 ;
363 [label="ue; <= 0.042\ngini = 0.494\nsamples = 6\nvalue = [5, 4]\nclass = LLM", fillcolor="#fae6d7"] ;
362 -> 363 ;
364 [label="gini = 0.32\nsamples = 4\nvalue = [1, 4]\nclass = Student", fillcolor="#6ab6ec"] ;
363 -> 364 ;
365 [label="gini = 0.0\nsamples = 2\nvalue = [4, 0]\nclass = LLM", fillcolor="#e58139"] ;
363 -> 365 ;
366 [label=")  <= 0.041\ngini = 0.111\nsamples = 11\nvalue = [1, 16]\nclass = Student", fillcolor="#45a3e7"] ;
362 -> 366 ;
367 [label="gini = 0.5\nsamples = 2\nvalue = [1, 1]\nclass = LLM", fillcolor="#ffffff"] ;
366 -> 367 ;
368 [label="gini = 0.0\nsamples = 9\nvalue = [0, 15]\nclass = Student", fillcolor="#399de5"] ;
366 -> 368 ;
369 [label="[i <= 0.058\ngini = 0.433\nsamples = 139\nvalue = [72, 155]\nclass = Student", fillcolor="#95cbf1"] ;
345 -> 369 ;
370 [label="nt[ <= 0.059\ngini = 0.491\nsamples = 57\nvalue = [59, 45]\nclass = LLM", fillcolor="#f9e1d0"] ;
369 -> 370 ;
371 [label="boole <= 0.008\ngini = 0.351\nsamples = 41\nvalue = [58, 17]\nclass = LLM", fillcolor="#eda673"] ;
370 -> 371 ;
372 [label="t[ <= 0.038\ngini = 0.219\nsamples = 34\nvalue = [56, 8]\nclass = LLM", fillcolor="#e99355"] ;
371 -> 372 ;
373 [label="lic  <= 0.01\ngini = 0.497\nsamples = 7\nvalue = [6, 7]\nclass = Student", fillcolor="#e3f1fb"] ;
372 -> 373 ;
374 [label="gini = 0.245\nsamples = 3\nvalue = [6, 1]\nclass = LLM", fillcolor="#e9965a"] ;
373 -> 374 ;
375 [label="gini = 0.0\nsamples = 4\nvalue = [0, 6]\nclass = Student", fillcolor="#399de5"] ;
373 -> 375 ;
376 [label="(i <= 0.048\ngini = 0.038\nsamples = 27\nvalue = [50, 1]\nclass = LLM", fillcolor="#e6843d"] ;
372 -> 376 ;
377 [label="gini = 0.0\nsamples = 25\nvalue = [49, 0]\nclass = LLM", fillcolor="#e58139"] ;
376 -> 377 ;
378 [label="gini = 0.5\nsamples = 2\nvalue = [1, 1]\nclass = LLM", fillcolor="#ffffff"] ;
376 -> 378 ;
379 [label=" else  <= 0.01\ngini = 0.298\nsamples = 7\nvalue = [2, 9]\nclass = Student", fillcolor="#65b3eb"] ;
371 -> 379 ;
380 [label="gini = 0.0\nsamples = 5\nvalue = [0, 8]\nclass = Student", fillcolor="#399de5"] ;
379 -> 380 ;
381 [label="gini = 0.444\nsamples = 2\nvalue = [2, 1]\nclass = LLM", fillcolor="#f2c09c"] ;
379 -> 381 ;
382 [label="lse  <= 0.015\ngini = 0.067\nsamples = 16\nvalue = [1, 28]\nclass = Student", fillcolor="#40a0e6"] ;
370 -> 382 ;
383 [label="gini = 0.0\nsamples = 14\nvalue = [0, 26]\nclass = Student", fillcolor="#399de5"] ;
382 -> 383 ;
384 [label="gini = 0.444\nsamples = 2\nvalue = [1, 2]\nclass = Student", fillcolor="#9ccef2"] ;
382 -> 384 ;
385 [label="i+ <= 0.017\ngini = 0.189\nsamples = 82\nvalue = [13, 110]\nclass = Student", fillcolor="#50a9e8"] ;
369 -> 385 ;
386 [label=" int  <= 0.045\ngini = 0.497\nsamples = 10\nvalue = [7, 6]\nclass = LLM", fillcolor="#fbede3"] ;
385 -> 386 ;
387 [label="gini = 0.0\nsamples = 4\nvalue = [0, 4]\nclass = Student", fillcolor="#399de5"] ;
386 -> 387 ;
388 [label="r(int  <= 0.015\ngini = 0.346\nsamples = 6\nvalue = [7, 2]\nclass = LLM", fillcolor="#eca572"] ;
386 -> 388 ;
389 [label="gini = 0.0\nsamples = 4\nvalue = [6, 0]\nclass = LLM", fillcolor="#e58139"] ;
388 -> 389 ;
390 [label="gini = 0.444\nsamples = 2\nvalue = [1, 2]\nclass = Student", fillcolor="#9ccef2"] ;
388 -> 390 ;
391 [label="t; <= 0.01\ngini = 0.103\nsamples = 72\nvalue = [6, 104]\nclass = Student", fillcolor="#44a3e6"] ;
385 -> 391 ;
392 [label="tur <= 0.012\ngini = 0.056\nsamples = 69\nvalue = [3, 101]\nclass = Student", fillcolor="#3fa0e6"] ;
391 -> 392 ;
393 [label="etur <= 0.011\ngini = 0.185\nsamples = 20\nvalue = [3, 26]\nclass = Student", fillcolor="#50a8e8"] ;
392 -> 393 ;
394 [label="lic <= 0.006\ngini = 0.071\nsamples = 18\nvalue = [1, 26]\nclass = Student", fillcolor="#41a1e6"] ;
393 -> 394 ;
395 [label="gini = 0.5\nsamples = 2\nvalue = [1, 1]\nclass = LLM", fillcolor="#ffffff"] ;
394 -> 395 ;
396 [label="gini = 0.0\nsamples = 16\nvalue = [0, 25]\nclass = Student", fillcolor="#399de5"] ;
394 -> 396 ;
397 [label="gini = 0.0\nsamples = 2\nvalue = [2, 0]\nclass = LLM", fillcolor="#e58139"] ;
393 -> 397 ;
398 [label="gini = 0.0\nsamples = 49\nvalue = [0, 75]\nclass = Student", fillcolor="#399de5"] ;
392 -> 398 ;
399 [label="gini = 0.5\nsamples = 3\nvalue = [3, 3]\nclass = LLM", fillcolor="#ffffff"] ;
391 -> 399 ;
400 [label="publ <= 0.016\ngini = 0.273\nsamples = 36\nvalue = [41.0, 8.0]\nclass = LLM", fillcolor="#ea9a60"] ;
318 -> 400 ;
401 [label="nt[]  <= 0.033\ngini = 0.127\nsamples = 32\nvalue = [41, 3]\nclass = LLM", fillcolor="#e78a47"] ;
400 -> 401 ;
402 [label="gini = 0.48\nsamples = 4\nvalue = [2, 3]\nclass = Student", fillcolor="#bddef6"] ;
401 -> 402 ;
403 [label="gini = 0.0\nsamples = 28\nvalue = [39, 0]\nclass = LLM", fillcolor="#e58139"] ;
401 -> 403 ;
404 [label="gini = 0.0\nsamples = 4\nvalue = [0, 5]\nclass = Student", fillcolor="#399de5"] ;
400 -> 404 ;
}
