digraph Tree {
node [shape=box, style="filled, rounded", color="black", fontname="helvetica"] ;
edge [fontname="helvetica"] ;
0 [label=< //  &le; 0.027<br/>gini = 0.5<br/>samples = 4800<br/>value = [0.496, 0.504]<br/>class = Student>, fillcolor="#fcfeff"] ;
1 [label=< :  &le; 0.01<br/>gini = 0.384<br/>samples = 3229<br/>value = [0.175, 0.498]<br/>class = Student>, fillcolor="#7ebfee"] ;
0 -> 1 [labeldistance=2.5, labelangle=45, headlabel="True"] ;
2 [label=<sult &le; 0.104<br/>gini = 0.357<br/>samples = 3094<br/>value = [0.15, 0.495]<br/>class = Student>, fillcolor="#75bbed"] ;
1 -> 2 ;
3 [label=<gini = 0.323<br/>samples = 2888<br/>value = [0.122, 0.48]<br/>class = Student>, fillcolor="#6bb6ec"] ;
2 -> 3 ;
4 [label=<gini = 0.449<br/>samples = 206<br/>value = [0.028, 0.015]<br/>class = LLM>, fillcolor="#f2c29f"] ;
2 -> 4 ;
5 [label=<rray &le; 0.138<br/>gini = 0.22<br/>samples = 135<br/>value = [0.025, 0.004]<br/>class = LLM>, fillcolor="#e99356"] ;
1 -> 5 ;
6 [label=<gini = 0.144<br/>samples = 128<br/>value = [0.025, 0.002]<br/>class = LLM>, fillcolor="#e78c4a"] ;
5 -> 6 ;
7 [label=<gini = 0.0<br/>samples = 7<br/>value = [0.0, 0.001]<br/>class = Student>, fillcolor="#399de5"] ;
5 -> 7 ;
8 [label=<.sub &le; 0.071<br/>gini = 0.034<br/>samples = 1571<br/>value = [0.322, 0.006]<br/>class = LLM>, fillcolor="#e5833c"] ;
0 -> 8 [labeldistance=2.5, labelangle=-45, headlabel="False"] ;
9 [label=<e(in &le; 0.052<br/>gini = 0.028<br/>samples = 1566<br/>value = [0.322, 0.005]<br/>class = LLM>, fillcolor="#e5833c"] ;
8 -> 9 ;
10 [label=<gini = 0.022<br/>samples = 1559<br/>value = [0.321, 0.004]<br/>class = LLM>, fillcolor="#e5823b"] ;
9 -> 10 ;
11 [label=<gini = 0.408<br/>samples = 7<br/>value = [0.0, 0.001]<br/>class = Student>, fillcolor="#88c4ef"] ;
9 -> 11 ;
12 [label=<gini = -0.0<br/>samples = 5<br/>value = [0.0, 0.001]<br/>class = Student>, fillcolor="#399de5"] ;
8 -> 12 ;
}
