digraph Tree {
node [shape=box, style="filled, rounded", color="black", fontname="helvetica"] ;
edge [fontname="helvetica"] ;
0 [label="or <= 0.014\ngini = 0.5\nsamples = 2699\nvalue = [2110, 2090]\nclass = LLM", fillcolor="#fffefd"] ;
1 [label="skip <= 0.035\ngini = 0.498\nsamples = 2534\nvalue = [1855, 2086]\nclass = Student", fillcolor="#e9f4fc"] ;
0 -> 1 [labeldistance=2.5, labelangle=45, headlabel="True"] ;
2 [label="substring <= 0.195\ngini = 0.497\nsamples = 2490\nvalue = [1780, 2085]\nclass = Student", fillcolor="#e2f1fb"] ;
1 -> 2 ;
3 [label="the <= 0.015\ngini = 0.499\nsamples = 2392\nvalue = [1764, 1960]\nclass = Student", fillcolor="#ebf5fc"] ;
2 -> 3 ;
4 [label="not <= 0.02\ngini = 0.419\nsamples = 1810\nvalue = [832.0, 1950.0]\nclass = Student", fillcolor="#8dc7f0"] ;
3 -> 4 ;
5 [label="stringbuilder <= 0.177\ngini = 0.413\nsamples = 1790\nvalue = [803.0, 1950.0]\nclass = Student", fillcolor="#8bc5f0"] ;
4 -> 5 ;
6 [label="100 <= 0.181\ngini = 0.4\nsamples = 1741\nvalue = [743, 1943]\nclass = Student", fillcolor="#85c2ef"] ;
5 -> 6 ;
7 [label="largestodd <= 0.426\ngini = 0.394\nsamples = 1715\nvalue = [713, 1934]\nclass = Student", fillcolor="#82c1ef"] ;
6 -> 7 ;
8 [label="sameends <= 0.428\ngini = 0.392\nsamples = 1707\nvalue = [704, 1931]\nclass = Student", fillcolor="#81c1ee"] ;
7 -> 8 ;
9 [label="remainder <= 0.521\ngini = 0.386\nsamples = 1692\nvalue = [683.0, 1927.0]\nclass = Student", fillcolor="#7fc0ee"] ;
8 -> 9 ;
10 [label="currentmultiple <= 0.2\ngini = 0.383\nsamples = 1678\nvalue = [667, 1922]\nclass = Student", fillcolor="#7ebfee"] ;
9 -> 10 ;
11 [label="new <= 0.208\ngini = 0.378\nsamples = 1671\nvalue = [652, 1922]\nclass = Student", fillcolor="#7cbeee"] ;
10 -> 11 ;
12 [label="15 <= 0.2\ngini = 0.371\nsamples = 1637\nvalue = [619.0, 1895.0]\nclass = Student", fillcolor="#7abded"] ;
11 -> 12 ;
13 [label="inclump <= 0.351\ngini = 0.366\nsamples = 1615\nvalue = [599, 1881]\nclass = Student", fillcolor="#78bced"] ;
12 -> 13 ;
14 [label="true <= 0.176\ngini = 0.363\nsamples = 1608\nvalue = [588, 1881]\nclass = Student", fillcolor="#77bced"] ;
13 -> 14 ;
15 [label="gini = 0.381\nsamples = 1472\nvalue = [576, 1675]\nclass = Student", fillcolor="#7dbfee"] ;
14 -> 15 ;
16 [label="gini = 0.104\nsamples = 136\nvalue = [12, 206]\nclass = Student", fillcolor="#45a3e7"] ;
14 -> 16 ;
17 [label="gini = 0.0\nsamples = 7\nvalue = [11, 0]\nclass = LLM", fillcolor="#e58139"] ;
13 -> 17 ;
18 [label="out <= 0.079\ngini = 0.484\nsamples = 22\nvalue = [20, 14]\nclass = LLM", fillcolor="#f7d9c4"] ;
12 -> 18 ;
19 [label="return <= 0.11\ngini = 0.497\nsamples = 18\nvalue = [12, 14]\nclass = Student", fillcolor="#e3f1fb"] ;
18 -> 19 ;
20 [label="gini = 0.0\nsamples = 4\nvalue = [0, 8]\nclass = Student", fillcolor="#399de5"] ;
19 -> 20 ;
21 [label="gini = 0.444\nsamples = 14\nvalue = [12, 6]\nclass = LLM", fillcolor="#f2c09c"] ;
19 -> 21 ;
22 [label="gini = 0.0\nsamples = 4\nvalue = [8, 0]\nclass = LLM", fillcolor="#e58139"] ;
18 -> 22 ;
23 [label="length <= 0.146\ngini = 0.495\nsamples = 34\nvalue = [33, 27]\nclass = LLM", fillcolor="#fae8db"] ;
11 -> 23 ;
24 [label="return <= 0.08\ngini = 0.464\nsamples = 30\nvalue = [33, 19]\nclass = LLM", fillcolor="#f4caab"] ;
23 -> 24 ;
25 [label="gini = 0.198\nsamples = 4\nvalue = [1, 8]\nclass = Student", fillcolor="#52a9e8"] ;
24 -> 25 ;
26 [label="fizzarray <= 0.494\ngini = 0.381\nsamples = 26\nvalue = [32, 11]\nclass = LLM", fillcolor="#eeac7d"] ;
24 -> 26 ;
27 [label="gini = 0.234\nsamples = 22\nvalue = [32, 5]\nclass = LLM", fillcolor="#e99558"] ;
26 -> 27 ;
28 [label="gini = 0.0\nsamples = 4\nvalue = [0, 6]\nclass = Student", fillcolor="#399de5"] ;
26 -> 28 ;
29 [label="gini = 0.0\nsamples = 4\nvalue = [0, 8]\nclass = Student", fillcolor="#399de5"] ;
23 -> 29 ;
30 [label="gini = 0.0\nsamples = 7\nvalue = [15, 0]\nclass = LLM", fillcolor="#e58139"] ;
10 -> 30 ;
31 [label="goal <= 0.522\ngini = 0.363\nsamples = 14\nvalue = [16, 5]\nclass = LLM", fillcolor="#eda877"] ;
9 -> 31 ;
32 [label="gini = 0.0\nsamples = 10\nvalue = [16, 0]\nclass = LLM", fillcolor="#e58139"] ;
31 -> 32 ;
33 [label="gini = 0.0\nsamples = 4\nvalue = [0, 5]\nclass = Student", fillcolor="#399de5"] ;
31 -> 33 ;
34 [label="gini = 0.269\nsamples = 15\nvalue = [21, 4]\nclass = LLM", fillcolor="#ea995f"] ;
8 -> 34 ;
35 [label="gini = 0.375\nsamples = 8\nvalue = [9, 3]\nclass = LLM", fillcolor="#eeab7b"] ;
7 -> 35 ;
36 [label="return <= 0.076\ngini = 0.355\nsamples = 26\nvalue = [30, 9]\nclass = LLM", fillcolor="#eda774"] ;
6 -> 36 ;
37 [label="else <= 0.033\ngini = 0.062\nsamples = 21\nvalue = [30, 1]\nclass = LLM", fillcolor="#e68540"] ;
36 -> 37 ;
38 [label="gini = 0.095\nsamples = 15\nvalue = [19, 1]\nclass = LLM", fillcolor="#e68843"] ;
37 -> 38 ;
39 [label="gini = 0.0\nsamples = 6\nvalue = [11, 0]\nclass = LLM", fillcolor="#e58139"] ;
37 -> 39 ;
40 [label="gini = 0.0\nsamples = 5\nvalue = [0, 8]\nclass = Student", fillcolor="#399de5"] ;
36 -> 40 ;
41 [label="len <= 0.211\ngini = 0.187\nsamples = 49\nvalue = [60, 7]\nclass = LLM", fillcolor="#e89050"] ;
5 -> 41 ;
42 [label="gini = 0.192\nsamples = 47\nvalue = [58, 7]\nclass = LLM", fillcolor="#e89051"] ;
41 -> 42 ;
43 [label="gini = 0.0\nsamples = 2\nvalue = [2, 0]\nclass = LLM", fillcolor="#e58139"] ;
41 -> 43 ;
44 [label="gini = 0.0\nsamples = 20\nvalue = [29, 0]\nclass = LLM", fillcolor="#e58139"] ;
4 -> 44 ;
45 [label="so <= 0.196\ngini = 0.021\nsamples = 582\nvalue = [932, 10]\nclass = LLM", fillcolor="#e5823b"] ;
3 -> 45 ;
46 [label="find <= 0.022\ngini = 0.019\nsamples = 580\nvalue = [931, 9]\nclass = LLM", fillcolor="#e5823b"] ;
45 -> 46 ;
47 [label="into <= 0.189\ngini = 0.022\nsamples = 496\nvalue = [794, 9]\nclass = LLM", fillcolor="#e5823b"] ;
46 -> 47 ;
48 [label="total <= 0.037\ngini = 0.02\nsamples = 494\nvalue = [792, 8]\nclass = LLM", fillcolor="#e5823b"] ;
47 -> 48 ;
49 [label="void <= 0.018\ngini = 0.022\nsamples = 455\nvalue = [717.0, 8.0]\nclass = LLM", fillcolor="#e5823b"] ;
48 -> 49 ;
50 [label="none <= 0.188\ngini = 0.025\nsamples = 395\nvalue = [626, 8]\nclass = LLM", fillcolor="#e5833c"] ;
49 -> 50 ;
51 [label="tostring <= 0.111\ngini = 0.019\nsamples = 392\nvalue = [623, 6]\nclass = LLM", fillcolor="#e5823b"] ;
50 -> 51 ;
52 [label="of <= 0.191\ngini = 0.016\nsamples = 390\nvalue = [621, 5]\nclass = LLM", fillcolor="#e5823b"] ;
51 -> 52 ;
53 [label="elements <= 0.082\ngini = 0.013\nsamples = 376\nvalue = [602, 4]\nclass = LLM", fillcolor="#e5823a"] ;
52 -> 53 ;
54 [label="check <= 0.017\ngini = 0.015\nsamples = 326\nvalue = [525, 4]\nclass = LLM", fillcolor="#e5823b"] ;
53 -> 54 ;
55 [label="isweekend <= 0.099\ngini = 0.031\nsamples = 153\nvalue = [254, 4]\nclass = LLM", fillcolor="#e5833c"] ;
54 -> 55 ;
56 [label="gini = 0.034\nsamples = 141\nvalue = [228, 4]\nclass = LLM", fillcolor="#e5833c"] ;
55 -> 56 ;
57 [label="gini = 0.0\nsamples = 12\nvalue = [26, 0]\nclass = LLM", fillcolor="#e58139"] ;
55 -> 57 ;
58 [label="gini = 0.0\nsamples = 173\nvalue = [271, 0]\nclass = LLM", fillcolor="#e58139"] ;
54 -> 58 ;
59 [label="gini = 0.0\nsamples = 50\nvalue = [77, 0]\nclass = LLM", fillcolor="#e58139"] ;
53 -> 59 ;
60 [label="flag <= 0.081\ngini = 0.095\nsamples = 14\nvalue = [19, 1]\nclass = LLM", fillcolor="#e68843"] ;
52 -> 60 ;
61 [label="and <= 0.03\ngini = 0.105\nsamples = 12\nvalue = [17, 1]\nclass = LLM", fillcolor="#e78845"] ;
60 -> 61 ;
62 [label="string <= 0.096\ngini = 0.142\nsamples = 10\nvalue = [12, 1]\nclass = LLM", fillcolor="#e78c49"] ;
61 -> 62 ;
63 [label="gini = 0.0\nsamples = 8\nvalue = [10, 0]\nclass = LLM", fillcolor="#e58139"] ;
62 -> 63 ;
64 [label="gini = 0.444\nsamples = 2\nvalue = [2, 1]\nclass = LLM", fillcolor="#f2c09c"] ;
62 -> 64 ;
65 [label="gini = 0.0\nsamples = 2\nvalue = [5, 0]\nclass = LLM", fillcolor="#e58139"] ;
61 -> 65 ;
66 [label="gini = 0.0\nsamples = 2\nvalue = [2, 0]\nclass = LLM", fillcolor="#e58139"] ;
60 -> 66 ;
67 [label="gini = 0.444\nsamples = 2\nvalue = [2, 1]\nclass = LLM", fillcolor="#f2c09c"] ;
51 -> 67 ;
68 [label="gini = 0.48\nsamples = 3\nvalue = [3, 2]\nclass = LLM", fillcolor="#f6d5bd"] ;
50 -> 68 ;
69 [label="gini = 0.0\nsamples = 60\nvalue = [91, 0]\nclass = LLM", fillcolor="#e58139"] ;
49 -> 69 ;
70 [label="gini = 0.0\nsamples = 39\nvalue = [75, 0]\nclass = LLM", fillcolor="#e58139"] ;
48 -> 70 ;
71 [label="gini = 0.444\nsamples = 2\nvalue = [2, 1]\nclass = LLM", fillcolor="#f2c09c"] ;
47 -> 71 ;
72 [label="gini = 0.0\nsamples = 84\nvalue = [137, 0]\nclass = LLM", fillcolor="#e58139"] ;
46 -> 72 ;
73 [label="gini = 0.5\nsamples = 2\nvalue = [1, 1]\nclass = LLM", fillcolor="#ffffff"] ;
45 -> 73 ;
74 [label="gini = 0.201\nsamples = 98\nvalue = [16.0, 125.0]\nclass = Student", fillcolor="#52aae8"] ;
2 -> 74 ;
75 [label="check <= 0.019\ngini = 0.026\nsamples = 44\nvalue = [75, 1]\nclass = LLM", fillcolor="#e5833c"] ;
1 -> 75 ;
76 [label="gini = 0.061\nsamples = 18\nvalue = [31, 1]\nclass = LLM", fillcolor="#e6853f"] ;
75 -> 76 ;
77 [label="gini = 0.0\nsamples = 26\nvalue = [44, 0]\nclass = LLM", fillcolor="#e58139"] ;
75 -> 77 ;
78 [label="found <= 0.024\ngini = 0.03\nsamples = 165\nvalue = [255, 4]\nclass = LLM", fillcolor="#e5833c"] ;
0 -> 78 [labeldistance=2.5, labelangle=-45, headlabel="False"] ;
79 [label="of <= 0.101\ngini = 0.036\nsamples = 136\nvalue = [213, 4]\nclass = LLM", fillcolor="#e5833d"] ;
78 -> 79 ;
80 [label="be <= 0.08\ngini = 0.056\nsamples = 88\nvalue = [135, 4]\nclass = LLM", fillcolor="#e6853f"] ;
79 -> 80 ;
81 [label="10 <= 0.044\ngini = 0.03\nsamples = 85\nvalue = [130, 2]\nclass = LLM", fillcolor="#e5833c"] ;
80 -> 81 ;
82 [label="to <= 0.022\ngini = 0.038\nsamples = 65\nvalue = [101.0, 2.0]\nclass = LLM", fillcolor="#e6833d"] ;
81 -> 82 ;
83 [label="false <= 0.04\ngini = 0.111\nsamples = 22\nvalue = [32, 2]\nclass = LLM", fillcolor="#e78945"] ;
82 -> 83 ;
84 [label="has <= 0.026\ngini = 0.165\nsamples = 15\nvalue = [20, 2]\nclass = LLM", fillcolor="#e88e4d"] ;
83 -> 84 ;
85 [label="else <= 0.114\ngini = 0.245\nsamples = 10\nvalue = [12, 2]\nclass = LLM", fillcolor="#e9965a"] ;
84 -> 85 ;
86 [label="gini = 0.0\nsamples = 8\nvalue = [11, 0]\nclass = LLM", fillcolor="#e58139"] ;
85 -> 86 ;
87 [label="gini = 0.444\nsamples = 2\nvalue = [1, 2]\nclass = Student", fillcolor="#9ccef2"] ;
85 -> 87 ;
88 [label="gini = 0.0\nsamples = 5\nvalue = [8, 0]\nclass = LLM", fillcolor="#e58139"] ;
84 -> 88 ;
89 [label="gini = 0.0\nsamples = 7\nvalue = [12, 0]\nclass = LLM", fillcolor="#e58139"] ;
83 -> 89 ;
90 [label="gini = 0.0\nsamples = 43\nvalue = [69, 0]\nclass = LLM", fillcolor="#e58139"] ;
82 -> 90 ;
91 [label="gini = 0.0\nsamples = 20\nvalue = [29, 0]\nclass = LLM", fillcolor="#e58139"] ;
81 -> 91 ;
92 [label="gini = 0.408\nsamples = 3\nvalue = [5, 2]\nclass = LLM", fillcolor="#efb388"] ;
80 -> 92 ;
93 [label="gini = 0.0\nsamples = 48\nvalue = [78, 0]\nclass = LLM", fillcolor="#e58139"] ;
79 -> 93 ;
94 [label="gini = 0.0\nsamples = 29\nvalue = [42, 0]\nclass = LLM", fillcolor="#e58139"] ;
78 -> 94 ;
}
