digraph Tree {
node [shape=box, style="filled, rounded", color="black", fontname="helvetica"] ;
edge [fontname="helvetica"] ;
0 [label="// <= 0.019\ngini = 0.5\nsamples = 3010\nvalue = [2379, 2421]\nclass = Student", fillcolor="#fcfdff"] ;
1 [label=" (i <= 0.018\ngini = 0.422\nsamples = 2094\nvalue = [1019.0, 2349.0]\nclass = Student", fillcolor="#8fc8f0"] ;
0 -> 1 [labeldistance=2.5, labelangle=45, headlabel="True"] ;
2 [label=" publi <= 0.022\ngini = 0.362\nsamples = 1268\nvalue = [486, 1558]\nclass = Student", fillcolor="#77bced"] ;
1 -> 2 ;
3 [label=" i++) <= 0.013\ngini = 0.268\nsamples = 891\nvalue = [231, 1220]\nclass = Student", fillcolor="#5eb0ea"] ;
2 -> 3 ;
4 [label=" 2 <= 0.042\ngini = 0.325\nsamples = 680\nvalue = [231, 898]\nclass = Student", fillcolor="#6cb6ec"] ;
3 -> 4 ;
5 [label="b,  <= 0.099\ngini = 0.25\nsamples = 518\nvalue = [125, 728]\nclass = Student", fillcolor="#5baee9"] ;
4 -> 5 ;
6 [label="as <= 0.079\ngini = 0.227\nsamples = 509\nvalue = [109.0, 728.0]\nclass = Student", fillcolor="#57ace9"] ;
5 -> 6 ;
7 [label="m  <= 0.133\ngini = 0.199\nsamples = 487\nvalue = [90, 712]\nclass = Student", fillcolor="#52a9e8"] ;
6 -> 7 ;
8 [label="/  <= 0.028\ngini = 0.145\nsamples = 463\nvalue = [60, 702]\nclass = Student", fillcolor="#4aa5e7"] ;
7 -> 8 ;
9 [label="ay  <= 0.04\ngini = 0.107\nsamples = 450\nvalue = [42, 698]\nclass = Student", fillcolor="#45a3e7"] ;
8 -> 9 ;
10 [label=")); <= 0.101\ngini = 0.035\nsamples = 407\nvalue = [12, 657]\nclass = Student", fillcolor="#3d9fe5"] ;
9 -> 10 ;
11 [label="pe <= 0.217\ngini = 0.021\nsamples = 405\nvalue = [7.0, 657.0]\nclass = Student", fillcolor="#3b9ee5"] ;
10 -> 11 ;
12 [label="sult <= 0.102\ngini = 0.015\nsamples = 403\nvalue = [5, 656]\nclass = Student", fillcolor="#3b9ee5"] ;
11 -> 12 ;
13 [label=" str. <= 0.119\ngini = 0.003\nsamples = 391\nvalue = [1, 638]\nclass = Student", fillcolor="#399de5"] ;
12 -> 13 ;
14 [label="gini = 0.0\nsamples = 385\nvalue = [0, 628]\nclass = Student", fillcolor="#399de5"] ;
13 -> 14 ;
15 [label=")) <= 0.018\ngini = 0.165\nsamples = 6\nvalue = [1, 10]\nclass = Student", fillcolor="#4da7e8"] ;
13 -> 15 ;
16 [label="gini = 0.0\nsamples = 4\nvalue = [0, 9]\nclass = Student", fillcolor="#399de5"] ;
15 -> 16 ;
17 [label="gini = 0.5\nsamples = 2\nvalue = [1, 1]\nclass = LLM", fillcolor="#ffffff"] ;
15 -> 17 ;
18 [label="w  <= 0.009\ngini = 0.298\nsamples = 12\nvalue = [4, 18]\nclass = Student", fillcolor="#65b3eb"] ;
12 -> 18 ;
19 [label="gini = 0.0\nsamples = 9\nvalue = [0, 18]\nclass = Student", fillcolor="#399de5"] ;
18 -> 19 ;
20 [label="gini = 0.0\nsamples = 3\nvalue = [4, 0]\nclass = LLM", fillcolor="#e58139"] ;
18 -> 20 ;
21 [label="gini = 0.444\nsamples = 2\nvalue = [2, 1]\nclass = LLM", fillcolor="#f2c09c"] ;
11 -> 21 ;
22 [label="gini = 0.0\nsamples = 2\nvalue = [5, 0]\nclass = LLM", fillcolor="#e58139"] ;
10 -> 22 ;
23 [label="an <= 0.026\ngini = 0.488\nsamples = 43\nvalue = [30, 41]\nclass = Student", fillcolor="#cae5f8"] ;
9 -> 23 ;
24 [label="gini = 0.0\nsamples = 16\nvalue = [0, 24]\nclass = Student", fillcolor="#399de5"] ;
23 -> 24 ;
25 [label="lic  <= 0.016\ngini = 0.462\nsamples = 27\nvalue = [30, 17]\nclass = LLM", fillcolor="#f4c8a9"] ;
23 -> 25 ;
26 [label="se <= 0.039\ngini = 0.071\nsamples = 15\nvalue = [26, 1]\nclass = LLM", fillcolor="#e68641"] ;
25 -> 26 ;
27 [label="gini = 0.5\nsamples = 2\nvalue = [1, 1]\nclass = LLM", fillcolor="#ffffff"] ;
26 -> 27 ;
28 [label="gini = 0.0\nsamples = 13\nvalue = [25, 0]\nclass = LLM", fillcolor="#e58139"] ;
26 -> 28 ;
29 [label=" i <= 0.031\ngini = 0.32\nsamples = 12\nvalue = [4, 16]\nclass = Student", fillcolor="#6ab6ec"] ;
25 -> 29 ;
30 [label="gini = 0.0\nsamples = 3\nvalue = [4, 0]\nclass = LLM", fillcolor="#e58139"] ;
29 -> 30 ;
31 [label="gini = 0.0\nsamples = 9\nvalue = [0, 16]\nclass = Student", fillcolor="#399de5"] ;
29 -> 31 ;
32 [label="al <= 0.226\ngini = 0.298\nsamples = 13\nvalue = [18, 4]\nclass = LLM", fillcolor="#eb9d65"] ;
8 -> 32 ;
33 [label="gini = 0.0\nsamples = 11\nvalue = [18, 0]\nclass = LLM", fillcolor="#e58139"] ;
32 -> 33 ;
34 [label="gini = 0.0\nsamples = 2\nvalue = [0, 4]\nclass = Student", fillcolor="#399de5"] ;
32 -> 34 ;
35 [label=" ! <= 0.098\ngini = 0.375\nsamples = 24\nvalue = [30, 10]\nclass = LLM", fillcolor="#eeab7b"] ;
7 -> 35 ;
36 [label="gini = 0.0\nsamples = 8\nvalue = [0, 10]\nclass = Student", fillcolor="#399de5"] ;
35 -> 36 ;
37 [label="gini = 0.0\nsamples = 16\nvalue = [30, 0]\nclass = LLM", fillcolor="#e58139"] ;
35 -> 37 ;
38 [label="ls <= 0.005\ngini = 0.496\nsamples = 22\nvalue = [19, 16]\nclass = LLM", fillcolor="#fbebe0"] ;
6 -> 38 ;
39 [label=" }  <= 0.018\ngini = 0.188\nsamples = 13\nvalue = [17, 2]\nclass = LLM", fillcolor="#e89050"] ;
38 -> 39 ;
40 [label="gini = 0.0\nsamples = 9\nvalue = [13, 0]\nclass = LLM", fillcolor="#e58139"] ;
39 -> 40 ;
41 [label="gini = 0.444\nsamples = 4\nvalue = [4, 2]\nclass = LLM", fillcolor="#f2c09c"] ;
39 -> 41 ;
42 [label="bo <= 0.037\ngini = 0.219\nsamples = 9\nvalue = [2, 14]\nclass = Student", fillcolor="#55abe9"] ;
38 -> 42 ;
43 [label="gini = 0.0\nsamples = 7\nvalue = [0, 13]\nclass = Student", fillcolor="#399de5"] ;
42 -> 43 ;
44 [label="gini = 0.444\nsamples = 2\nvalue = [2, 1]\nclass = LLM", fillcolor="#f2c09c"] ;
42 -> 44 ;
45 [label="gini = 0.0\nsamples = 9\nvalue = [16, 0]\nclass = LLM", fillcolor="#e58139"] ;
5 -> 45 ;
46 [label="(str. <= 0.091\ngini = 0.473\nsamples = 162\nvalue = [106, 170]\nclass = Student", fillcolor="#b4daf5"] ;
4 -> 46 ;
47 [label=" c)  <= 0.106\ngini = 0.389\nsamples = 134\nvalue = [58, 161]\nclass = Student", fillcolor="#80c0ee"] ;
46 -> 47 ;
48 [label="ms)  <= 0.046\ngini = 0.171\nsamples = 85\nvalue = [13, 125]\nclass = Student", fillcolor="#4ea7e8"] ;
47 -> 48 ;
49 [label=");  <= 0.046\ngini = 0.1\nsamples = 81\nvalue = [7, 125]\nclass = Student", fillcolor="#44a2e6"] ;
48 -> 49 ;
50 [label="retu <= 0.083\ngini = 0.034\nsamples = 70\nvalue = [2, 113]\nclass = Student", fillcolor="#3d9fe5"] ;
49 -> 50 ;
51 [label="gini = 0.0\nsamples = 62\nvalue = [0, 105]\nclass = Student", fillcolor="#399de5"] ;
50 -> 51 ;
52 [label=" 2 <= 0.158\ngini = 0.32\nsamples = 8\nvalue = [2, 8]\nclass = Student", fillcolor="#6ab6ec"] ;
50 -> 52 ;
53 [label="gini = 0.0\nsamples = 6\nvalue = [0, 8]\nclass = Student", fillcolor="#399de5"] ;
52 -> 53 ;
54 [label="gini = 0.0\nsamples = 2\nvalue = [2, 0]\nclass = LLM", fillcolor="#e58139"] ;
52 -> 54 ;
55 [label="ls <= 0.018\ngini = 0.415\nsamples = 11\nvalue = [5, 12]\nclass = Student", fillcolor="#8bc6f0"] ;
49 -> 55 ;
56 [label="gini = 0.0\nsamples = 2\nvalue = [5, 0]\nclass = LLM", fillcolor="#e58139"] ;
55 -> 56 ;
57 [label="gini = 0.0\nsamples = 9\nvalue = [0, 12]\nclass = Student", fillcolor="#399de5"] ;
55 -> 57 ;
58 [label="gini = 0.0\nsamples = 4\nvalue = [6, 0]\nclass = LLM", fillcolor="#e58139"] ;
48 -> 58 ;
59 [label="b, <= 0.06\ngini = 0.494\nsamples = 49\nvalue = [45, 36]\nclass = LLM", fillcolor="#fae6d7"] ;
47 -> 59 ;
60 [label=" a <= 0.062\ngini = 0.332\nsamples = 31\nvalue = [45, 12]\nclass = LLM", fillcolor="#eca36e"] ;
59 -> 60 ;
61 [label="urn <= 0.07\ngini = 0.375\nsamples = 5\nvalue = [3, 9]\nclass = Student", fillcolor="#7bbeee"] ;
60 -> 61 ;
62 [label="gini = 0.49\nsamples = 2\nvalue = [3, 4]\nclass = Student", fillcolor="#cee6f8"] ;
61 -> 62 ;
63 [label="gini = 0.0\nsamples = 3\nvalue = [0, 5]\nclass = Student", fillcolor="#399de5"] ;
61 -> 63 ;
64 [label=" &&  <= 0.15\ngini = 0.124\nsamples = 26\nvalue = [42, 3]\nclass = LLM", fillcolor="#e78a47"] ;
60 -> 64 ;
65 [label="gini = 0.0\nsamples = 24\nvalue = [42, 0]\nclass = LLM", fillcolor="#e58139"] ;
64 -> 65 ;
66 [label="gini = 0.0\nsamples = 2\nvalue = [0, 3]\nclass = Student", fillcolor="#399de5"] ;
64 -> 66 ;
67 [label="gini = 0.0\nsamples = 18\nvalue = [0, 24]\nclass = Student", fillcolor="#399de5"] ;
59 -> 67 ;
68 [label=" (st <= 0.098\ngini = 0.266\nsamples = 28\nvalue = [48, 9]\nclass = LLM", fillcolor="#ea995e"] ;
46 -> 68 ;
69 [label="gini = 0.0\nsamples = 23\nvalue = [47, 0]\nclass = LLM", fillcolor="#e58139"] ;
68 -> 69 ;
70 [label="2) <= 0.082\ngini = 0.18\nsamples = 5\nvalue = [1, 9]\nclass = Student", fillcolor="#4fa8e8"] ;
68 -> 70 ;
71 [label="gini = 0.0\nsamples = 3\nvalue = [0, 8]\nclass = Student", fillcolor="#399de5"] ;
70 -> 71 ;
72 [label="gini = 0.5\nsamples = 2\nvalue = [1, 1]\nclass = LLM", fillcolor="#ffffff"] ;
70 -> 72 ;
73 [label="gini = 0.0\nsamples = 211\nvalue = [0, 322]\nclass = Student", fillcolor="#399de5"] ;
3 -> 73 ;
74 [label=" > <= 0.028\ngini = 0.49\nsamples = 377\nvalue = [255, 338]\nclass = Student", fillcolor="#cee7f9"] ;
2 -> 74 ;
75 [label=" } <= 0.03\ngini = 0.38\nsamples = 194\nvalue = [77.0, 225.0]\nclass = Student", fillcolor="#7dbfee"] ;
74 -> 75 ;
76 [label=" a, <= 0.058\ngini = 0.497\nsamples = 91\nvalue = [63, 74]\nclass = Student", fillcolor="#e2f0fb"] ;
75 -> 76 ;
77 [label="s) <= 0.061\ngini = 0.287\nsamples = 52\nvalue = [13, 62]\nclass = Student", fillcolor="#63b2ea"] ;
76 -> 77 ;
78 [label="gini = 0.0\nsamples = 34\nvalue = [0, 49]\nclass = Student", fillcolor="#399de5"] ;
77 -> 78 ;
79 [label="gini = 0.5\nsamples = 18\nvalue = [13, 13]\nclass = LLM", fillcolor="#ffffff"] ;
77 -> 79 ;
80 [label=" if( <= 0.04\ngini = 0.312\nsamples = 39\nvalue = [50, 12]\nclass = LLM", fillcolor="#eb9f69"] ;
76 -> 80 ;
81 [label=" st <= 0.05\ngini = 0.191\nsamples = 35\nvalue = [50, 6]\nclass = LLM", fillcolor="#e89051"] ;
80 -> 81 ;
82 [label=" b <= 0.111\ngini = 0.137\nsamples = 33\nvalue = [50, 4]\nclass = LLM", fillcolor="#e78b49"] ;
81 -> 82 ;
83 [label="gini = 0.0\nsamples = 2\nvalue = [0, 2]\nclass = Student", fillcolor="#399de5"] ;
82 -> 83 ;
84 [label="su <= 0.021\ngini = 0.074\nsamples = 31\nvalue = [50, 2]\nclass = LLM", fillcolor="#e68641"] ;
82 -> 84 ;
85 [label="gini = 0.0\nsamples = 25\nvalue = [42, 0]\nclass = LLM", fillcolor="#e58139"] ;
84 -> 85 ;
86 [label="gini = 0.32\nsamples = 6\nvalue = [8, 2]\nclass = LLM", fillcolor="#eca06a"] ;
84 -> 86 ;
87 [label="gini = 0.0\nsamples = 2\nvalue = [0, 2]\nclass = Student", fillcolor="#399de5"] ;
81 -> 87 ;
88 [label="gini = 0.0\nsamples = 4\nvalue = [0, 6]\nclass = Student", fillcolor="#399de5"] ;
80 -> 88 ;
89 [label="if <= 0.073\ngini = 0.155\nsamples = 103\nvalue = [14, 151]\nclass = Student", fillcolor="#4ba6e7"] ;
75 -> 89 ;
90 [label="h  <= 0.048\ngini = 0.066\nsamples = 90\nvalue = [5, 141]\nclass = Student", fillcolor="#40a0e6"] ;
89 -> 90 ;
91 [label="gini = 0.0\nsamples = 87\nvalue = [0, 140]\nclass = Student", fillcolor="#399de5"] ;
90 -> 91 ;
92 [label="gini = 0.278\nsamples = 3\nvalue = [5, 1]\nclass = LLM", fillcolor="#ea9a61"] ;
90 -> 92 ;
93 [label=" ==  <= 0.079\ngini = 0.499\nsamples = 13\nvalue = [9, 10]\nclass = Student", fillcolor="#ebf5fc"] ;
89 -> 93 ;
94 [label="gini = 0.0\nsamples = 5\nvalue = [0, 8]\nclass = Student", fillcolor="#399de5"] ;
93 -> 94 ;
95 [label="b  <= 0.131\ngini = 0.298\nsamples = 8\nvalue = [9, 2]\nclass = LLM", fillcolor="#eb9d65"] ;
93 -> 95 ;
96 [label="b, <= 0.067\ngini = 0.444\nsamples = 5\nvalue = [4, 2]\nclass = LLM", fillcolor="#f2c09c"] ;
95 -> 96 ;
97 [label="gini = 0.0\nsamples = 3\nvalue = [4, 0]\nclass = LLM", fillcolor="#e58139"] ;
96 -> 97 ;
98 [label="gini = 0.0\nsamples = 2\nvalue = [0, 2]\nclass = Student", fillcolor="#399de5"] ;
96 -> 98 ;
99 [label="gini = 0.0\nsamples = 3\nvalue = [5, 0]\nclass = LLM", fillcolor="#e58139"] ;
95 -> 99 ;
100 [label="retur <= 0.056\ngini = 0.475\nsamples = 183\nvalue = [178, 113]\nclass = LLM", fillcolor="#f6d1b7"] ;
74 -> 100 ;
101 [label=" d <= 0.067\ngini = 0.368\nsamples = 130\nvalue = [162, 52]\nclass = LLM", fillcolor="#eda979"] ;
100 -> 101 ;
102 [label="e  <= 0.037\ngini = 0.308\nsamples = 121\nvalue = [162, 38]\nclass = LLM", fillcolor="#eb9f67"] ;
101 -> 102 ;
103 [label="c  <= 0.037\ngini = 0.258\nsamples = 115\nvalue = [162, 29]\nclass = LLM", fillcolor="#ea985c"] ;
102 -> 103 ;
104 [label="id <= 0.152\ngini = 0.18\nsamples = 109\nvalue = [162, 18]\nclass = LLM", fillcolor="#e88f4f"] ;
103 -> 104 ;
105 [label="um  <= 0.218\ngini = 0.146\nsamples = 107\nvalue = [162, 14]\nclass = LLM", fillcolor="#e78c4a"] ;
104 -> 105 ;
106 [label="rue <= 0.026\ngini = 0.1\nsamples = 104\nvalue = [162, 9]\nclass = LLM", fillcolor="#e68844"] ;
105 -> 106 ;
107 [label=" c <= 0.034\ngini = 0.079\nsamples = 102\nvalue = [162.0, 7.0]\nclass = LLM", fillcolor="#e68642"] ;
106 -> 107 ;
108 [label=">=  <= 0.017\ngini = 0.036\nsamples = 100\nvalue = [162, 3]\nclass = LLM", fillcolor="#e5833d"] ;
107 -> 108 ;
109 [label="gini = 0.5\nsamples = 2\nvalue = [1, 1]\nclass = LLM", fillcolor="#ffffff"] ;
108 -> 109 ;
110 [label="else  <= 0.027\ngini = 0.024\nsamples = 98\nvalue = [161, 2]\nclass = LLM", fillcolor="#e5833b"] ;
108 -> 110 ;
111 [label="gini = 0.0\nsamples = 71\nvalue = [116, 0]\nclass = LLM", fillcolor="#e58139"] ;
110 -> 111 ;
112 [label="etu <= 0.047\ngini = 0.081\nsamples = 27\nvalue = [45, 2]\nclass = LLM", fillcolor="#e68742"] ;
110 -> 112 ;
113 [label="gini = 0.0\nsamples = 13\nvalue = [20, 0]\nclass = LLM", fillcolor="#e58139"] ;
112 -> 113 ;
114 [label="gini = 0.137\nsamples = 14\nvalue = [25, 2]\nclass = LLM", fillcolor="#e78b49"] ;
112 -> 114 ;
115 [label="gini = 0.0\nsamples = 2\nvalue = [0, 4]\nclass = Student", fillcolor="#399de5"] ;
107 -> 115 ;
116 [label="gini = 0.0\nsamples = 2\nvalue = [0, 2]\nclass = Student", fillcolor="#399de5"] ;
106 -> 116 ;
117 [label="gini = 0.0\nsamples = 3\nvalue = [0, 5]\nclass = Student", fillcolor="#399de5"] ;
105 -> 117 ;
118 [label="gini = 0.0\nsamples = 2\nvalue = [0, 4]\nclass = Student", fillcolor="#399de5"] ;
104 -> 118 ;
119 [label="gini = 0.0\nsamples = 6\nvalue = [0, 11]\nclass = Student", fillcolor="#399de5"] ;
103 -> 119 ;
120 [label="gini = 0.0\nsamples = 6\nvalue = [0, 9]\nclass = Student", fillcolor="#399de5"] ;
102 -> 120 ;
121 [label="gini = 0.0\nsamples = 9\nvalue = [0, 14]\nclass = Student", fillcolor="#399de5"] ;
101 -> 121 ;
122 [label="0; <= 0.032\ngini = 0.329\nsamples = 53\nvalue = [16, 61]\nclass = Student", fillcolor="#6db7ec"] ;
100 -> 122 ;
123 [label="0;  <= 0.031\ngini = 0.449\nsamples = 32\nvalue = [16.0, 31.0]\nclass = Student", fillcolor="#9fd0f2"] ;
122 -> 123 ;
124 [label="publi <= 0.023\ngini = 0.251\nsamples = 23\nvalue = [5, 29]\nclass = Student", fillcolor="#5baee9"] ;
123 -> 124 ;
125 [label=" ma <= 0.032\ngini = 0.459\nsamples = 12\nvalue = [5, 9]\nclass = Student", fillcolor="#a7d3f3"] ;
124 -> 125 ;
126 [label="gini = 0.375\nsamples = 10\nvalue = [3, 9]\nclass = Student", fillcolor="#7bbeee"] ;
125 -> 126 ;
127 [label="gini = 0.0\nsamples = 2\nvalue = [2, 0]\nclass = LLM", fillcolor="#e58139"] ;
125 -> 127 ;
128 [label="gini = 0.0\nsamples = 11\nvalue = [0, 20]\nclass = Student", fillcolor="#399de5"] ;
124 -> 128 ;
129 [label="rn  <= 0.073\ngini = 0.26\nsamples = 9\nvalue = [11, 2]\nclass = LLM", fillcolor="#ea985d"] ;
123 -> 129 ;
130 [label="gini = 0.0\nsamples = 2\nvalue = [0, 2]\nclass = Student", fillcolor="#399de5"] ;
129 -> 130 ;
131 [label="gini = 0.0\nsamples = 7\nvalue = [11, 0]\nclass = LLM", fillcolor="#e58139"] ;
129 -> 131 ;
132 [label="gini = 0.0\nsamples = 21\nvalue = [0, 30]\nclass = Student", fillcolor="#399de5"] ;
122 -> 132 ;
133 [label="ult  <= 0.009\ngini = 0.481\nsamples = 826\nvalue = [533, 791]\nclass = Student", fillcolor="#bedff7"] ;
1 -> 133 ;
134 [label="if  <= 0.013\ngini = 0.451\nsamples = 723\nvalue = [397, 759]\nclass = Student", fillcolor="#a1d0f3"] ;
133 -> 134 ;
135 [label="tem <= 0.03\ngini = 0.056\nsamples = 107\nvalue = [5, 170]\nclass = Student", fillcolor="#3fa0e6"] ;
134 -> 135 ;
136 [label="ums[ <= 0.092\ngini = 0.034\nsamples = 103\nvalue = [3, 168]\nclass = Student", fillcolor="#3d9fe5"] ;
135 -> 136 ;
137 [label="nums)  <= 0.051\ngini = 0.012\nsamples = 101\nvalue = [1, 167]\nclass = Student", fillcolor="#3a9ee5"] ;
136 -> 137 ;
138 [label="gini = 0.0\nsamples = 94\nvalue = [0, 155]\nclass = Student", fillcolor="#399de5"] ;
137 -> 138 ;
139 [label="nu <= 0.112\ngini = 0.142\nsamples = 7\nvalue = [1, 12]\nclass = Student", fillcolor="#49a5e7"] ;
137 -> 139 ;
140 [label="gini = 0.0\nsamples = 5\nvalue = [0, 11]\nclass = Student", fillcolor="#399de5"] ;
139 -> 140 ;
141 [label="gini = 0.5\nsamples = 2\nvalue = [1, 1]\nclass = LLM", fillcolor="#ffffff"] ;
139 -> 141 ;
142 [label="gini = 0.444\nsamples = 2\nvalue = [2, 1]\nclass = LLM", fillcolor="#f2c09c"] ;
136 -> 142 ;
143 [label="gini = 0.5\nsamples = 4\nvalue = [2, 2]\nclass = LLM", fillcolor="#ffffff"] ;
135 -> 143 ;
144 [label="urn  <= 0.011\ngini = 0.48\nsamples = 616\nvalue = [392, 589]\nclass = Student", fillcolor="#bddef6"] ;
134 -> 144 ;
145 [label="gini = 0.0\nsamples = 65\nvalue = [0, 99]\nclass = Student", fillcolor="#399de5"] ;
144 -> 145 ;
146 [label="rue <= 0.062\ngini = 0.494\nsamples = 551\nvalue = [392, 490]\nclass = Student", fillcolor="#d7ebfa"] ;
144 -> 146 ;
147 [label="); <= 0.023\ngini = 0.5\nsamples = 504\nvalue = [392.0, 417.0]\nclass = Student", fillcolor="#f3f9fd"] ;
146 -> 147 ;
148 [label="nt[]  <= 0.052\ngini = 0.496\nsamples = 450\nvalue = [390.0, 326.0]\nclass = LLM", fillcolor="#fbeadf"] ;
147 -> 148 ;
149 [label="gth; <= 0.051\ngini = 0.48\nsamples = 409\nvalue = [389, 260]\nclass = LLM", fillcolor="#f6d5bd"] ;
148 -> 149 ;
150 [label="nt  <= 0.015\ngini = 0.46\nsamples = 382\nvalue = [389, 218]\nclass = LLM", fillcolor="#f4c8a8"] ;
149 -> 150 ;
151 [label="olean <= 0.13\ngini = 0.367\nsamples = 39\nvalue = [15, 47]\nclass = Student", fillcolor="#78bced"] ;
150 -> 151 ;
152 [label="i  <= 0.122\ngini = 0.085\nsamples = 29\nvalue = [2, 43]\nclass = Student", fillcolor="#42a2e6"] ;
151 -> 152 ;
153 [label="gini = 0.0\nsamples = 25\nvalue = [0, 40]\nclass = Student", fillcolor="#399de5"] ;
152 -> 153 ;
154 [label="gini = 0.48\nsamples = 4\nvalue = [2, 3]\nclass = Student", fillcolor="#bddef6"] ;
152 -> 154 ;
155 [label="(b <= 0.045\ngini = 0.36\nsamples = 10\nvalue = [13, 4]\nclass = LLM", fillcolor="#eda876"] ;
151 -> 155 ;
156 [label="gini = 0.0\nsamples = 7\nvalue = [11, 0]\nclass = LLM", fillcolor="#e58139"] ;
155 -> 156 ;
157 [label="gini = 0.444\nsamples = 3\nvalue = [2, 4]\nclass = Student", fillcolor="#9ccef2"] ;
155 -> 157 ;
158 [label=" (nums <= 0.059\ngini = 0.431\nsamples = 343\nvalue = [374, 171]\nclass = LLM", fillcolor="#f1bb94"] ;
150 -> 158 ;
159 [label=" % <= 0.062\ngini = 0.365\nsamples = 301\nvalue = [361, 114]\nclass = LLM", fillcolor="#eda978"] ;
158 -> 159 ;
160 [label=" nums) <= 0.047\ngini = 0.349\nsamples = 296\nvalue = [361, 105]\nclass = LLM", fillcolor="#eda673"] ;
159 -> 160 ;
161 [label="(num <= 0.059\ngini = 0.402\nsamples = 234\nvalue = [261, 101]\nclass = LLM", fillcolor="#efb286"] ;
160 -> 161 ;
162 [label=" cou <= 0.201\ngini = 0.379\nsamples = 224\nvalue = [261, 89]\nclass = LLM", fillcolor="#eeac7d"] ;
161 -> 162 ;
163 [label="gini = 0.359\nsamples = 216\nvalue = [261, 80]\nclass = LLM", fillcolor="#eda876"] ;
162 -> 163 ;
164 [label="gini = 0.0\nsamples = 8\nvalue = [0, 9]\nclass = Student", fillcolor="#399de5"] ;
162 -> 164 ;
165 [label="gini = 0.0\nsamples = 10\nvalue = [0, 12]\nclass = Student", fillcolor="#399de5"] ;
161 -> 165 ;
166 [label="num  <= 0.021\ngini = 0.074\nsamples = 62\nvalue = [100, 4]\nclass = LLM", fillcolor="#e68641"] ;
160 -> 166 ;
167 [label="gini = 0.0\nsamples = 3\nvalue = [0, 4]\nclass = Student", fillcolor="#399de5"] ;
166 -> 167 ;
168 [label="gini = 0.0\nsamples = 59\nvalue = [100, 0]\nclass = LLM", fillcolor="#e58139"] ;
166 -> 168 ;
169 [label="gini = 0.0\nsamples = 5\nvalue = [0, 9]\nclass = Student", fillcolor="#399de5"] ;
159 -> 169 ;
170 [label=".lengt <= 0.024\ngini = 0.302\nsamples = 42\nvalue = [13, 57]\nclass = Student", fillcolor="#66b3eb"] ;
158 -> 170 ;
171 [label="int[] <= 0.026\ngini = 0.499\nsamples = 13\nvalue = [12, 11]\nclass = LLM", fillcolor="#fdf5ef"] ;
170 -> 171 ;
172 [label="gini = 0.0\nsamples = 6\nvalue = [0, 10]\nclass = Student", fillcolor="#399de5"] ;
171 -> 172 ;
173 [label="um <= 0.192\ngini = 0.142\nsamples = 7\nvalue = [12, 1]\nclass = LLM", fillcolor="#e78c49"] ;
171 -> 173 ;
174 [label="gini = 0.5\nsamples = 2\nvalue = [1, 1]\nclass = LLM", fillcolor="#ffffff"] ;
173 -> 174 ;
175 [label="gini = 0.0\nsamples = 5\nvalue = [11, 0]\nclass = LLM", fillcolor="#e58139"] ;
173 -> 175 ;
176 [label="==  <= 0.086\ngini = 0.042\nsamples = 29\nvalue = [1, 46]\nclass = Student", fillcolor="#3d9fe6"] ;
170 -> 176 ;
177 [label="gini = 0.0\nsamples = 27\nvalue = [0, 45]\nclass = Student", fillcolor="#399de5"] ;
176 -> 177 ;
178 [label="gini = 0.5\nsamples = 2\nvalue = [1, 1]\nclass = LLM", fillcolor="#ffffff"] ;
176 -> 178 ;
179 [label="gini = 0.0\nsamples = 27\nvalue = [0, 42]\nclass = Student", fillcolor="#399de5"] ;
149 -> 179 ;
180 [label="i++) <= 0.009\ngini = 0.029\nsamples = 41\nvalue = [1, 66]\nclass = Student", fillcolor="#3c9ee5"] ;
148 -> 180 ;
181 [label="gini = 0.375\nsamples = 3\nvalue = [1, 3]\nclass = Student", fillcolor="#7bbeee"] ;
180 -> 181 ;
182 [label="gini = 0.0\nsamples = 38\nvalue = [0, 63]\nclass = Student", fillcolor="#399de5"] ;
180 -> 182 ;
183 [label="charat <= 0.074\ngini = 0.042\nsamples = 54\nvalue = [2, 91]\nclass = Student", fillcolor="#3d9fe6"] ;
147 -> 183 ;
184 [label="gini = 0.0\nsamples = 38\nvalue = [0, 67]\nclass = Student", fillcolor="#399de5"] ;
183 -> 184 ;
185 [label="as <= 0.061\ngini = 0.142\nsamples = 16\nvalue = [2, 24]\nclass = Student", fillcolor="#49a5e7"] ;
183 -> 185 ;
186 [label="gini = 0.0\nsamples = 14\nvalue = [0, 24]\nclass = Student", fillcolor="#399de5"] ;
185 -> 186 ;
187 [label="gini = 0.0\nsamples = 2\nvalue = [2, 0]\nclass = LLM", fillcolor="#e58139"] ;
185 -> 187 ;
188 [label="gini = 0.0\nsamples = 47\nvalue = [0, 73]\nclass = Student", fillcolor="#399de5"] ;
146 -> 188 ;
189 [label=" if <= 0.025\ngini = 0.308\nsamples = 103\nvalue = [136, 32]\nclass = LLM", fillcolor="#eb9f68"] ;
133 -> 189 ;
190 [label="+=  <= 0.037\ngini = 0.232\nsamples = 97\nvalue = [136, 21]\nclass = LLM", fillcolor="#e99458"] ;
189 -> 190 ;
191 [label=" t <= 0.027\ngini = 0.169\nsamples = 93\nvalue = [136, 14]\nclass = LLM", fillcolor="#e88e4d"] ;
190 -> 191 ;
192 [label=" arra <= 0.015\ngini = 0.093\nsamples = 89\nvalue = [136, 7]\nclass = LLM", fillcolor="#e68743"] ;
191 -> 192 ;
193 [label="etu <= 0.018\ngini = 0.042\nsamples = 87\nvalue = [136, 3]\nclass = LLM", fillcolor="#e6843d"] ;
192 -> 193 ;
194 [label=">  <= 0.027\ngini = 0.017\nsamples = 75\nvalue = [119, 1]\nclass = LLM", fillcolor="#e5823b"] ;
193 -> 194 ;
195 [label="gini = 0.0\nsamples = 72\nvalue = [117, 0]\nclass = LLM", fillcolor="#e58139"] ;
194 -> 195 ;
196 [label="gini = 0.444\nsamples = 3\nvalue = [2, 1]\nclass = LLM", fillcolor="#f2c09c"] ;
194 -> 196 ;
197 [label=" i++) <= 0.019\ngini = 0.188\nsamples = 12\nvalue = [17, 2]\nclass = LLM", fillcolor="#e89050"] ;
193 -> 197 ;
198 [label="gini = 0.0\nsamples = 2\nvalue = [0, 2]\nclass = Student", fillcolor="#399de5"] ;
197 -> 198 ;
199 [label="gini = 0.0\nsamples = 10\nvalue = [17, 0]\nclass = LLM", fillcolor="#e58139"] ;
197 -> 199 ;
200 [label="gini = 0.0\nsamples = 2\nvalue = [0, 4]\nclass = Student", fillcolor="#399de5"] ;
192 -> 200 ;
201 [label="gini = 0.0\nsamples = 4\nvalue = [0, 7]\nclass = Student", fillcolor="#399de5"] ;
191 -> 201 ;
202 [label="gini = 0.0\nsamples = 4\nvalue = [0, 7]\nclass = Student", fillcolor="#399de5"] ;
190 -> 202 ;
203 [label="gini = 0.0\nsamples = 6\nvalue = [0, 11]\nclass = Student", fillcolor="#399de5"] ;
189 -> 203 ;
204 [label=" //  <= 0.018\ngini = 0.096\nsamples = 916\nvalue = [1360, 72]\nclass = LLM", fillcolor="#e68843"] ;
0 -> 204 [labeldistance=2.5, labelangle=-45, headlabel="False"] ;
205 [label="gini = 0.0\nsamples = 31\nvalue = [0, 49]\nclass = Student", fillcolor="#399de5"] ;
204 -> 205 ;
206 [label="tr.l <= 0.05\ngini = 0.033\nsamples = 885\nvalue = [1360, 23]\nclass = LLM", fillcolor="#e5833c"] ;
204 -> 206 ;
207 [label="(nums[ <= 0.035\ngini = 0.03\nsamples = 881\nvalue = [1357, 21]\nclass = LLM", fillcolor="#e5833c"] ;
206 -> 207 ;
208 [label="id <= 0.199\ngini = 0.018\nsamples = 860\nvalue = [1324, 12]\nclass = LLM", fillcolor="#e5823b"] ;
207 -> 208 ;
209 [label=" (a  <= 0.124\ngini = 0.015\nsamples = 858\nvalue = [1323, 10]\nclass = LLM", fillcolor="#e5823a"] ;
208 -> 209 ;
210 [label=" 0)  <= 0.054\ngini = 0.012\nsamples = 856\nvalue = [1323, 8]\nclass = LLM", fillcolor="#e5823a"] ;
209 -> 210 ;
211 [label=" = <= 0.099\ngini = 0.009\nsamples = 854\nvalue = [1322, 6]\nclass = LLM", fillcolor="#e5823a"] ;
210 -> 211 ;
212 [label="f( <= 0.028\ngini = 0.005\nsamples = 851\nvalue = [1320, 3]\nclass = LLM", fillcolor="#e58139"] ;
211 -> 212 ;
213 [label=" g <= 0.148\ngini = 0.002\nsamples = 849\nvalue = [1320, 1]\nclass = LLM", fillcolor="#e58139"] ;
212 -> 213 ;
214 [label="gini = 0.0\nsamples = 847\nvalue = [1319, 0]\nclass = LLM", fillcolor="#e58139"] ;
213 -> 214 ;
215 [label="gini = 0.5\nsamples = 2\nvalue = [1, 1]\nclass = LLM", fillcolor="#ffffff"] ;
213 -> 215 ;
216 [label="gini = 0.0\nsamples = 2\nvalue = [0, 2]\nclass = Student", fillcolor="#399de5"] ;
212 -> 216 ;
217 [label="gini = 0.48\nsamples = 3\nvalue = [2, 3]\nclass = Student", fillcolor="#bddef6"] ;
211 -> 217 ;
218 [label="gini = 0.444\nsamples = 2\nvalue = [1, 2]\nclass = Student", fillcolor="#9ccef2"] ;
210 -> 218 ;
219 [label="gini = 0.0\nsamples = 2\nvalue = [0, 2]\nclass = Student", fillcolor="#399de5"] ;
209 -> 219 ;
220 [label="gini = 0.444\nsamples = 2\nvalue = [1, 2]\nclass = Student", fillcolor="#9ccef2"] ;
208 -> 220 ;
221 [label="ut <= 0.007\ngini = 0.337\nsamples = 21\nvalue = [33, 9]\nclass = LLM", fillcolor="#eca36f"] ;
207 -> 221 ;
222 [label="(int  <= 0.021\ngini = 0.193\nsamples = 18\nvalue = [33, 4]\nclass = LLM", fillcolor="#e89051"] ;
221 -> 222 ;
223 [label="gini = 0.0\nsamples = 16\nvalue = [33, 0]\nclass = LLM", fillcolor="#e58139"] ;
222 -> 223 ;
224 [label="gini = 0.0\nsamples = 2\nvalue = [0, 4]\nclass = Student", fillcolor="#399de5"] ;
222 -> 224 ;
225 [label="gini = 0.0\nsamples = 3\nvalue = [0, 5]\nclass = Student", fillcolor="#399de5"] ;
221 -> 225 ;
226 [label="gini = 0.48\nsamples = 4\nvalue = [3, 2]\nclass = LLM", fillcolor="#f6d5bd"] ;
206 -> 226 ;
}
