digraph Tree {
node [shape=box, style="filled, rounded", color="black", fontname="helvetica"] ;
edge [fontname="helvetica"] ;
0 [label=< //  &le; 0.03<br/>gini = 0.5<br/>samples = 4800<br/>value = [0.502, 0.498]<br/>class = LLM>, fillcolor="#fffefd"] ;
1 [label=< :  &le; 0.008<br/>gini = 0.497<br/>samples = 4409<br/>value = [0.426, 0.492]<br/>class = Student>, fillcolor="#e4f2fc"] ;
0 -> 1 [labeldistance=2.5, labelangle=45, headlabel="True"] ;
2 [label=< =  &le; 0.074<br/>gini = 0.49<br/>samples = 4113<br/>value = [0.367, 0.489]<br/>class = Student>, fillcolor="#cee7f9"] ;
1 -> 2 ;
3 [label=<gini = 0.5<br/>samples = 2787<br/>value = [0.294, 0.286]<br/>class = LLM>, fillcolor="#fefcfa"] ;
2 -> 3 ;
4 [label=<gini = 0.389<br/>samples = 1326<br/>value = [0.073, 0.203]<br/>class = Student>, fillcolor="#80c0ee"] ;
2 -> 4 ;
5 [label=<rray &le; 0.196<br/>gini = 0.09<br/>samples = 296<br/>value = [0.059, 0.003]<br/>class = LLM>, fillcolor="#e68743"] ;
1 -> 5 ;
6 [label=<gini = 0.054<br/>samples = 290<br/>value = [0.059, 0.002]<br/>class = LLM>, fillcolor="#e6853f"] ;
5 -> 6 ;
7 [label=<gini = -0.0<br/>samples = 6<br/>value = [0.0, 0.001]<br/>class = Student>, fillcolor="#399de5"] ;
5 -> 7 ;
8 [label=< =  &le; 0.074<br/>gini = 0.129<br/>samples = 391<br/>value = [0.076, 0.006]<br/>class = LLM>, fillcolor="#e78a48"] ;
0 -> 8 [labeldistance=2.5, labelangle=-45, headlabel="False"] ;
9 [label=<al)  &le; 0.155<br/>gini = 0.062<br/>samples = 341<br/>value = [0.069, 0.002]<br/>class = LLM>, fillcolor="#e68540"] ;
8 -> 9 ;
10 [label=<gini = 0.046<br/>samples = 338<br/>value = [0.069, 0.002]<br/>class = LLM>, fillcolor="#e6843e"] ;
9 -> 10 ;
11 [label=<gini = 0.0<br/>samples = 3<br/>value = [0.0, 0.001]<br/>class = Student>, fillcolor="#399de5"] ;
9 -> 11 ;
12 [label=<else &le; 0.012<br/>gini = 0.435<br/>samples = 50<br/>value = [0.007, 0.003]<br/>class = LLM>, fillcolor="#f1bc96"] ;
8 -> 12 ;
13 [label=<gini = 0.185<br/>samples = 29<br/>value = [0.005, 0.001]<br/>class = LLM>, fillcolor="#e89050"] ;
12 -> 13 ;
14 [label=<gini = 0.472<br/>samples = 21<br/>value = [0.002, 0.003]<br/>class = Student>, fillcolor="#b3d9f5"] ;
12 -> 14 ;
}
