digraph Tree {
node [shape=box, style="filled, rounded", color="black", fontname="helvetica"] ;
edge [fontname="helvetica"] ;
0 [label=< :  &le; 0.008<br/>gini = 0.5<br/>samples = 4800<br/>value = [0.498, 0.502]<br/>class = Student>, fillcolor="#fdfeff"] ;
1 [label=< =  &le; 0.074<br/>gini = 0.497<br/>samples = 4453<br/>value = [0.429, 0.499]<br/>class = Student>, fillcolor="#e3f1fb"] ;
0 -> 1 [labeldistance=2.5, labelangle=45, headlabel="True"] ;
2 [label=< //  &le; 0.03<br/>gini = 0.495<br/>samples = 3093<br/>value = [0.354, 0.29]<br/>class = LLM>, fillcolor="#fae8db"] ;
1 -> 2 ;
3 [label=<gini = 0.5<br/>samples = 2812<br/>value = [0.298, 0.288]<br/>class = LLM>, fillcolor="#fefbf8"] ;
2 -> 3 ;
4 [label=<gini = 0.075<br/>samples = 281<br/>value = [0.056, 0.002]<br/>class = LLM>, fillcolor="#e68641"] ;
2 -> 4 ;
5 [label=<sult[ &le; 0.022<br/>gini = 0.388<br/>samples = 1360<br/>value = [0.075, 0.209]<br/>class = Student>, fillcolor="#80c0ee"] ;
1 -> 5 ;
6 [label=<gini = 0.324<br/>samples = 1236<br/>value = [0.052, 0.205]<br/>class = Student>, fillcolor="#6bb6ec"] ;
5 -> 6 ;
7 [label=<gini = 0.237<br/>samples = 124<br/>value = [0.022, 0.004]<br/>class = LLM>, fillcolor="#e99558"] ;
5 -> 7 ;
8 [label=<array &le; 0.196<br/>gini = 0.088<br/>samples = 347<br/>value = [0.069, 0.003]<br/>class = LLM>, fillcolor="#e68743"] ;
0 -> 8 [labeldistance=2.5, labelangle=-45, headlabel="False"] ;
9 [label=< i;  &le; 0.083<br/>gini = 0.062<br/>samples = 342<br/>value = [0.069, 0.002]<br/>class = LLM>, fillcolor="#e68540"] ;
8 -> 9 ;
10 [label=<gini = 0.052<br/>samples = 340<br/>value = [0.069, 0.002]<br/>class = LLM>, fillcolor="#e6843e"] ;
9 -> 10 ;
11 [label=<gini = 0.0<br/>samples = 2<br/>value = [0.0, 0.0]<br/>class = Student>, fillcolor="#399de5"] ;
9 -> 11 ;
12 [label=< nums) &le; 0.021<br/>gini = 0.0<br/>samples = 5<br/>value = [0.0, 0.001]<br/>class = Student>, fillcolor="#399de5"] ;
8 -> 12 ;
13 [label=<gini = 0.0<br/>samples = 1<br/>value = [0.0, 0.0]<br/>class = Student>, fillcolor="#399de5"] ;
12 -> 13 ;
14 [label=<gini = 0.0<br/>samples = 4<br/>value = [0.0, 0.001]<br/>class = Student>, fillcolor="#399de5"] ;
12 -> 14 ;
}
