digraph Tree {
node [shape=box, style="filled, rounded", color="black", fontname="helvetica"] ;
edge [fontname="helvetica"] ;
0 [label=< //  &le; 0.03<br/>gini = 0.5<br/>samples = 4800<br/>value = [0.5, 0.5]<br/>class = Student>, fillcolor="#ffffff"] ;
1 [label=< :  &le; 0.008<br/>gini = 0.497<br/>samples = 4414<br/>value = [0.425, 0.494]<br/>class = Student>, fillcolor="#e3f1fb"] ;
0 -> 1 [labeldistance=2.5, labelangle=45, headlabel="True"] ;
2 [label=< =  &le; 0.072<br/>gini = 0.49<br/>samples = 4120<br/>value = [0.367, 0.491]<br/>class = Student>, fillcolor="#cde6f8"] ;
1 -> 2 ;
3 [label=<gini = 0.5<br/>samples = 2767<br/>value = [0.292, 0.284]<br/>class = LLM>, fillcolor="#fefcfa"] ;
2 -> 3 ;
4 [label=<gini = 0.391<br/>samples = 1353<br/>value = [0.075, 0.207]<br/>class = Student>, fillcolor="#81c1ee"] ;
2 -> 4 ;
5 [label=< i;  &le; 0.062<br/>gini = 0.097<br/>samples = 294<br/>value = [0.058, 0.003]<br/>class = LLM>, fillcolor="#e68844"] ;
1 -> 5 ;
6 [label=<gini = 0.054<br/>samples = 287<br/>value = [0.058, 0.002]<br/>class = LLM>, fillcolor="#e6853f"] ;
5 -> 6 ;
7 [label=<gini = -0.0<br/>samples = 7<br/>value = [0.0, 0.001]<br/>class = Student>, fillcolor="#399de5"] ;
5 -> 7 ;
8 [label=<ength; &le; 0.039<br/>gini = 0.139<br/>samples = 386<br/>value = [0.074, 0.006]<br/>class = LLM>, fillcolor="#e78b49"] ;
0 -> 8 [labeldistance=2.5, labelangle=-45, headlabel="False"] ;
9 [label=< int &le; 0.066<br/>gini = 0.102<br/>samples = 371<br/>value = [0.073, 0.004]<br/>class = LLM>, fillcolor="#e68844"] ;
8 -> 9 ;
10 [label=<gini = 0.057<br/>samples = 338<br/>value = [0.068, 0.002]<br/>class = LLM>, fillcolor="#e6853f"] ;
9 -> 10 ;
11 [label=<gini = 0.422<br/>samples = 33<br/>value = [0.005, 0.002]<br/>class = LLM>, fillcolor="#f0b88f"] ;
9 -> 11 ;
12 [label=< num &le; 0.157<br/>gini = 0.48<br/>samples = 15<br/>value = [0.001, 0.002]<br/>class = Student>, fillcolor="#bddef6"] ;
8 -> 12 ;
13 [label=<gini = 0.198<br/>samples = 9<br/>value = [0.0, 0.002]<br/>class = Student>, fillcolor="#52a9e8"] ;
12 -> 13 ;
14 [label=<gini = 0.278<br/>samples = 6<br/>value = [0.001, 0.0]<br/>class = LLM>, fillcolor="#ea9a61"] ;
12 -> 14 ;
}
